{"learner":{"attributes":{"best_iteration":"6","best_score":"0.7528409090909091"},"feature_names":["acc_Y_rms","acc_X_rms","Gyro_Y_rms","Gyro_X_rms","acc_Y_peak","acc_Sum_peak","acc_Y_crest","acc_Y_kurtosis","acc_Sum_kurtosis","acc_Y_rms_low","acc_Y_rms_mid","acc_Y_rms_high","acc_Sum_rms_low","acc_Sum_rms_mid","acc_Sum_rms_high","Gyro_Y_rms_low","Gyro_Y_rms_mid","Gyro_Y_rms_high"],"feature_types":[],"gradient_booster":{"model":{"gbtree_model_param":{"num_parallel_tree":"1","num_trees":"57"},"iteration_indptr":[0,1,2,3,4,5,6,7,8,9,10,11,12,13,14,15,16,17,18,19,20,21,22,23,24,25,26,27,28,29,30,31,32,33,34,35,36,37,38,39,40,41,42,43,44,45,46,47,48,49,50,51,52,53,54,55,56,57],"tree_info":[0,0,0,0,0,0,0,0,0,0,0,0,0,0,0,0,0,0,0,0,0,0,0,0,0,0,0,0,0,0,0,0,0,0,0,0,0,0,0,0,0,0,0,0,0,0,0,0,0,0,0,0,0,0,0,0,0],"trees":[{"base_weights":[5.1431525E-2,2.5341442E-1,-1.84E-2,-1.2179254E-1,1.5752221E0,4.0166572E-1,-1.2660654E0,-1E-2,1.718829E0,8.087915E-3,-1.804878E-2,1.5346613E-2,-1.6837353E-2,1.8264383E-2,2.451923E-3],"categories":[],"categories_nodes":[],"categories_segments":[],"categories_sizes":[],"default_left":[0,0,0,0,0,0,0,0,0,0,0,0,0,0,0],"id":0,"left_children":[1,3,-1,5,7,9,11,-1,13,-1,-1,-1,-1,-1,-1],"loss_changes":[4.948134E1,5.8118637E1,0E0,5.5556763E1,1.1295647E1,5.87887E1,3.660931E1,0E0,3.500084E0,0E0,0E0,0E0,0E0,0E0,0E0],"parents":[2147483647,0,0,1,1,3,3,4,4,5,5,6,6,8,8],"right_children":[2,4,-1,6,8,10,12,-1,14,-1,-1,-1,-1,-1,-1],"split_conditions":[5.476083E-3,8.9060366E-2,-1.84E-2,6.714585E-1,2.1370628E-1,4.8001617E-2,7.873726E-2,-1E-2,5.7872888E-2,8.087915E-3,-1.804878E-2,1.5346613E-2,-1.6837353E-2,1.8264383E-2,2.451923E-3],"split_indices":[16,13,0,3,7,9,1,0,12,0,0,0,0,0,0],"split_type":[0,0,0,0,0,0,0,0,0,0,0,0,0,0,0],"sum_hessian":[1.2729932E2,1.1579932E2,1.15E1,9.090343E1,2.4895891E1,6.2816437E1,2.8086987E1,1E0,2.3895891E1,5.3566437E1,9.25E0,3.2979453E0,2.4789042E1,2.2046576E1,1.849315E0],"tree_param":{"num_deleted":"0","num_feature":"18","num_nodes":"15","size_leaf_vector":"1"}},{"base_weights":[2.114578E-2,5.900649E-1,-7.4087894E-1,8.217502E-1,-1.6989948E-2,-2.6840425E-1,-1.5357649E0,-1.6556382E-2,1.0387436E0,-1.0238557E0,1.6048474E0,1.1330355E-2,-1.7847748E0,1.1267664E-2,-1.2630671E-2,-1.3678112E-2,1.4392343E-2,1.7664352E-2,3.1002613E-3,-7.158322E-3,-1.8658238E-2],"categories":[],"categories_nodes":[],"categories_segments":[],"categories_sizes":[],"default_left":[0,0,0,0,0,0,0,0,0,0,0,0,0,0,0,0,0,0,0,0,0],"id":1,"left_children":[1,3,5,7,-1,9,11,-1,13,15,17,-1,19,-1,-1,-1,-1,-1,-1,-1,-1],"loss_changes":[5.499451E1,3.9903267E1,1.9956924E1,3.7527046E1,0E0,5.1496906E1,1.5318405E1,0E0,1.395649E1,2.3754099E1,1.6521091E0,0E0,2.834854E-1,0E0,0E0,0E0,0E0,0E0,0E0,0E0,0E0],"parents":[2147483647,0,0,1,1,2,2,3,3,5,5,6,6,8,8,9,9,10,10,12,12],"right_children":[2,4,6,8,-1,10,12,-1,14,16,18,-1,20,-1,-1,-1,-1,-1,-1,-1,-1],"split_conditions":[7.1720105E-1,6.660329E-2,4.6901307E-3,2.1952316E-2,-1.6989948E-2,8.9060366E-2,2.659996E-2,-1.6556382E-2,1.9066685E-1,1.6782248E0,1.1477703E-1,1.1330355E-2,3.2414306E-2,1.1267664E-2,-1.2630671E-2,-1.3678112E-2,1.4392343E-2,1.7664352E-2,3.1002613E-3,-7.158322E-3,-1.8658238E-2],"split_indices":[2,9,16,9,0,13,9,0,0,3,10,0,9,0,0,0,0,0,0,0,0],"split_type":[0,0,0,0,0,0,0,0,0,0,0,0,0,0,0,0,0,0,0,0,0],"sum_hessian":[1.24844315E2,7.160815E1,5.3236176E1,6.560863E1,5.999515E0,3.4228596E1,1.9007578E1,4.7498817E0,6.0858746E1,2.4714914E1,9.513682E0,1.3191565E0,1.7688421E1,5.910887E1,1.7498751E0,2.2076714E1,2.6382008E0,8.134325E0,1.3793576E0,1.9395877E0,1.5748834E1],"tree_param":{"num_deleted":"0","num_feature":"18","num_nodes":"21","size_leaf_vector":"1"}},{"base_weights":[2.4701217E-2,2.4463367E-1,-1.8235005E-2,-1.3483553E-1,1.1987419E0,5.935362E-1,-8.619924E-1,1.5163223E0,-1.4784575E-2,1.0080825E-2,-1.1554976E-2,-1.512551E-2,7.4004726E-3,-1.2033063E-2,1.7020676E-2],"categories":[],"categories_nodes":[],"categories_segments":[],"categories_sizes":[],"default_left":[0,0,0,0,0,0,0,0,0,0,0,0,0,0,0],"id":2,"left_children":[1,3,-1,5,7,9,11,13,-1,-1,-1,-1,-1,-1,-1],"loss_changes":[5.253575E1,4.1943565E1,0E0,4.4717262E1,3.0247242E1,3.1826803E1,4.507434E1,1.7172295E1,0E0,0E0,0E0,0E0,0E0,0E0,0E0],"parents":[2147483647,0,0,1,1,3,3,4,4,5,5,6,6,7,7],"right_children":[2,4,-1,6,8,10,12,14,-1,-1,-1,-1,-1,-1,-1],"split_conditions":[1.7468924E-2,1.7951769E0,-1.8235005E-2,5.887075E-1,1.6194798E-1,1.0193652E0,1.6419633E-1,3.7318766E-1,-1.4784575E-2,1.0080825E-2,-1.1554976E-2,-1.512551E-2,7.4004726E-3,-1.2033063E-2,1.7020676E-2],"split_indices":[15,7,0,3,1,7,1,2,0,0,0,0,0,0,0],"split_type":[0,0,0,0,0,0,0,0,0,0,0,0,0,0,0],"sum_hessian":[1.27148285E2,1.14402275E2,1.2746014E1,8.246347E1,3.1938803E1,4.1289124E1,4.1174347E1,2.8939499E1,2.9993048E0,3.372051E1,7.5686135E0,2.9322771E1,1.1851575E1,1.4999163E0,2.7439583E1],"tree_param":{"num_deleted":"0","num_feature":"18","num_nodes":"15","size_leaf_vector":"1"}},{"base_weights":[6.9754645E-2,3.0585295E-1,-1.816445E-2,-8.5184686E-2,1.3079721E0,6.2493205E-1,-8.788279E-1,1.6253738E0,-8.569868E-1,1.04668075E-2,-1.1928839E-2,1.5041838E-2,-1.1286733E-2,-1.1121073E-2,1.7878577E-2,5.785197E-3,-1.4436277E-2],"categories":[],"categories_nodes":[],"categories_segments":[],"categories_sizes":[],"default_left":[0,0,0,0,0,0,0,0,0,0,0,0,0,0,0,0,0],"id":3,"left_children":[1,3,-1,5,7,9,11,13,15,-1,-1,-1,-1,-1,-1,-1,-1],"loss_changes":[5.8984764E1,4.614181E1,0E0,4.869743E1,2.4090992E1,3.626474E1,2.5965208E1,1.4955597E1,4.943303E0,0E0,0E0,0E0,0E0,0E0,0E0,0E0,0E0],"parents":[2147483647,0,0,1,1,3,3,4,4,5,5,6,6,7,7,8,8],"right_children":[2,4,-1,6,8,10,12,14,16,-1,-1,-1,-1,-1,-1,-1,-1],"split_conditions":[1.7468924E-2,1.7985723E0,-1.816445E-2,5.887075E-1,4.259744E-2,1.0193652E0,9.710337E-3,3.340119E-1,5.3382045E-1,1.04668075E-2,-1.1928839E-2,1.5041838E-2,-1.1286733E-2,-1.1121073E-2,1.7878577E-2,5.785197E-3,-1.4436277E-2],"split_indices":[15,7,0,3,9,7,8,2,2,0,0,0,0,0,0,0,0],"split_type":[0,0,0,0,0,0,0,0,0,0,0,0,0,0,0,0,0],"sum_hessian":[1.3020471E2,1.1646453E2,1.3740185E1,8.44329E1,3.2031628E1,4.467356E1,3.9759342E1,2.815334E1,3.8782873E0,3.660508E1,8.0684805E0,3.2965508E0,3.646279E1,1.2499603E0,2.690338E1,1.1291379E0,2.7491496E0],"tree_param":{"num_deleted":"0","num_feature":"18","num_nodes":"17","size_leaf_vector":"1"}},{"base_weights":[-1.9995733E-3,2.2716923E-1,-1.8007252E-2,-1.3745731E-1,1.2036903E0,2.5381032E-1,-1.4286697E0,1.501019E0,-1.2407662E-2,9.88119E-3,-5.395867E-3,-7.7164797E-3,-1.741417E-2,1.6188199E-2,-2.5587445E-3],"categories":[],"categories_nodes":[],"categories_segments":[],"categories_sizes":[],"default_left":[0,0,0,0,0,0,0,0,0,0,0,0,0,0,0],"id":4,"left_children":[1,3,-1,5,7,9,11,13,-1,-1,-1,-1,-1,-1,-1],"loss_changes":[5.373939E1,4.134209E1,0E0,4.3356056E1,2.478825E1,3.907727E1,2.7537994E0,6.3282166E0,0E0,0E0,0E0,0E0,0E0,0E0,0E0],"parents":[2147483647,0,0,1,1,3,3,4,4,5,5,6,6,7,7],"right_children":[2,4,-1,6,8,10,12,14,-1,-1,-1,-1,-1,-1,-1],"split_conditions":[1.7468924E-2,1.7985723E0,-1.8007252E-2,1.0193652E0,1.6134065E-1,5.887075E-1,1.22647636E-1,4.259744E-2,-1.2407662E-2,9.88119E-3,-5.395867E-3,-7.7164797E-3,-1.741417E-2,1.6188199E-2,-2.5587445E-3],"split_indices":[15,7,0,7,1,3,0,9,0,0,0,0,0,0,0],"split_type":[0,0,0,0,0,0,0,0,0,0,0,0,0,0,0],"sum_hessian":[1.28376E2,1.14643425E2,1.3732577E1,8.4100204E1,3.0543224E1,6.515894E1,1.8941256E1,2.7575108E1,2.9681168E0,3.3712116E1,3.144683E1,7.2266917E0,1.1714564E1,2.5916012E1,1.6590967E0],"tree_param":{"num_deleted":"0","num_feature":"18","num_nodes":"15","size_leaf_vector":"1"}},{"base_weights":[2.375279E-2,2.4304478E-1,-1.787436E-2,-1.507752E-1,1.2735295E0,-4.819223E-1,1.1352775E0,1.5114189E0,-1.3397035E-2,2.423548E-3,-1.5115275E-2,-7.283452E-3,1.6198993E-2,-1.2049185E-2,1.6946051E-2],"categories":[],"categories_nodes":[],"categories_segments":[],"categories_sizes":[],"default_left":[0,0,0,0,0,0,0,0,0,0,0,0,0,0,0],"id":5,"left_children":[1,3,-1,5,7,9,11,13,-1,-1,-1,-1,-1,-1,-1],"loss_changes":[5.2315907E1,4.7834976E1,0E0,3.7100357E1,2.2270046E1,5.178969E1,1.7322178E1,1.7128433E1,0E0,0E0,0E0,0E0,0E0,0E0,0E0],"parents":[2147483647,0,0,1,1,3,3,4,4,5,5,6,6,7,7],"right_children":[2,4,-1,6,8,10,12,14,-1,-1,-1,-1,-1,-1,-1],"split_conditions":[5.476083E-3,1.7985723E0,-1.787436E-2,8.762192E-2,1.6194798E-1,5.887075E-1,4.6099287E-2,3.7318766E-1,-1.3397035E-2,2.423548E-3,-1.5115275E-2,-7.283452E-3,1.6198993E-2,-1.2049185E-2,1.6946051E-2],"split_indices":[16,7,0,13,1,3,9,2,0,0,0,0,0,0,0],"split_type":[0,0,0,0,0,0,0,0,0,0,0,0,0,0,0],"sum_hessian":[1.2962486E2,1.16397675E2,1.3227188E1,8.483138E1,3.1566294E1,6.795805E1,1.6873323E1,2.9318943E1,2.247352E0,4.0343197E1,2.761486E1,3.378463E0,1.3494861E1,1.4999334E0,2.7819008E1],"tree_param":{"num_deleted":"0","num_feature":"18","num_nodes":"15","size_leaf_vector":"1"}},{"base_weights":[-6.705491E-2,1.5306377E-1,-1.7769076E-2,-1.02778964E-1,1.5124022E0,3.66326E-1,-9.856928E-1,1.7590342E-2,-8.040904E-3,-1.715951E-2,6.153439E-3,1.5031855E-2,-1.2760192E-2],"categories":[],"categories_nodes":[],"categories_segments":[],"categories_sizes":[],"default_left":[0,0,0,0,0,0,0,0,0,0,0,0,0],"id":6,"left_children":[1,3,-1,5,7,9,11,-1,-1,-1,-1,-1,-1],"loss_changes":[4.9389797E1,4.0685444E1,0E0,4.137178E1,1.19972725E1,3.496238E1,2.6938705E1,0E0,0E0,0E0,0E0,0E0,0E0],"parents":[2147483647,0,0,1,1,3,3,4,4,5,5,6,6],"right_children":[2,4,-1,6,8,10,12,-1,-1,-1,-1,-1,-1],"split_conditions":[1.7468924E-2,9.9644095E-2,-1.7769076E-2,7.0989364E-1,4.6901307E-3,2.2100491E-2,7.873726E-2,1.7590342E-2,-8.040904E-3,-1.715951E-2,6.153439E-3,1.5031855E-2,-1.2760192E-2],"split_indices":[15,13,0,2,16,12,1,0,0,0,0,0,0],"split_type":[0,0,0,0,0,0,0,0,0,0,0,0,0],"sum_hessian":[1.2950389E2,1.1554024E2,1.3963646E1,9.801677E1,1.7523466E1,6.439034E1,3.362643E1,1.6054794E1,1.4686724E0,6.2486367E0,5.8141705E1,3.0763416E0,3.0550089E1],"tree_param":{"num_deleted":"0","num_feature":"18","num_nodes":"13","size_leaf_vector":"1"}},{"base_weights":[1.8342866E-2,2.907004E-1,-1.3827025E0,6.828082E-2,1.714491E-2,-1.891549E-1,-1.7356003E-2,4.6708447E-1,-8.06714E-1,-1.4344164E-2,1.3295842E-2,6.423606E-3,-1.5765624E-2,-1.4778573E-2,4.719376E-3],"categories":[],"categories_nodes":[],"categories_segments":[],"categories_sizes":[],"default_left":[0,0,0,0,0,0,0,0,0,0,0,0,0,0,0],"id":7,"left_children":[1,3,5,7,-1,9,-1,11,13,-1,-1,-1,-1,-1,-1],"loss_changes":[4.950823E1,3.4265167E1,8.566994E0,3.3507507E1,0E0,1.3144161E1,0E0,2.460102E1,2.6521042E1,0E0,0E0,0E0,0E0,0E0,0E0],"parents":[2147483647,0,0,1,1,2,2,3,3,5,5,7,7,8,8],"right_children":[2,4,6,8,-1,10,-1,12,14,-1,-1,-1,-1,-1,-1],"split_conditions":[4.9813353E-2,9.9644095E-2,7.6508445E-1,7.0989364E-1,1.714491E-2,1.7051385E-1,-1.7356003E-2,6.660329E-2,7.7327853E-1,-1.4344164E-2,1.3295842E-2,6.423606E-3,-1.5765624E-2,-1.4778573E-2,4.719376E-3],"split_indices":[12,13,4,2,0,1,0,9,4,0,0,0,0,0,0],"split_type":[0,0,0,0,0,0,0,0,0,0,0,0,0,0,0],"sum_hessian":[1.2769019E2,1.0757128E2,2.011891E1,9.394369E1,1.3627596E1,4.941636E0,1.5177273E1,6.485182E1,2.9091866E1,2.745795E0,2.1958413E0,6.036059E1,4.4912295E0,1.8975922E1,1.0115944E1],"tree_param":{"num_deleted":"0","num_feature":"18","num_nodes":"15","size_leaf_vector":"1"}},{"base_weights":[1.1543072E-2,2.2707081E-1,-1.7496405E-2,-4.8037212E-2,1.566204E0,5.6616896E-1,-1.3394507E0,1.7864475E-2,4.0383697E-1,-1.6359288E-2,7.6187043E-3,-1.6686065E-2,1.4632498E-2,-1.08454805E-2,1.3250809E-2],"categories":[],"categories_nodes":[],"categories_segments":[],"categories_sizes":[],"default_left":[0,0,0,0,0,0,0,0,0,0,0,0,0,0,0],"id":8,"left_children":[1,3,-1,5,7,9,11,-1,13,-1,-1,-1,-1,-1,-1],"loss_changes":[4.9415836E1,4.2789135E1,0E0,7.78196E1,4.3447037E0,2.9923004E1,3.1603355E1,0E0,7.5311627E0,0E0,0E0,0E0,0E0,0E0,0E0],"parents":[2147483647,0,0,1,1,3,3,4,4,5,5,6,6,8,8],"right_children":[2,4,-1,6,8,10,12,-1,14,-1,-1,-1,-1,-1,-1],"split_conditions":[1.1047456E0,9.50048E-2,-1.7496405E-2,6.714585E-1,1.1518219E-1,2.2100491E-2,1.7456827E0,1.7864475E-2,1.0689504E0,-1.6359288E-2,7.6187043E-3,-1.6686065E-2,1.4632498E-2,-1.08454805E-2,1.3250809E-2],"split_indices":[4,13,0,3,10,12,3,0,8,0,0,0,0,0,0],"split_type":[0,0,0,0,0,0,0,0,0,0,0,0,0,0,0],"sum_hessian":[1.2813757E2,1.14942375E2,1.3195192E1,9.615307E1,1.8789307E1,6.554226E1,3.061081E1,1.5344877E1,3.444429E0,4.7487254E0,6.0793533E1,2.7755753E1,2.8550584E0,1.249095E0,2.195334E0],"tree_param":{"num_deleted":"0","num_feature":"18","num_nodes":"15","size_leaf_vector":"1"}},{"base_weights":[3.165122E-2,2.3018765E-1,-1.7228512E-2,-5.683026E-2,1.4282386E0,2.1756999E-1,-1.607481E0,1.7366333E-2,-9.101324E-2,-8.0689293E-4,1.1627487E-2,-1.773305E-2,1.5425221E-3,1.2244654E-2,-1.2708512E-2],"categories":[],"categories_nodes":[],"categories_segments":[],"categories_sizes":[],"default_left":[0,0,0,0,0,0,0,0,0,0,0,0,0,0,0],"id":9,"left_children":[1,3,-1,5,7,9,11,-1,13,-1,-1,-1,-1,-1,-1],"loss_changes":[4.5162434E1,4.0083546E1,0E0,4.0691658E1,1.0710163E1,2.3051487E1,4.4727974E0,0E0,8.929129E0,0E0,0E0,0E0,0E0,0E0,0E0],"parents":[2147483647,0,0,1,1,3,3,4,4,5,5,6,6,8,8],"right_children":[2,4,-1,6,8,10,12,-1,14,-1,-1,-1,-1,-1,-1],"split_conditions":[1.7468924E-2,9.50048E-2,-1.7228512E-2,4.163451E-2,4.6901307E-3,1.7951769E0,5.594125E0,1.7366333E-2,1.6692027E-1,-8.0689293E-4,1.1627487E-2,-1.773305E-2,1.5425221E-3,1.2244654E-2,-1.2708512E-2],"split_indices":[15,13,0,12,16,7,6,0,1,0,0,0,0,0,0],"split_type":[0,0,0,0,0,0,0,0,0,0,0,0,0,0,0],"sum_hessian":[1.27514656E2,1.1533263E2,1.2182035E1,9.381085E1,2.1521769E1,8.043663E1,1.3374225E1,1.7771273E1,3.7504964E0,6.1837807E1,1.8598822E1,1.2217661E1,1.1565633E0,1.7554289E0,1.9950676E0],"tree_param":{"num_deleted":"0","num_feature":"18","num_nodes":"15","size_leaf_vector":"1"}},{"base_weights":[-4.5277204E-2,1.5600003E-1,-1.722417E-2,-1.801351E-1,1.1391664E0,4.8219714E-1,-8.467402E-1,1.4639105E0,-1.4099623E-2,-1.6733855E-2,8.158254E-3,-1.4992821E-2,1.1019732E-2,1.6646497E-2,4.1991E-3],"categories":[],"categories_nodes":[],"categories_segments":[],"categories_sizes":[],"default_left":[0,0,0,0,0,0,0,0,0,0,0,0,0,0,0],"id":10,"left_children":[1,3,-1,5,7,9,11,13,-1,-1,-1,-1,-1,-1,-1],"loss_changes":[4.540054E1,3.9957355E1,0E0,4.036692E1,2.7547226E1,3.4471493E1,5.9471546E1,5.126198E0,0E0,0E0,0E0,0E0,0E0,0E0,0E0],"parents":[2147483647,0,0,1,1,3,3,4,4,5,5,6,6,7,7],"right_children":[2,4,-1,6,8,10,12,14,-1,-1,-1,-1,-1,-1,-1],"split_conditions":[1.7468924E-2,1.7985723E0,-1.722417E-2,5.887075E-1,1.6194798E-1,8.59348E-2,9.50048E-2,7.1720105E-1,-1.4099623E-2,-1.6733855E-2,8.158254E-3,-1.4992821E-2,1.1019732E-2,1.6646497E-2,4.1991E-3],"split_indices":[15,7,0,3,1,1,13,2,0,0,0,0,0,0,0],"split_type":[0,0,0,0,0,0,0,0,0,0,0,0,0,0,0],"sum_hessian":[1.3269623E2,1.19287285E2,1.3408945E1,8.950363E1,2.9783655E1,4.5034466E1,4.4469166E1,2.6795752E1,2.9879022E0,5.4977326E0,3.9536736E1,3.3486557E1,1.0982606E1,2.1975782E1,4.8199706E0],"tree_param":{"num_deleted":"0","num_feature":"18","num_nodes":"15","size_leaf_vector":"1"}},{"base_weights":[-7.202665E-3,1.9260462E-1,-1.7034275E-2,-7.523165E-2,1.6440877E0,4.7968698E-1,-1.2288029E0,1.7403957E-2,1.5438276E-3,-1.6096376E-2,6.6144606E-3,1.4576057E-2,-1.5503588E-2],"categories":[],"categories_nodes":[],"categories_segments":[],"categories_sizes":[],"default_left":[0,0,0,0,0,0,0,0,0,0,0,0,0],"id":11,"left_children":[1,3,-1,5,7,9,11,-1,-1,-1,-1,-1,-1],"loss_changes":[4.2309547E1,4.3553566E1,0E0,6.1573696E1,2.2343864E0,2.5765274E1,2.923177E1,0E0,0E0,0E0,0E0,0E0,0E0],"parents":[2147483647,0,0,1,1,3,3,4,4,5,5,6,6],"right_children":[2,4,-1,6,8,10,12,-1,-1,-1,-1,-1,-1],"split_conditions":[1.1047456E0,9.9644095E-2,-1.7034275E-2,6.714585E-1,1.3915052E-2,8.648718E-2,7.873726E-2,1.7403957E-2,1.5438276E-3,-1.6096376E-2,6.6144606E-3,1.4576057E-2,-1.5503588E-2],"split_indices":[4,13,0,3,15,1,1,0,0,0,0,0,0],"split_type":[0,0,0,0,0,0,0,0,0,0,0,0,0],"sum_hessian":[1.2286905E2,1.1071392E2,1.2155126E1,9.426733E1,1.6446598E1,6.404367E1,3.0223656E1,1.5289841E1,1.1567565E0,4.496815E0,5.9546856E1,2.853274E0,2.737038E1],"tree_param":{"num_deleted":"0","num_feature":"18","num_nodes":"13","size_leaf_vector":"1"}},{"base_weights":[5.1870745E-2,2.629682E-1,-1.699314E-2,1.526395E-3,1.419757E0,5.6414753E-1,-1.2066696E0,1.702258E-2,-3.2583255E-1,-1.6530799E-2,8.011709E-3,-1.5290409E-2,1.4560539E-2,-1.1476527E-2,6.8748533E-3],"categories":[],"categories_nodes":[],"categories_segments":[],"categories_sizes":[],"default_left":[0,0,0,0,0,0,0,0,0,0,0,0,0,0,0],"id":12,"left_children":[1,3,-1,5,7,9,11,-1,13,-1,-1,-1,-1,-1,-1],"loss_changes":[4.853048E1,3.536577E1,0E0,6.6200966E1,1.11850395E1,3.6243565E1,2.8787178E1,0E0,3.9885566E0,0E0,0E0,0E0,0E0,0E0,0E0],"parents":[2147483647,0,0,1,1,3,3,4,4,5,5,6,6,8,8],"right_children":[2,4,-1,6,8,10,12,-1,14,-1,-1,-1,-1,-1,-1],"split_conditions":[1.1047456E0,9.50048E-2,-1.699314E-2,6.714585E-1,5.2067796E-3,2.2100491E-2,1.7456827E0,1.702258E-2,1.5071544E-2,-1.6530799E-2,8.011709E-3,-1.5290409E-2,1.4560539E-2,-1.1476527E-2,6.8748533E-3],"split_indices":[4,13,0,3,16,12,3,0,15,0,0,0,0,0,0],"split_type":[0,0,0,0,0,0,0,0,0,0,0,0,0,0,0],"sum_hessian":[1.2907149E2,1.1594471E2,1.3126778E1,9.538777E1,2.0556938E1,6.544502E1,2.9942745E1,1.7714844E1,2.8420942E0,5.74348E0,5.970154E1,2.70889E1,2.853846E0,1.4961326E0,1.3459616E0],"tree_param":{"num_deleted":"0","num_feature":"18","num_nodes":"15","size_leaf_vector":"1"}},{"base_weights":[-1.936447E-2,1.9674169E-1,-1.6929068E-2,-9.448923E-2,1.3488207E0,5.2855504E-1,-1.376368E0,1.6040426E0,-4.5293942E-1,-1.6165817E-2,7.44285E-3,-1.6382735E-2,1.3440609E-2,1.6830739E-2,5.97718E-3,5.684885E-3,-1.1417655E-2],"categories":[],"categories_nodes":[],"categories_segments":[],"categories_sizes":[],"default_left":[0,0,0,0,0,0,0,0,0,0,0,0,0,0,0,0,0],"id":13,"left_children":[1,3,-1,5,7,9,11,13,15,-1,-1,-1,-1,-1,-1,-1,-1],"loss_changes":[4.617936E1,3.8096317E1,0E0,7.361724E1,1.1256924E1,2.9958328E1,2.3667519E1,6.067734E-1,3.196838E0,0E0,0E0,0E0,0E0,0E0,0E0,0E0,0E0],"parents":[2147483647,0,0,1,1,3,3,4,4,5,5,6,6,7,7,8,8],"right_children":[2,4,-1,6,8,10,12,14,16,-1,-1,-1,-1,-1,-1,-1,-1],"split_conditions":[1.7468924E-2,9.50048E-2,-1.6929068E-2,6.714585E-1,5.2067796E-3,2.1773184E-2,1.7456827E0,9.919003E-1,9.63947E-1,-1.6165817E-2,7.44285E-3,-1.6382735E-2,1.3440609E-2,1.6830739E-2,5.97718E-3,5.684885E-3,-1.1417655E-2],"split_indices":[15,13,0,3,16,9,3,3,3,0,0,0,0,0,0,0,0],"split_type":[0,0,0,0,0,0,0,0,0,0,0,0,0,0,0,0,0],"sum_hessian":[1.25765305E2,1.1216391E2,1.3601396E1,9.0264244E1,2.189967E1,6.113693E1,2.9127316E1,1.9278568E1,2.6211019E0,4.9931746E0,5.6143753E1,2.693224E1,2.1950758E0,1.7251251E1,2.027316E0,1.1260438E0,1.4950581E0],"tree_param":{"num_deleted":"0","num_feature":"18","num_nodes":"17","size_leaf_vector":"1"}},{"base_weights":[3.1631604E-2,2.4817614E-1,-1.6765274E-2,-7.987131E-2,1.1212091E0,2.9354158E-1,-1.4265807E0,1.4075623E0,-1.3437259E-2,9.266532E-3,-4.667081E-3,-5.9400615E-3,-1.6073424E-2,3.7555145E-3,1.6038282E-2],"categories":[],"categories_nodes":[],"categories_segments":[],"categories_sizes":[],"default_left":[0,0,0,0,0,0,0,0,0,0,0,0,0,0,0],"id":14,"left_children":[1,3,-1,5,7,9,11,13,-1,-1,-1,-1,-1,-1,-1],"loss_changes":[4.710317E1,3.2420403E1,0E0,4.2152218E1,2.3701473E1,3.210486E1,1.7822342E0,5.10384E0,0E0,0E0,0E0,0E0,0E0,0E0,0E0],"parents":[2147483647,0,0,1,1,3,3,4,4,5,5,6,6,7,7],"right_children":[2,4,-1,6,8,10,12,14,-1,-1,-1,-1,-1,-1,-1],"split_conditions":[1.7468924E-2,1.7985723E0,-1.6765274E-2,1.0193652E0,1.9223572E-1,5.887075E-1,6.138859E-2,6.398095E-1,-1.3437259E-2,9.266532E-3,-4.667081E-3,-5.9400615E-3,-1.6073424E-2,3.7555145E-3,1.6038282E-2],"split_indices":[15,7,0,7,0,3,10,4,0,0,0,0,0,0,0],"split_type":[0,0,0,0,0,0,0,0,0,0,0,0,0,0,0],"sum_hessian":[1.25218E2,1.1188853E2,1.3329476E1,8.198912E1,2.98994E1,6.480277E1,1.7186354E1,2.71718E1,2.7276008E0,3.523844E1,2.956433E1,3.8303232E0,1.335603E1,4.8073187E0,2.2364481E1],"tree_param":{"num_deleted":"0","num_feature":"18","num_nodes":"15","size_leaf_vector":"1"}},{"base_weights":[-9.855079E-2,3.8302693E-1,-7.6477593E-1,7.248112E-1,-9.1869134E-1,1.3551645E-2,-8.888988E-1,-1.6494205E-2,1.0285673E0,-1.6820325E-2,9.929312E-1,4.9690884E-1,-1.0477422E0,4.136685E-3,1.4017416E-2,1.3839763E-2,-4.970212E-4,-9.884379E-3,1.4536897E-2,-1.5401981E-2,-5.4773795E-3],"categories":[],"categories_nodes":[],"categories_segments":[],"categories_sizes":[],"default_left":[0,0,0,0,0,0,0,0,0,0,0,0,0,0,0,0,0,0,0,0,0],"id":15,"left_children":[1,3,5,7,9,-1,11,-1,13,-1,15,17,19,-1,-1,-1,-1,-1,-1,-1,-1],"loss_changes":[4.1690582E1,3.4282787E1,1.5537424E1,4.525988E1,2.5243006E1,0E0,1.1980618E1,0E0,1.185009E1,0E0,2.2046986E0,1.0009217E1,1.07363205E1,0E0,0E0,0E0,0E0,0E0,0E0,0E0,0E0],"parents":[2147483647,0,0,1,1,2,2,3,3,4,4,6,6,8,8,10,10,11,11,12,12],"right_children":[2,4,6,8,10,-1,12,-1,14,-1,16,18,20,-1,-1,-1,-1,-1,-1,-1,-1],"split_conditions":[7.1720105E-1,4.8001617E-2,7.873726E-2,2.2100491E-2,1.1353124E-1,1.3551645E-2,5.954282E-1,-1.6494205E-2,3.0246265E-2,-1.6820325E-2,1.8337359E-1,1.0342561E-1,1.5625612E-1,4.136685E-3,1.4017416E-2,1.3839763E-2,-4.970212E-4,-9.884379E-3,1.4536897E-2,-1.5401981E-2,-5.4773795E-3],"split_indices":[2,9,1,12,10,0,3,0,12,0,0,10,1,0,0,0,0,0,0,0,0],"split_type":[0,0,0,0,0,0,0,0,0,0,0,0,0,0,0,0,0,0,0,0,0],"sum_hessian":[1.280293E2,7.455943E1,5.3469856E1,5.940501E1,1.5154425E1,2.4089286E0,5.106093E1,6.235641E0,5.316937E1,1.091571E1,4.2387147E0,5.0319643E0,4.6028965E1,2.0877287E1,3.2292084E1,2.8444884E0,1.3942261E0,1.9584684E0,3.0734959E0,2.214143E1,2.3887535E1],"tree_param":{"num_deleted":"0","num_feature":"18","num_nodes":"21","size_leaf_vector":"1"}},{"base_weights":[1.0087988E-2,2.0193619E-1,-1.6458081E-2,-8.468598E-2,1.3332024E0,4.2900714E-1,-1.173928E0,1.6653145E-2,-1.8879524E-1,-1.6216353E-2,6.548943E-3,1.44689875E-2,-1.5343744E-2,1.1912184E-2,-1.3017303E-2],"categories":[],"categories_nodes":[],"categories_segments":[],"categories_sizes":[],"default_left":[0,0,0,0,0,0,0,0,0,0,0,0,0,0,0],"id":16,"left_children":[1,3,-1,5,7,9,11,-1,13,-1,-1,-1,-1,-1,-1],"loss_changes":[3.995967E1,3.664852E1,0E0,5.133261E1,1.185812E1,2.9995129E1,2.9974018E1,0E0,9.212867E0,0E0,0E0,0E0,0E0,0E0,0E0],"parents":[2147483647,0,0,1,1,3,3,4,4,5,5,6,6,8,8],"right_children":[2,4,-1,6,8,10,12,-1,14,-1,-1,-1,-1,-1,-1],"split_conditions":[1.7468924E-2,9.49519E-2,-1.6458081E-2,6.714585E-1,4.6901307E-3,8.59348E-2,7.873726E-2,1.6653145E-2,1.6692027E-1,-1.6216353E-2,6.548943E-3,1.44689875E-2,-1.5343744E-2,1.1912184E-2,-1.3017303E-2],"split_indices":[15,13,0,3,16,1,1,0,1,0,0,0,0,0,0],"split_type":[0,0,0,0,0,0,0,0,0,0,0,0,0,0,0],"sum_hessian":[1.2373949E2,1.116787E2,1.2060781E1,8.984129E1,2.1837412E1,6.1461716E1,2.8379576E1,1.784855E1,3.988861E0,5.4853954E0,5.5976322E1,3.0667655E0,2.531281E1,1.7493583E0,2.239503E0],"tree_param":{"num_deleted":"0","num_feature":"18","num_nodes":"15","size_leaf_vector":"1"}},{"base_weights":[-4.289713E-2,1.2911052E-1,-1.6407987E-2,-1.9589363E-1,1.2997503E0,2.5705278E-1,-1.1745824E0,1.4949806E0,-8.619308E-3,-1.615073E-2,4.8240786E-3,-1.4837303E-2,1.3842826E-2,1.6283385E-2,4.305207E-3],"categories":[],"categories_nodes":[],"categories_segments":[],"categories_sizes":[],"default_left":[0,0,0,0,0,0,0,0,0,0,0,0,0,0,0],"id":17,"left_children":[1,3,-1,5,7,9,11,13,-1,-1,-1,-1,-1,-1,-1],"loss_changes":[3.484929E1,4.3894497E1,0E0,4.0484856E1,1.1862766E1,2.7268833E1,2.488301E1,2.6130333E0,0E0,0E0,0E0,0E0,0E0,0E0,0E0],"parents":[2147483647,0,0,1,1,3,3,4,4,5,5,6,6,7,7],"right_children":[2,4,-1,6,8,10,12,14,-1,-1,-1,-1,-1,-1,-1],"split_conditions":[1.1047456E0,8.9060366E-2,-1.6407987E-2,6.714585E-1,5.2893953E-3,2.2100491E-2,1.7456827E0,9.919003E-1,-8.619308E-3,-1.615073E-2,4.8240786E-3,-1.4837303E-2,1.3842826E-2,1.6283385E-2,4.305207E-3],"split_indices":[4,13,0,3,16,12,3,3,0,0,0,0,0,0,0],"split_type":[0,0,0,0,0,0,0,0,0,0,0,0,0,0,0],"sum_hessian":[1.2502249E2,1.1370212E2,1.1320374E1,8.964632E1,2.4055801E1,6.178772E1,2.7858591E1,2.2346054E1,1.7097465E0,5.9759593E0,5.5811764E1,2.5230537E1,2.6280541E0,1.938742E1,2.958634E0],"tree_param":{"num_deleted":"0","num_feature":"18","num_nodes":"15","size_leaf_vector":"1"}},{"base_weights":[-1.1579287E-2,4.852072E-1,-7.2238594E-1,-1.600146E-2,6.7521715E-1,1.3385218E-2,-8.4503603E-1,1.0435873E0,-8.197651E-1,-1.382295E0,-3.545665E-1,-3.1043813E-3,1.1702118E-2,-1.6405731E-2,9.708806E-3,-1.6292961E-2,1.1453539E-2,5.467649E-3,-1.6114507E-2],"categories":[],"categories_nodes":[],"categories_segments":[],"categories_sizes":[],"default_left":[0,0,0,0,0,0,0,0,0,0,0,0,0,0,0,0,0,0,0],"id":18,"left_children":[1,3,5,-1,7,-1,9,11,13,15,17,-1,-1,-1,-1,-1,-1,-1,-1],"loss_changes":[4.614888E1,3.1566793E1,1.471932E1,0E0,4.0075596E1,0E0,1.3041241E1,1.0235275E1,2.3109226E1,1.6950863E1,3.2815792E1,0E0,0E0,0E0,0E0,0E0,0E0,0E0,0E0],"parents":[2147483647,0,0,1,1,2,2,4,4,6,6,7,7,8,8,9,9,10,10],"right_children":[2,4,6,-1,8,-1,10,12,14,16,18,-1,-1,-1,-1,-1,-1,-1,-1],"split_conditions":[7.1720105E-1,2.1952316E-2,7.873726E-2,-1.600146E-2,4.8001617E-2,1.3385218E-2,1.2869732E-1,5.4372188E-2,1.1353124E-1,1.9614151E-1,1.1047456E0,-3.1043813E-3,1.1702118E-2,-1.6405731E-2,9.708806E-3,-1.6292961E-2,1.1453539E-2,5.467649E-3,-1.6114507E-2],"split_indices":[2,9,1,0,9,0,11,11,10,1,4,0,0,0,0,0,0,0,0],"split_type":[0,0,0,0,0,0,0,0,0,0,0,0,0,0,0,0,0,0,0],"sum_hessian":[1.2869667E2,7.593952E1,5.2757145E1,5.7217803E0,7.021774E1,2.4065297E0,5.0350616E1,5.657849E1,1.3639248E1,2.3161386E1,2.7189228E1,4.7144256E0,5.1864067E1,9.409752E0,4.229496E0,2.1423315E1,1.738071E0,1.6163275E1,1.1025954E1],"tree_param":{"num_deleted":"0","num_feature":"18","num_nodes":"19","size_leaf_vector":"1"}},{"base_weights":[7.589719E-2,2.5650123E-1,-1.6152794E-2,-1.4392251E-1,1.4514848E0,1.8346646E-1,-1.3922127E0,-1.1362276E-2,1.609684E0,7.6169637E-3,-5.301433E-3,-1.5387481E-2,-1.9399233E-3,1.699544E-2,1.0427627E-3],"categories":[],"categories_nodes":[],"categories_segments":[],"categories_sizes":[],"default_left":[0,0,0,0,0,0,0,0,0,0,0,0,0,0,0],"id":19,"left_children":[1,3,-1,5,7,9,11,-1,13,-1,-1,-1,-1,-1,-1],"loss_changes":[3.881472E1,5.4976273E1,0E0,3.566288E1,1.3625935E1,2.9090414E1,2.8826904E0,0E0,3.552414E0,0E0,0E0,0E0,0E0,0E0,0E0],"parents":[2147483647,0,0,1,1,3,3,4,4,5,5,6,6,8,8],"right_children":[2,4,-1,6,8,10,12,-1,14,-1,-1,-1,-1,-1,-1],"split_conditions":[1.1047456E0,1.7951769E0,-1.6152794E-2,1.0193652E0,3.485064E-1,5.887075E-1,1.6729646E0,-1.1362276E-2,4.259744E-2,7.6169637E-3,-5.301433E-3,-1.5387481E-2,-1.9399233E-3,1.699544E-2,1.0427627E-3],"split_indices":[4,7,0,7,2,3,7,0,9,0,0,0,0,0,0],"split_type":[0,0,0,0,0,0,0,0,0,0,0,0,0,0,0],"sum_hessian":[1.2472431E2,1.1345641E2,1.12679E1,8.563933E1,2.7817083E1,6.8521286E1,1.7118044E1,1.2464385E0,2.6570644E1,3.78138E1,3.0707483E1,1.4999499E1,2.118545E0,2.495225E1,1.6183953E0],"tree_param":{"num_deleted":"0","num_feature":"18","num_nodes":"15","size_leaf_vector":"1"}},{"base_weights":[-5.8171418E-2,1.412504E-1,-1.6237097E-2,-2.0601155E-1,1.1089617E0,1.2524274E-1,-1.3917079E0,1.3616474E0,-1.2692219E-2,9.140534E-3,-2.1820753E-3,-1.564853E-2,-4.4839615E-3,1.5539464E-2,4.6459557E-3],"categories":[],"categories_nodes":[],"categories_segments":[],"categories_sizes":[],"default_left":[0,0,0,0,0,0,0,0,0,0,0,0,0,0,0],"id":20,"left_children":[1,3,-1,5,7,9,11,13,-1,-1,-1,-1,-1,-1,-1],"loss_changes":[4.0559616E1,3.904345E1,0E0,3.3891228E1,2.0152382E1,1.8626236E1,2.3735542E0,4.14209E0,0E0,0E0,0E0,0E0,0E0,0E0,0E0],"parents":[2147483647,0,0,1,1,3,3,4,4,5,5,6,6,7,7],"right_children":[2,4,-1,6,8,10,12,14,-1,-1,-1,-1,-1,-1,-1],"split_conditions":[1.7468924E-2,1.7985723E0,-1.6237097E-2,1.0193652E0,1.1047456E0,5.7198143E-1,1.7754756E0,3.4075055E-2,-1.2692219E-2,9.140534E-3,-2.1820753E-3,-1.564853E-2,-4.4839615E-3,1.5539464E-2,4.6459557E-3],"split_indices":[15,7,0,7,4,5,8,9,0,0,0,0,0,0,0],"split_type":[0,0,0,0,0,0,0,0,0,0,0,0,0,0,0],"sum_hessian":[1.2817984E2,1.1450385E2,1.3675985E1,8.48446E1,2.9659258E1,6.701627E1,1.7828321E1,2.719698E1,2.4622781E0,1.9824188E1,4.7192085E1,1.4506715E1,3.3216064E0,2.1792984E1,5.4039946E0],"tree_param":{"num_deleted":"0","num_feature":"18","num_nodes":"15","size_leaf_vector":"1"}},{"base_weights":[4.8296224E-2,4.821917E-1,-5.9176487E-1,6.940791E-1,-1.4978319E-2,-9.75444E-1,1.5600424E-1,-1.5936894E-2,9.2658556E-1,6.678934E-2,-1.5030168E0,1.5589057E-2,-1.3956636E0,-3.7554877E-3,1.1148403E-2,-7.6866006E-3,1.2629026E-2,5.046591E-4,-1.6951723E-2,-2.350063E-3,-1.532624E-2],"categories":[],"categories_nodes":[],"categories_segments":[],"categories_sizes":[],"default_left":[0,0,0,0,0,0,0,0,0,0,0,0,0,0,0,0,0,0,0,0,0],"id":21,"left_children":[1,3,5,7,-1,9,11,-1,13,15,17,-1,19,-1,-1,-1,-1,-1,-1,-1,-1],"loss_changes":[3.6536095E1,3.3908577E1,1.5411188E1,3.9484978E1,0E0,1.9503487E1,4.3312393E1,0E0,1.6473701E1,1.3778453E1,7.091873E0,0E0,1.1500778E0,0E0,0E0,0E0,0E0,0E0,0E0,0E0,0E0],"parents":[2147483647,0,0,1,1,2,2,3,3,5,5,6,6,8,8,9,9,10,10,12,12],"right_children":[2,4,6,8,-1,10,12,-1,14,16,18,-1,20,-1,-1,-1,-1,-1,-1,-1,-1],"split_conditions":[7.1720105E-1,6.660329E-2,9.50048E-2,2.1952316E-2,-1.4978319E-2,2.77564E-2,4.6901307E-3,-1.5936894E-2,3.6850718E-1,8.812094E-1,5.887075E-1,1.5589057E-2,4.7839645E-2,-3.7554877E-3,1.1148403E-2,-7.6866006E-3,1.2629026E-2,5.046591E-4,-1.6951723E-2,-2.350063E-3,-1.532624E-2],"split_indices":[2,9,13,9,0,9,16,0,2,4,3,0,12,0,0,0,0,0,0,0,0],"split_type":[0,0,0,0,0,0,0,0,0,0,0,0,0,0,0,0,0,0,0,0,0],"sum_hessian":[1.2953004E2,7.734486E1,5.2185196E1,7.0454765E1,6.8900867E0,3.428774E1,1.7897457E1,5.959668E0,6.44951E1,1.1816784E1,2.2470955E1,9.396859E0,8.500599E0,8.02087E0,5.6474228E1,7.167717E0,4.6490674E0,2.554715E0,1.9916239E1,1.183871E0,7.3167276E0],"tree_param":{"num_deleted":"0","num_feature":"18","num_nodes":"21","size_leaf_vector":"1"}},{"base_weights":[4.708237E-2,2.5265005E-1,-1.6033567E-2,2.2197824E-2,1.3568237E0,6.0795444E-1,-1.1269366E0,1.6084604E-2,-4.7133183E-3,-1.50104E-2,7.83813E-3,1.3615303E-2,-1.3922193E-2],"categories":[],"categories_nodes":[],"categories_segments":[],"categories_sizes":[],"default_left":[0,0,0,0,0,0,0,0,0,0,0,0,0],"id":22,"left_children":[1,3,-1,5,7,9,11,-1,-1,-1,-1,-1,-1],"loss_changes":[4.3289917E1,2.8791113E1,0E0,6.4444855E1,9.7475815E0,2.4687439E1,2.3239613E1,0E0,0E0,0E0,0E0,0E0,0E0],"parents":[2147483647,0,0,1,1,3,3,4,4,5,5,6,6],"right_children":[2,4,-1,6,8,10,12,-1,-1,-1,-1,-1,-1],"split_conditions":[1.7468924E-2,9.9644095E-2,-1.6033567E-2,6.714585E-1,1.1518219E-1,2.2100491E-2,7.873726E-2,1.6084604E-2,-4.7133183E-3,-1.50104E-2,7.83813E-3,1.3615303E-2,-1.3922193E-2],"split_indices":[15,13,0,3,10,12,1,0,0,0,0,0,0],"split_type":[0,0,0,0,0,0,0,0,0,0,0,0,0],"sum_hessian":[1.2540065E2,1.1226463E2,1.3136015E1,9.372366E1,1.8540976E1,6.239139E1,3.133227E1,1.640331E1,2.1376638E0,4.222101E0,5.816929E1,2.6203043E0,2.8711966E1],"tree_param":{"num_deleted":"0","num_feature":"18","num_nodes":"13","size_leaf_vector":"1"}},{"base_weights":[4.968695E-3,1.7537066E-1,-1.5818372E-2,5.4573834E-1,-4.5871907E-1,-1.5554946E-2,7.4132454E-1,-8.453049E-1,9.1448593E-1,1.369986E-2,3.342813E-3,1.40299415E-2,-1.1052733E-2,1.45124495E-2,-7.2440533E-3],"categories":[],"categories_nodes":[],"categories_segments":[],"categories_sizes":[],"default_left":[0,0,0,0,0,0,0,0,0,0,0,0,0,0,0],"id":23,"left_children":[1,3,-1,5,7,-1,9,11,13,-1,-1,-1,-1,-1,-1],"loss_changes":[3.52835E1,2.7917269E1,0E0,3.1904709E1,2.4121483E1,0E0,1.7232346E1,2.1914202E1,9.973305E0,0E0,0E0,0E0,0E0,0E0,0E0],"parents":[2147483647,0,0,1,1,3,3,4,4,6,6,7,7,8,8],"right_children":[2,4,-1,6,8,-1,10,12,14,-1,-1,-1,-1,-1,-1],"split_conditions":[1.7468924E-2,7.1720105E-1,-1.5818372E-2,2.2100491E-2,9.9644095E-2,-1.5554946E-2,1.24687135E-1,7.873726E-2,4.6901307E-3,1.369986E-2,3.342813E-3,1.40299415E-2,-1.1052733E-2,1.45124495E-2,-7.2440533E-3],"split_indices":[15,2,0,12,13,0,0,1,16,0,0,0,0,0,0],"split_type":[0,0,0,0,0,0,0,0,0,0,0,0,0,0,0],"sum_hessian":[1.2846286E2,1.1680864E2,1.165422E1,7.382643E1,4.2982204E1,5.6946244E0,6.8131805E1,3.3839977E1,9.142229E0,2.5846796E1,4.228501E1,3.0516286E0,3.0788347E1,6.97298E0,2.169249E0],"tree_param":{"num_deleted":"0","num_feature":"18","num_nodes":"15","size_leaf_vector":"1"}},{"base_weights":[3.27608E-2,2.0918089E-1,-1.5702248E-2,-1.530835E-1,1.3467606E0,4.4034058E-1,-7.894501E-1,-1.1099718E-2,1.5010021E0,8.182251E-3,-1.2300235E-2,-1.3821553E-2,1.3375834E-2,1.6695261E-2,4.982398E-3],"categories":[],"categories_nodes":[],"categories_segments":[],"categories_sizes":[],"default_left":[0,0,0,0,0,0,0,0,0,0,0,0,0,0,0],"id":24,"left_children":[1,3,-1,5,7,9,11,-1,13,-1,-1,-1,-1,-1,-1],"loss_changes":[3.6665817E1,4.8271957E1,0E0,3.4093674E1,1.2379726E1,3.0599125E1,5.6662403E1,0E0,3.7356834E0,0E0,0E0,0E0,0E0,0E0,0E0],"parents":[2147483647,0,0,1,1,3,3,4,4,5,5,6,6,8,8],"right_children":[2,4,-1,6,8,10,12,-1,14,-1,-1,-1,-1,-1,-1],"split_conditions":[1.1047456E0,1.7985723E0,-1.5702248E-2,5.887075E-1,3.7318766E-1,1.0193652E0,9.9644095E-2,-1.1099718E-2,7.1720105E-1,8.182251E-3,-1.2300235E-2,-1.3821553E-2,1.3375834E-2,1.6695261E-2,4.982398E-3],"split_indices":[4,7,0,3,2,7,13,0,2,0,0,0,0,0,0],"split_type":[0,0,0,0,0,0,0,0,0,0,0,0,0,0,0],"sum_hessian":[1.2749187E2,1.15634926E2,1.1856948E1,8.836147E1,2.7273445E1,4.5882866E1,4.247861E1,1.2451161E0,2.602833E1,3.7833897E1,8.048966E0,3.3495243E1,8.98337E0,2.171413E1,4.314199E0],"tree_param":{"num_deleted":"0","num_feature":"18","num_nodes":"15","size_leaf_vector":"1"}},{"base_weights":[-1.2371564E-2,4.298182E-1,-6.450987E-1,7.385126E-1,-9.254981E-1,1.3700657E-2,-7.8479815E-1,-1.560947E-2,1.0055252E0,-1.6303651E-2,8.721093E-1,-1.6361019E-2,-4.4058353E-1,-4.774216E-3,1.1131239E-2,1.3011247E-2,-2.4338716E-3,3.0217578E-3,-1.2987756E-2],"categories":[],"categories_nodes":[],"categories_segments":[],"categories_sizes":[],"default_left":[0,0,0,0,0,0,0,0,0,0,0,0,0,0,0,0,0,0,0],"id":25,"left_children":[1,3,5,7,9,-1,11,-1,13,-1,15,-1,17,-1,-1,-1,-1,-1,-1],"loss_changes":[3.635956E1,3.2694523E1,1.6122885E1,4.0173492E1,1.9968975E1,0E0,1.4113131E1,0E0,9.617149E0,0E0,2.6015809E0,0E0,2.4242393E1,0E0,0E0,0E0,0E0,0E0,0E0],"parents":[2147483647,0,0,1,1,2,2,3,3,4,4,6,6,8,8,10,10,12,12],"right_children":[2,4,6,8,10,-1,12,-1,14,-1,16,-1,18,-1,-1,-1,-1,-1,-1],"split_conditions":[7.1720105E-1,4.8001617E-2,7.873726E-2,2.1952316E-2,1.1353124E-1,1.3700657E-2,7.846557E-1,-1.560947E-2,5.4372188E-2,-1.6303651E-2,1.8337359E-1,-1.6361019E-2,4.6901307E-3,-4.774216E-3,1.1131239E-2,1.3011247E-2,-2.4338716E-3,3.0217578E-3,-1.2987756E-2],"split_indices":[2,9,1,9,10,0,5,0,11,0,0,0,16,0,0,0,0,0,0],"split_type":[0,0,0,0,0,0,0,0,0,0,0,0,0,0,0,0,0,0,0],"sum_hessian":[1.2796411E2,7.551214E1,5.2451977E1,6.1874386E1,1.3637753E1,2.8294806E0,4.9622494E1,5.933168E0,5.594122E1,9.863265E0,3.7744882E0,1.3206738E1,3.6415756E1,3.5518506E0,5.2389366E1,2.6058717E0,1.1686165E0,1.986802E1,1.6547737E1],"tree_param":{"num_deleted":"0","num_feature":"18","num_nodes":"19","size_leaf_vector":"1"}},{"base_weights":[2.6377218E-2,4.3219697E-1,-5.918456E-1,6.5171987E-1,-1.4824187E-2,1.2905619E-2,-7.1390015E-1,-1.5606942E-2,8.952062E-1,-1.607116E-2,-3.841028E-1,9.884025E-3,-1.2936875E-2,2.8865587E-3,-1.2126082E-2],"categories":[],"categories_nodes":[],"categories_segments":[],"categories_sizes":[],"default_left":[0,0,0,0,0,0,0,0,0,0,0,0,0,0,0],"id":26,"left_children":[1,3,5,7,-1,-1,9,-1,11,-1,13,-1,-1,-1,-1],"loss_changes":[3.150578E1,3.281435E1,1.2359385E1,3.8391785E1,0E0,0E0,1.33445835E1,0E0,1.4028828E1,0E0,2.0376371E1,0E0,0E0,0E0,0E0],"parents":[2147483647,0,0,1,1,2,2,3,3,6,6,8,8,10,10],"right_children":[2,4,6,8,-1,-1,10,-1,12,-1,14,-1,-1,-1,-1],"split_conditions":[7.1720105E-1,6.660329E-2,9.30647E-2,2.1952316E-2,-1.4824187E-2,1.2905619E-2,7.800991E-1,-1.5606942E-2,1.577884E-1,-1.607116E-2,4.6901307E-3,9.884025E-3,-1.2936875E-2,2.8865587E-3,-1.2126082E-2],"split_indices":[2,9,0,9,0,0,5,0,1,0,16,0,0,0,0],"split_type":[0,0,0,0,0,0,0,0,0,0,0,0,0,0,0],"sum_hessian":[1.23558E2,7.477462E1,4.8783375E1,6.767487E1,7.099748E0,2.3875372E0,4.639584E1,6.1731725E0,6.15017E1,1.1466684E1,3.4929153E1,5.9516136E1,1.9855658E0,1.9636015E1,1.529314E1],"tree_param":{"num_deleted":"0","num_feature":"18","num_nodes":"15","size_leaf_vector":"1"}},{"base_weights":[2.8776247E-2,2.1250367E-1,-1.5485216E-2,-9.8221645E-2,1.0331368E0,2.4977666E-1,-1.3662094E0,1.3022885E0,-1.115219E-2,9.842751E-3,-5.2933404E-3,-7.7082673E-3,-1.615893E-2,-1.2008213E-2,1.4801741E-2],"categories":[],"categories_nodes":[],"categories_segments":[],"categories_sizes":[],"default_left":[0,0,0,0,0,0,0,0,0,0,0,0,0,0,0],"id":27,"left_children":[1,3,-1,5,7,9,11,13,-1,-1,-1,-1,-1,-1,-1],"loss_changes":[3.8093376E1,3.008808E1,0E0,3.8383583E1,2.0178425E1,3.9716537E1,1.5373497E0,1.4797352E1,0E0,0E0,0E0,0E0,0E0,0E0,0E0],"parents":[2147483647,0,0,1,1,3,3,4,4,5,5,6,6,7,7],"right_children":[2,4,-1,6,8,10,12,14,-1,-1,-1,-1,-1,-1,-1],"split_conditions":[1.7468924E-2,1.7985723E0,-1.5485216E-2,1.0193652E0,1.6194798E-1,5.887075E-1,1.22647636E-1,3.7318766E-1,-1.115219E-2,9.842751E-3,-5.2933404E-3,-7.7082673E-3,-1.615893E-2,-1.2008213E-2,1.4801741E-2],"split_indices":[15,7,0,7,1,3,0,2,0,0,0,0,0,0,0],"split_type":[0,0,0,0,0,0,0,0,0,0,0,0,0,0,0],"sum_hessian":[1.2931482E2,1.1659843E2,1.271639E1,8.521344E1,3.1384987E1,6.749304E1,1.7720402E1,2.8240734E1,3.1442528E0,3.460562E1,3.2887417E1,6.4432836E0,1.1277118E1,1.492237E0,2.6748497E1],"tree_param":{"num_deleted":"0","num_feature":"18","num_nodes":"15","size_leaf_vector":"1"}},{"base_weights":[-8.905293E-4,1.7709948E-1,-1.5459786E-2,-1.1205702E-1,1.1615664E0,3.910306E-1,-1.2006483E0,1.3895657E0,-3.0839565E-1,6.540098E-3,-1.6607238E-2,-1.5095845E-2,1.3195732E-2,1.4889961E-2,-2.1739642E-3,9.966282E-3,-1.2122358E-2],"categories":[],"categories_nodes":[],"categories_segments":[],"categories_sizes":[],"default_left":[0,0,0,0,0,0,0,0,0,0,0,0,0,0,0,0,0],"id":28,"left_children":[1,3,-1,5,7,9,11,13,15,-1,-1,-1,-1,-1,-1,-1,-1],"loss_changes":[3.4601048E1,3.224754E1,0E0,4.873009E1,9.042965E0,3.401238E1,2.3869308E1,3.908142E0,6.244463E0,0E0,0E0,0E0,0E0,0E0,0E0,0E0,0E0],"parents":[2147483647,0,0,1,1,3,3,4,4,5,5,6,6,7,7,8,8],"right_children":[2,4,-1,6,8,10,12,14,16,-1,-1,-1,-1,-1,-1,-1,-1],"split_conditions":[1.7468924E-2,8.9060366E-2,-1.5459786E-2,6.714585E-1,1.23037525E-1,4.8001617E-2,1.7456827E0,5.0082714E-3,7.0989364E-1,6.540098E-3,-1.6607238E-2,-1.5095845E-2,1.3195732E-2,1.4889961E-2,-2.1739642E-3,9.966282E-3,-1.2122358E-2],"split_indices":[15,13,0,3,10,9,3,16,2,0,0,0,0,0,0,0,0],"split_type":[0,0,0,0,0,0,0,0,0,0,0,0,0,0,0,0,0],"sum_hessian":[1.2382174E2,1.11825165E2,1.199658E1,8.712197E1,2.4703192E1,6.0023273E1,2.7098698E1,2.143344E1,3.2697525E0,5.3807816E1,6.215457E0,2.4496817E1,2.6018815E0,2.0253656E1,1.1797817E0,1.2959356E0,1.973817E0],"tree_param":{"num_deleted":"0","num_feature":"18","num_nodes":"17","size_leaf_vector":"1"}},{"base_weights":[-3.44953E-2,1.6437969E-1,-1.5409663E-2,-6.70558E-2,1.2452879E0,4.9712718E-1,-1.2122471E0,1.5595366E-2,-2.8627852E-2,-1.5014403E-2,6.914069E-3,-1.4413055E-2,1.2629667E-2,-1.1610697E-2,9.493109E-3],"categories":[],"categories_nodes":[],"categories_segments":[],"categories_sizes":[],"default_left":[0,0,0,0,0,0,0,0,0,0,0,0,0,0,0],"id":29,"left_children":[1,3,-1,5,7,9,11,-1,13,-1,-1,-1,-1,-1,-1],"loss_changes":[3.8112442E1,2.8234787E1,0E0,6.1100807E1,8.009775E0,2.567089E1,1.9507309E1,0E0,6.5496902E0,0E0,0E0,0E0,0E0,0E0,0E0],"parents":[2147483647,0,0,1,1,3,3,4,4,5,5,6,6,8,8],"right_children":[2,4,-1,6,8,10,12,-1,14,-1,-1,-1,-1,-1,-1],"split_conditions":[1.7468924E-2,9.49519E-2,-1.5409663E-2,6.714585E-1,1.1518219E-1,2.2100491E-2,1.7456827E0,1.5595366E-2,1.4680408E-2,-1.5014403E-2,6.914069E-3,-1.4413055E-2,1.2629667E-2,-1.1610697E-2,9.493109E-3],"split_indices":[15,13,0,3,10,12,3,0,15,0,0,0,0,0,0],"split_type":[0,0,0,0,0,0,0,0,0,0,0,0,0,0,0],"sum_hessian":[1.2536587E2,1.11532875E2,1.3832995E1,9.263629E1,1.8896584E1,6.2440586E1,3.0195702E1,1.4977689E1,3.9188952E0,4.935948E0,5.750464E1,2.8020374E1,2.1753259E0,1.7292181E0,2.1896772E0],"tree_param":{"num_deleted":"0","num_feature":"18","num_nodes":"15","size_leaf_vector":"1"}},{"base_weights":[-2.2555986E-2,1.5282369E-1,-1.5261822E-2,-7.774275E-2,1.3081573E0,5.0040215E-1,-1.1876956E0,1.5488471E-2,-5.964901E-3,-1.5155287E-2,7.079674E-3,1.3656588E-2,-1.4819663E-2],"categories":[],"categories_nodes":[],"categories_segments":[],"categories_sizes":[],"default_left":[0,0,0,0,0,0,0,0,0,0,0,0,0],"id":30,"left_children":[1,3,-1,5,7,9,11,-1,-1,-1,-1,-1,-1],"loss_changes":[3.438049E1,3.1234537E1,0E0,6.3721905E1,9.863159E0,2.8432793E1,2.7561432E1,0E0,0E0,0E0,0E0,0E0,0E0],"parents":[2147483647,0,0,1,1,3,3,4,4,5,5,6,6],"right_children":[2,4,-1,6,8,10,12,-1,-1,-1,-1,-1,-1],"split_conditions":[1.7468924E-2,9.9644095E-2,-1.5261822E-2,6.714585E-1,4.6901307E-3,2.136128E-2,9.30647E-2,1.5488471E-2,-5.964901E-3,-1.5155287E-2,7.079674E-3,1.3656588E-2,-1.4819663E-2],"split_indices":[15,13,0,3,16,12,0,0,0,0,0,0,0],"split_type":[0,0,0,0,0,0,0,0,0,0,0,0,0],"sum_hessian":[1.2849011E2,1.1587327E2,1.2616842E1,9.737345E1,1.8499817E1,6.438578E1,3.298767E1,1.6590132E1,1.9096843E0,5.422221E0,5.8963562E1,3.0326738E0,2.9954998E1],"tree_param":{"num_deleted":"0","num_feature":"18","num_nodes":"13","size_leaf_vector":"1"}},{"base_weights":[-2.5387682E-2,4.0731812E-1,-6.209285E-1,-1.5001967E-2,5.7489896E-1,1.329118E-2,-7.512879E-1,9.146026E-1,-7.0104045E-1,-1.2993393E0,-2.2378857E-1,-1.9514466E-3,1.0766396E-2,-1.5870258E-2,1.0281954E-2,-1.5470028E-2,1.1321674E-2,6.229363E-3,-1.4939275E-2],"categories":[],"categories_nodes":[],"categories_segments":[],"categories_sizes":[],"default_left":[0,0,0,0,0,0,0,0,0,0,0,0,0,0,0,0,0,0,0],"id":31,"left_children":[1,3,5,-1,7,-1,9,11,13,15,17,-1,-1,-1,-1,-1,-1,-1,-1],"loss_changes":[3.3714893E1,2.5096573E1,1.4990133E1,0E0,3.116064E1,0E0,1.4808802E1,1.0287434E1,2.5181122E1,1.7052055E1,3.0852219E1,0E0,0E0,0E0,0E0,0E0,0E0,0E0,0E0],"parents":[2147483647,0,0,1,1,2,2,4,4,6,6,7,7,8,8,9,9,10,10],"right_children":[2,4,6,-1,8,-1,10,12,14,16,18,-1,-1,-1,-1,-1,-1,-1,-1],"split_conditions":[7.1720105E-1,2.1773184E-2,7.873726E-2,-1.5001967E-2,5.0316475E-2,1.329118E-2,1.3196774E-1,3.6850718E-1,1.1353124E-1,1.9614151E-1,1.1047456E0,-1.9514466E-3,1.0766396E-2,-1.5870258E-2,1.0281954E-2,-1.5470028E-2,1.1321674E-2,6.229363E-3,-1.4939275E-2],"split_indices":[2,9,1,0,9,0,11,2,10,1,4,0,0,0,0,0,0,0,0],"split_type":[0,0,0,0,0,0,0,0,0,0,0,0,0,0,0,0,0,0,0],"sum_hessian":[1.2885161E2,7.481145E1,5.4040165E1,5.399438E0,6.941201E1,2.8099723E0,5.1230194E1,5.5041153E1,1.4370856E1,2.4408009E1,2.6822184E1,6.986718E0,4.8054436E1,9.556671E0,4.814185E0,2.2481865E1,1.9261451E0,1.6399307E1,1.0422875E1],"tree_param":{"num_deleted":"0","num_feature":"18","num_nodes":"19","size_leaf_vector":"1"}},{"base_weights":[3.0349087E-2,2.1225365E-1,-1.5048262E-2,6.050276E-1,-4.1123787E-1,-8.814031E-1,8.947664E-1,-9.1933984E-1,1.017622E0,-1.5818885E-2,-1.4112937E-3,4.5771687E-3,1.5336546E-2,1.2660794E-2,-1.1310224E-2,1.463831E-2,-6.946785E-3],"categories":[],"categories_nodes":[],"categories_segments":[],"categories_sizes":[],"default_left":[0,0,0,0,0,0,0,0,0,0,0,0,0,0,0,0,0],"id":32,"left_children":[1,3,-1,5,7,9,11,13,15,-1,-1,-1,-1,-1,-1,-1,-1],"loss_changes":[3.5034454E1,2.7681477E1,0E0,3.056141E1,3.279968E1,5.885627E0,1.559071E1,1.6652882E1,1.0176031E1,0E0,0E0,0E0,0E0,0E0,0E0,0E0,0E0],"parents":[2147483647,0,0,1,1,3,3,4,4,5,5,6,6,7,7,8,8],"right_children":[2,4,-1,6,8,10,12,14,16,-1,-1,-1,-1,-1,-1,-1,-1],"split_conditions":[1.7468924E-2,7.1720105E-1,-1.5048262E-2,3.7549585E-1,9.9644095E-2,8.338478E-3,1.7985723E0,7.873726E-2,4.6901307E-3,-1.5818885E-2,-1.4112937E-3,4.5771687E-3,1.5336546E-2,1.2660794E-2,-1.1310224E-2,1.463831E-2,-6.946785E-3],"split_indices":[15,2,0,2,13,15,7,1,16,0,0,0,0,0,0,0,0],"split_type":[0,0,0,0,0,0,0,0,0,0,0,0,0,0,0,0,0],"sum_hessian":[1.23312904E2,1.1101979E2,1.2293114E1,6.813019E1,4.28896E1,1.0780669E1,5.734952E1,3.1901892E1,1.0987708E1,4.955048E0,5.825621E0,3.5073162E1,2.227636E1,2.3773205E0,2.952457E1,8.83143E0,2.1562777E0],"tree_param":{"num_deleted":"0","num_feature":"18","num_nodes":"17","size_leaf_vector":"1"}},{"base_weights":[-2.0832814E-2,1.6833393E-1,-1.5201611E-2,-1.951942E-1,1.2654446E0,-4.8589334E-1,1.0040375E0,-1.0823488E-2,1.4108498E0,1.1318444E-3,-1.3635137E-2,-6.249087E-3,1.4350485E-2,1.5563639E-2,-2.391533E-3],"categories":[],"categories_nodes":[],"categories_segments":[],"categories_sizes":[],"default_left":[0,0,0,0,0,0,0,0,0,0,0,0,0,0,0],"id":33,"left_children":[1,3,-1,5,7,9,11,-1,13,-1,-1,-1,-1,-1,-1],"loss_changes":[3.662285E1,4.6015995E1,0E0,3.0839386E1,1.1322952E1,3.735212E1,1.3052067E1,0E0,6.9642525E0,0E0,0E0,0E0,0E0,0E0,0E0],"parents":[2147483647,0,0,1,1,3,3,4,4,5,5,6,6,8,8],"right_children":[2,4,-1,6,8,10,12,-1,14,-1,-1,-1,-1,-1,-1],"split_conditions":[1.1047456E0,1.7985723E0,-1.5201611E-2,8.9060366E-2,3.7318766E-1,5.887075E-1,4.6099287E-2,-1.0823488E-2,4.259744E-2,1.1318444E-3,-1.3635137E-2,-6.249087E-3,1.4350485E-2,1.5563639E-2,-2.391533E-3],"split_indices":[4,7,0,13,2,3,9,0,9,0,0,0,0,0,0],"split_type":[0,0,0,0,0,0,0,0,0,0,0,0,0,0,0],"sum_hessian":[1.2722283E2,1.1375798E2,1.3464851E1,8.6063034E1,2.7694944E1,6.975012E1,1.6312914E1,1.2393898E0,2.6455555E1,4.1971046E1,2.7779078E1,3.3190734E0,1.299384E1,2.4363668E1,2.0918863E0],"tree_param":{"num_deleted":"0","num_feature":"18","num_nodes":"15","size_leaf_vector":"1"}},{"base_weights":[3.7042327E-2,2.189323E-1,-1.49282655E-2,5.716305E-1,-3.483201E-1,-1.5093704E-2,7.727027E-1,-5.934459E-1,9.2567044E-1,9.717786E-3,-3.4675016E-3,1.3576321E-2,-8.0847E-3,1.4540214E-2,-9.565025E-3],"categories":[],"categories_nodes":[],"categories_segments":[],"categories_sizes":[],"default_left":[0,0,0,0,0,0,0,0,0,0,0,0,0,0,0],"id":34,"left_children":[1,3,-1,5,7,-1,9,11,13,-1,-1,-1,-1,-1,-1],"loss_changes":[3.4618286E1,2.240865E1,0E0,2.9966248E1,1.40342655E1,0E0,1.4471687E1,1.6545788E1,8.708304E0,0E0,0E0,0E0,0E0,0E0,0E0],"parents":[2147483647,0,0,1,1,3,3,4,4,6,6,7,7,8,8],"right_children":[2,4,-1,6,8,-1,10,12,14,-1,-1,-1,-1,-1,-1],"split_conditions":[1.7468924E-2,7.1720105E-1,-1.49282655E-2,8.59348E-2,1.9614151E-1,-1.5093704E-2,4.8001617E-2,9.30647E-2,2.0386973E-1,9.717786E-3,-3.4675016E-3,1.3576321E-2,-8.0847E-3,1.4540214E-2,-9.565025E-3],"split_indices":[15,2,0,1,1,0,9,0,0,0,0,0,0,0,0],"split_type":[0,0,0,0,0,0,0,0,0,0,0,0,0,0,0],"sum_hessian":[1.2223185E2,1.10009445E2,1.2222405E1,6.782836E1,4.218108E1,5.4030266E0,6.242534E1,3.5822697E1,6.3583846E0,5.3112152E1,9.313187E0,3.0285444E0,3.279415E1,5.142339E0,1.2160456E0],"tree_param":{"num_deleted":"0","num_feature":"18","num_nodes":"15","size_leaf_vector":"1"}},{"base_weights":[1.0799709E-2,1.8439877E-1,-1.501551E-2,-7.4971065E-2,1.2709877E0,3.8493747E-1,-1.1131859E0,1.5040919E0,-3.0491742E-1,-1.4748591E-2,5.605815E-3,1.2745557E-2,-1.3832804E-2,1.5819473E-2,2.4102228E-3,9.195338E-3,-1.1274129E-2],"categories":[],"categories_nodes":[],"categories_segments":[],"categories_sizes":[],"default_left":[0,0,0,0,0,0,0,0,0,0,0,0,0,0,0,0,0],"id":35,"left_children":[1,3,-1,5,7,9,11,13,15,-1,-1,-1,-1,-1,-1,-1,-1],"loss_changes":[3.489088E1,3.3677E1,0E0,4.6810856E1,8.914097E0,2.305988E1,2.1160625E1,1.6070938E0,4.8610935E0,0E0,0E0,0E0,0E0,0E0,0E0,0E0,0E0],"parents":[2147483647,0,0,1,1,3,3,4,4,5,5,6,6,7,7,8,8],"right_children":[2,4,-1,6,8,10,12,14,16,-1,-1,-1,-1,-1,-1,-1,-1],"split_conditions":[1.1047456E0,9.50048E-2,-1.501551E-2,6.714585E-1,5.2067796E-3,2.2100491E-2,7.873726E-2,1.23037525E-1,1.6692027E-1,-1.4748591E-2,5.605815E-3,1.2745557E-2,-1.3832804E-2,1.5819473E-2,2.4102228E-3,9.195338E-3,-1.1274129E-2],"split_indices":[4,13,0,3,16,12,1,10,1,0,0,0,0,0,0,0,0],"split_type":[0,0,0,0,0,0,0,0,0,0,0,0,0,0,0,0,0],"sum_hessian":[1.3084142E2,1.18156586E2,1.26848345E1,9.613909E1,2.2017488E1,6.706144E1,2.9077654E1,1.9220072E1,2.7974167E0,5.148628E0,6.191281E1,2.577004E0,2.650065E1,1.7866331E1,1.3537413E0,1.0766399E0,1.7207768E0],"tree_param":{"num_deleted":"0","num_feature":"18","num_nodes":"17","size_leaf_vector":"1"}},{"base_weights":[-6.3222714E-2,3.607694E-1,-6.524907E-1,6.5193164E-1,-7.0949465E-1,-2.740462E-1,-1.2657614E0,-1.0107168E0,9.5954514E-1,-1.5769457E-2,9.2978483E-1,-8.2791173E-1,9.547619E-1,9.747762E-3,-1.447754E0,-1.45881185E-2,1.8154805E-3,1.3209879E-2,3.6564327E-3,1.3571594E-2,-1.9074195E-3,1.2214789E-2,-1.0866885E-2,1.2520307E-2,-4.8616407E-3,-4.3678293E-3,-1.5189399E-2],"categories":[],"categories_nodes":[],"categories_segments":[],"categories_sizes":[],"default_left":[0,0,0,0,0,0,0,0,0,0,0,0,0,0,0,0,0,0,0,0,0,0,0,0,0,0,0],"id":36,"left_children":[1,3,5,7,9,11,13,15,17,-1,19,21,23,-1,25,-1,-1,-1,-1,-1,-1,-1,-1,-1,-1,-1,-1],"loss_changes":[3.161356E1,2.3423342E1,1.1932619E1,3.0861732E1,2.4554995E1,2.3927055E1,9.531353E0,5.4000006E0,1.0214245E1,0E0,3.2508621E0,1.4038605E1,5.33175E0,0E0,6.9099045E-1,0E0,0E0,0E0,0E0,0E0,0E0,0E0,0E0,0E0,0E0,0E0,0E0],"parents":[2147483647,0,0,1,1,2,2,3,3,4,4,5,5,6,6,7,7,8,8,10,10,11,11,12,12,14,14],"right_children":[2,4,6,8,10,12,14,16,18,-1,20,22,24,-1,26,-1,-1,-1,-1,-1,-1,-1,-1,-1,-1,-1,-1],"split_conditions":[7.1720105E-1,4.8001617E-2,4.6901307E-3,5.4372188E-2,1.1353124E-1,1.5324502E-1,2.659996E-2,2.6312124E-3,9.398721E-2,-1.5769457E-2,1.8337359E-1,7.873726E-2,9.355859E-1,9.747762E-3,3.2414306E-2,-1.45881185E-2,1.8154805E-3,1.3209879E-2,3.6564327E-3,1.3571594E-2,-1.9074195E-3,1.2214789E-2,-1.0866885E-2,1.2520307E-2,-4.8616407E-3,-4.3678293E-3,-1.5189399E-2],"split_indices":[2,9,16,11,10,1,9,16,11,0,0,1,7,0,9,0,0,0,0,0,0,0,0,0,0,0,0],"split_type":[0,0,0,0,0,0,0,0,0,0,0,0,0,0,0,0,0,0,0,0,0,0,0,0,0,0,0],"sum_hessian":[1.2459053E2,7.268194E1,5.1908592E1,5.7445045E1,1.523689E1,3.2994694E1,1.89139E1,8.611937E0,4.883311E1,9.989049E0,5.247841E0,2.2968334E1,1.0026359E1,1.0936532E0,1.7820248E1,6.096932E0,2.5150046E0,2.9596638E1,1.9236471E1,3.646042E0,1.6017985E0,2.1579757E0,2.0810358E1,8.420308E0,1.60605E0,1.641648E0,1.6178598E1],"tree_param":{"num_deleted":"0","num_feature":"18","num_nodes":"27","size_leaf_vector":"1"}},{"base_weights":[-1.6184006E-2,1.688466E-1,-1.4816009E-2,-1.1998505E-1,9.6969014E-1,2.2852579E-1,-1.4054266E0,1.2492944E0,-8.6337954E-1,8.974229E-3,-5.078482E-3,-7.5974944E-3,-1.5478909E-2,-1.1796213E-2,1.440427E-2,-7.8612077E-4,-1.1810005E-2],"categories":[],"categories_nodes":[],"categories_segments":[],"categories_sizes":[],"default_left":[0,0,0,0,0,0,0,0,0,0,0,0,0,0,0,0,0],"id":37,"left_children":[1,3,-1,5,7,9,11,13,15,-1,-1,-1,-1,-1,-1,-1,-1],"loss_changes":[3.450641E1,2.627098E1,0E0,3.7948322E1,1.6496304E1,3.3425854E1,4.8475647E-1,1.4005749E1,1.0468879E0,0E0,0E0,0E0,0E0,0E0,0E0,0E0,0E0],"parents":[2147483647,0,0,1,1,3,3,4,4,5,5,6,6,7,7,8,8],"right_children":[2,4,-1,6,8,10,12,14,16,-1,-1,-1,-1,-1,-1,-1,-1],"split_conditions":[1.7468924E-2,1.7985723E0,-1.4816009E-2,1.0193652E0,4.259744E-2,5.887075E-1,6.138859E-2,3.7318766E-1,8.91518E-2,8.974229E-3,-5.078482E-3,-7.5974944E-3,-1.5478909E-2,-1.1796213E-2,1.440427E-2,-7.8612077E-4,-1.1810005E-2],"split_indices":[15,7,0,7,9,3,10,2,11,0,0,0,0,0,0,0,0],"split_type":[0,0,0,0,0,0,0,0,0,0,0,0,0,0,0,0,0],"sum_hessian":[1.2533828E2,1.1207227E2,1.3266006E1,8.299098E1,2.9081293E1,6.5936424E1,1.7054562E1,2.5508818E1,3.572476E0,3.443664E1,3.149978E1,4.227516E0,1.2827045E1,1.4835913E0,2.4025225E1,1.3887359E0,2.1837401E0],"tree_param":{"num_deleted":"0","num_feature":"18","num_nodes":"17","size_leaf_vector":"1"}},{"base_weights":[-5.238467E-2,1.1531403E-1,-1.4732203E-2,-2.1158601E-1,1.2421461E0,-4.2973992E-1,1.2725397E0,-1.1155061E-2,1.4082656E0,5.5449298E-3,-9.098595E-3,-2.3907071E-3,1.4654775E-2,1.5705995E-2,-3.5078467E-3],"categories":[],"categories_nodes":[],"categories_segments":[],"categories_sizes":[],"default_left":[0,0,0,0,0,0,0,0,0,0,0,0,0,0,0],"id":38,"left_children":[1,3,-1,5,7,9,11,-1,13,-1,-1,-1,-1,-1,-1],"loss_changes":[3.00383E1,4.190539E1,0E0,2.9194324E1,1.1584156E1,3.7311287E1,3.731039E0,0E0,7.4972496E0,0E0,0E0,0E0,0E0,0E0,0E0],"parents":[2147483647,0,0,1,1,3,3,4,4,5,5,6,6,8,8],"right_children":[2,4,-1,6,8,10,12,-1,14,-1,-1,-1,-1,-1,-1],"split_conditions":[1.1047456E0,1.7985723E0,-1.4732203E-2,9.50048E-2,3.7318766E-1,5.7198143E-1,4.479461E-2,-1.1155061E-2,4.259744E-2,5.5449298E-3,-9.098595E-3,-2.3907071E-3,1.4654775E-2,1.5705995E-2,-3.5078467E-3],"split_indices":[4,7,0,13,2,5,9,0,9,0,0,0,0,0,0],"split_type":[0,0,0,0,0,0,0,0,0,0,0,0,0,0,0],"sum_hessian":[1.24354126E2,1.1204813E2,1.2306E1,8.74815E1,2.4566624E1,7.688979E1,1.0591706E1,1.2408452E0,2.3325779E1,2.5159187E1,5.1730606E1,1.1718112E0,9.419895E0,2.1453112E1,1.872668E0],"tree_param":{"num_deleted":"0","num_feature":"18","num_nodes":"15","size_leaf_vector":"1"}},{"base_weights":[-4.0291328E-2,1.2184669E-1,-1.4538388E-2,4.9494323E-1,-4.209594E-1,-9.7731483E-1,7.67363E-1,1.3110673E-2,-6.089379E-1,-1.4524351E-2,1.4908676E-3,1.0773512E-2,3.072602E-4,-1.0851924E-2,1.1209198E-3],"categories":[],"categories_nodes":[],"categories_segments":[],"categories_sizes":[],"default_left":[0,0,0,0,0,0,0,0,0,0,0,0,0,0,0],"id":39,"left_children":[1,3,-1,5,7,9,11,-1,13,-1,-1,-1,-1,-1,-1],"loss_changes":[2.7002615E1,2.1659891E1,0E0,2.6111671E1,1.5022713E1,5.7360897E0,1.2279753E1,0E0,1.3889756E1,0E0,0E0,0E0,0E0,0E0,0E0],"parents":[2147483647,0,0,1,1,3,3,4,4,5,5,6,6,8,8],"right_children":[2,4,-1,6,8,10,12,-1,14,-1,-1,-1,-1,-1,-1],"split_conditions":[1.7468924E-2,7.1720105E-1,-1.4538388E-2,5.4372188E-2,9.710337E-3,1.0137599E-3,1.1010559E-2,1.3110673E-2,1.3196774E-1,-1.4524351E-2,1.4908676E-3,1.0773512E-2,3.072602E-4,-1.0851924E-2,1.1209198E-3],"split_indices":[15,2,0,11,8,17,15,0,11,0,0,0,0,0,0],"split_type":[0,0,0,0,0,0,0,0,0,0,0,0,0,0,0],"sum_hessian":[1.16044785E2,1.0492355E2,1.1121237E1,6.2234787E1,4.2688763E1,9.3135195E0,5.292127E1,3.5945115E0,3.9094254E1,6.346919E0,2.9666004E0,3.6921574E1,1.5999696E1,2.3239225E1,1.5855027E1],"tree_param":{"num_deleted":"0","num_feature":"18","num_nodes":"15","size_leaf_vector":"1"}},{"base_weights":[4.036979E-5,1.7198385E-1,-1.4606587E-2,-6.8816384E-3,1.40395565E-2,-3.7237236E-1,4.912697E-1,4.373022E-3,-1.2855787E-2,1.0237515E-2,4.6159307E-4],"categories":[],"categories_nodes":[],"categories_segments":[],"categories_sizes":[],"default_left":[0,0,0,0,0,0,0,0,0,0,0],"id":40,"left_children":[1,3,-1,5,-1,7,9,-1,-1,-1,-1],"loss_changes":[3.1541689E1,2.4768747E1,0E0,1.8227709E1,0E0,4.3251663E1,9.995909E0,0E0,0E0,0E0,0E0],"parents":[2147483647,0,0,1,1,3,3,5,5,6,6],"right_children":[2,4,-1,6,-1,8,10,-1,-1,-1,-1],"split_conditions":[1.1047456E0,5.790966E0,-1.4606587E-2,8.180498E-1,1.40395565E-2,1.22647636E-1,7.0989364E-1,4.373022E-3,-1.2855787E-2,1.0237515E-2,4.6159307E-4],"split_indices":[4,6,0,5,0,0,2,0,0,0,0],"split_type":[0,0,0,0,0,0,0,0,0,0,0],"sum_hessian":[1.2358499E2,1.1135885E2,1.2226142E1,9.810915E1,1.3249697E1,5.6735294E1,4.137386E1,3.0348549E1,2.6386745E1,1.8246151E1,2.3127708E1],"tree_param":{"num_deleted":"0","num_feature":"18","num_nodes":"11","size_leaf_vector":"1"}},{"base_weights":[-1.8386427E-2,1.5421204E-1,-1.457513E-2,-1.6384433E-1,1.2080257E0,-3.8984945E-1,1.2818085E0,-1.1024952E-2,1.3674378E0,5.041072E-3,-9.99663E-3,-1.9325949E-3,1.5334887E-2,1.4626256E-2,-1.6220245E-3],"categories":[],"categories_nodes":[],"categories_segments":[],"categories_sizes":[],"default_left":[0,0,0,0,0,0,0,0,0,0,0,0,0,0,0],"id":41,"left_children":[1,3,-1,5,7,9,11,-1,13,-1,-1,-1,-1,-1,-1],"loss_changes":[3.1141285E1,3.7751396E1,0E0,2.890742E1,1.1119221E1,4.191253E1,4.746952E0,0E0,3.8565903E0,0E0,0E0,0E0,0E0,0E0,0E0],"parents":[2147483647,0,0,1,1,3,3,4,4,5,5,6,6,8,8],"right_children":[2,4,-1,6,8,10,12,-1,14,-1,-1,-1,-1,-1,-1],"split_conditions":[1.1047456E0,1.7985723E0,-1.457513E-2,9.50048E-2,3.485064E-1,1.22647636E-1,4.6099287E-2,-1.1024952E-2,1.2984395E0,5.041072E-3,-9.99663E-3,-1.9325949E-3,1.5334887E-2,1.4626256E-2,-1.6220245E-3],"split_indices":[4,7,0,13,2,0,9,0,3,0,0,0,0,0,0],"split_type":[0,0,0,0,0,0,0,0,0,0,0,0,0,0,0],"sum_hessian":[1.23467125E2,1.1104235E2,1.2424775E1,8.594685E1,2.5095497E1,7.495859E1,1.0988268E1,1.2378651E0,2.3857632E1,3.0467731E1,4.4490852E1,1.6354148E0,9.352853E0,2.2501217E1,1.3564149E0],"tree_param":{"num_deleted":"0","num_feature":"18","num_nodes":"15","size_leaf_vector":"1"}},{"base_weights":[-2.7811226E-2,1.905851E-1,-1.1308813E0,-1.3039152E-1,1.1268646E0,9.836912E-3,-1.4826383E-2,4.8498437E-1,-8.792477E-1,-1.1064326E-2,1.278409E0,-1.4224203E-2,7.331438E-3,-1.2387263E-2,1.2443708E-2,1.455677E-2,-3.475337E-3],"categories":[],"categories_nodes":[],"categories_segments":[],"categories_sizes":[],"default_left":[0,0,0,0,0,0,0,0,0,0,0,0,0,0,0,0,0],"id":42,"left_children":[1,3,5,7,9,-1,-1,11,13,-1,15,-1,-1,-1,-1,-1,-1],"loss_changes":[3.0178352E1,3.1604513E1,1.6855082E1,3.6762E1,1.0494038E1,0E0,0E0,2.1834843E1,2.896438E1,0E0,7.8806534E0,0E0,0E0,0E0,0E0,0E0,0E0],"parents":[2147483647,0,0,1,1,2,2,3,3,4,4,7,7,8,8,10,10],"right_children":[2,4,6,8,10,-1,-1,12,14,-1,16,-1,-1,-1,-1,-1,-1],"split_conditions":[4.9813353E-2,1.7985723E0,1.0714994E-2,5.887075E-1,3.7318766E-1,9.836912E-3,-1.4826383E-2,2.2100491E-2,9.9644095E-2,-1.1064326E-2,4.259744E-2,-1.4224203E-2,7.331438E-3,-1.2387263E-2,1.2443708E-2,1.455677E-2,-3.475337E-3],"split_indices":[12,7,15,3,2,0,0,12,13,0,9,0,0,0,0,0,0],"split_type":[0,0,0,0,0,0,0,0,0,0,0,0,0,0,0,0,0],"sum_hessian":[1.23375336E2,1.03675835E2,1.9699507E1,7.784845E1,2.5827381E1,2.553392E0,1.7146114E1,4.2926105E1,3.4922348E1,1.2407987E0,2.4586582E1,4.397112E0,3.852899E1,3.0222998E1,4.69935E0,2.2263975E1,2.3226066E0],"tree_param":{"num_deleted":"0","num_feature":"18","num_nodes":"17","size_leaf_vector":"1"}},{"base_weights":[6.0250454E-2,2.1092455E-1,-1.4160101E-2,5.4178644E-2,1.270705E0,4.5316625E-1,-5.484024E-1,1.364629E-2,5.143456E-1,-1.4778382E-2,6.893889E-3,-9.137383E-3,1.2308295E-2,6.761516E-3,1.0315719E-3],"categories":[],"categories_nodes":[],"categories_segments":[],"categories_sizes":[],"default_left":[0,0,0,0,0,0,0,0,0,0,0,0,0,0,0],"id":43,"left_children":[1,3,-1,5,7,9,11,-1,13,-1,-1,-1,-1,-1,-1],"loss_changes":[2.75409E1,1.853634E1,0E0,2.3957663E1,3.201313E-1,2.833186E1,2.6954273E1,0E0,1.4276046E-1,0E0,0E0,0E0,0E0,0E0,0E0],"parents":[2147483647,0,0,1,1,3,3,4,4,5,5,6,6,8,8],"right_children":[2,4,-1,6,8,10,12,-1,14,-1,-1,-1,-1,-1,-1],"split_conditions":[1.7468924E-2,5.790966E0,-1.4160101E-2,6.714585E-1,7.1720105E-1,2.2100491E-2,1.9614151E-1,1.364629E-2,5.8503804E0,-1.4778382E-2,6.893889E-3,-9.137383E-3,1.2308295E-2,6.761516E-3,1.0315719E-3],"split_indices":[15,6,0,3,2,12,1,0,6,0,0,0,0,0,0],"split_type":[0,0,0,0,0,0,0,0,0,0,0,0,0,0,0],"sum_hessian":[1.2147318E2,1.11001015E2,1.0472163E1,9.761455E1,1.3386472E1,5.887773E1,3.8736813E1,1.1192402E1,2.1940706E0,5.8446302E0,5.30331E1,3.2541412E1,6.1953998E0,1.1120753E0,1.0819951E0],"tree_param":{"num_deleted":"0","num_feature":"18","num_nodes":"15","size_leaf_vector":"1"}},{"base_weights":[-6.6541275E-3,3.7891352E-1,-5.692921E-1,-1.4636106E-2,5.547798E-1,1.2951681E-2,-7.046085E-1,9.196672E-1,-7.3764E-1,-1.2199203E0,-1.3462564E-1,-1.1243229E-2,1.0035035E-2,-1.5239368E-2,8.335054E-3,-1.49521E-2,1.1002879E-2,7.133157E-3,-1.3669692E-2],"categories":[],"categories_nodes":[],"categories_segments":[],"categories_sizes":[],"default_left":[0,0,0,0,0,0,0,0,0,0,0,0,0,0,0,0,0,0,0],"id":44,"left_children":[1,3,5,-1,7,-1,9,11,13,15,17,-1,-1,-1,-1,-1,-1,-1,-1],"loss_changes":[2.5523354E1,2.343731E1,1.2981459E1,0E0,3.1079006E1,0E0,1.3125856E1,9.819069E0,1.9489653E1,1.6744377E1,2.4599651E1,0E0,0E0,0E0,0E0,0E0,0E0,0E0,0E0],"parents":[2147483647,0,0,1,1,2,2,4,4,6,6,7,7,8,8,9,9,10,10],"right_children":[2,4,6,-1,8,-1,10,12,14,16,18,-1,-1,-1,-1,-1,-1,-1,-1],"split_conditions":[7.1720105E-1,2.1952316E-2,7.873726E-2,-1.4636106E-2,4.8001617E-2,1.2951681E-2,1.2881583E-1,2.421033E-3,1.1353124E-1,1.9614151E-1,1.0971249E0,-1.1243229E-2,1.0035035E-2,-1.5239368E-2,8.335054E-3,-1.49521E-2,1.1002879E-2,7.133157E-3,-1.3669692E-2],"split_indices":[2,9,1,0,9,0,11,16,10,1,4,0,0,0,0,0,0,0,0],"split_type":[0,0,0,0,0,0,0,0,0,0,0,0,0,0,0,0,0,0,0],"sum_hessian":[1.1566002E2,6.882309E1,4.683692E1,5.358685E0,6.346441E1,2.589264E0,4.4247658E1,4.971644E1,1.3747969E1,2.2639446E1,2.1608213E1,1.4698391E0,4.82466E1,9.182523E0,4.565446E0,2.0556065E1,2.0833807E0,1.3050025E1,8.5581875E0],"tree_param":{"num_deleted":"0","num_feature":"18","num_nodes":"19","size_leaf_vector":"1"}},{"base_weights":[1.06457E-3,-2.7112594E-1,8.06556E-1,2.9942787E-1,-8.072634E-1,1.2570418E0,-1.20153865E-2,-9.557823E-2,1.53979575E-2,-1.3240764E0,5.1635355E-1,3.604399E-1,1.4198207E0,6.816729E-3,-1.5648574E-2,1.1761577E-2,-1.60246E-2,1.285786E-2,-1.24089E-2,-1.0915558E-2,1.1912024E-2,1.4944239E-2,1.3177092E-4],"categories":[],"categories_nodes":[],"categories_segments":[],"categories_sizes":[],"default_left":[0,0,0,0,0,0,0,0,0,0,0,0,0,0,0,0,0,0,0,0,0,0,0],"id":45,"left_children":[1,3,5,7,9,11,-1,13,-1,15,17,19,21,-1,-1,-1,-1,-1,-1,-1,-1,-1,-1],"loss_changes":[2.7309467E1,2.872146E1,2.9969574E1,2.2603289E1,3.3703186E1,3.3097572E0,0E0,4.184097E1,0E0,2.624253E1,2.089525E1,7.7701306E0,2.270172E0,0E0,0E0,0E0,0E0,0E0,0E0,0E0,0E0,0E0,0E0],"parents":[2147483647,0,0,1,1,2,2,3,3,4,4,5,5,7,7,9,9,10,10,11,11,12,12],"right_children":[2,4,6,8,10,12,-1,14,-1,16,18,20,22,-1,-1,-1,-1,-1,-1,-1,-1,-1,-1],"split_conditions":[1.7985723E0,5.887075E-1,1.6194798E-1,9.7197495E-2,9.50048E-2,6.398095E-1,-1.20153865E-2,1.2609094E-1,1.53979575E-2,4.1483853E-2,1.23037525E-1,5.3345556E0,1.2191781E0,6.816729E-3,-1.5648574E-2,1.1761577E-2,-1.60246E-2,1.285786E-2,-1.24089E-2,-1.0915558E-2,1.1912024E-2,1.4944239E-2,1.3177092E-4],"split_indices":[7,3,1,10,13,4,0,0,0,14,10,6,3,0,0,0,0,0,0,0,0,0,0],"split_type":[0,0,0,0,0,0,0,0,0,0,0,0,0,0,0,0,0,0,0,0,0,0,0],"sum_hessian":[1.225628E2,9.210291E1,3.0459883E1,4.483322E1,4.7269695E1,2.5184198E1,5.275684E0,3.470428E1,1.0128941E1,3.3995594E1,1.3274101E1,4.3635597E0,2.082064E1,2.3047934E1,1.1656346E1,3.082844E0,3.091275E1,9.418416E0,3.855685E0,1.4737823E0,2.8897774E0,1.9712744E1,1.1078961E0],"tree_param":{"num_deleted":"0","num_feature":"18","num_nodes":"23","size_leaf_vector":"1"}},{"base_weights":[-2.2148151E-2,1.20340005E-1,-1.398828E-2,-1.7270315E-1,1.0671464E0,1.10868804E-1,-1.2933493E0,-1.2416961E-2,1.2729963E0,7.408784E-3,-5.910844E-3,-1.531902E-2,-7.1190433E-3,1.4511777E-2,-6.12305E-3],"categories":[],"categories_nodes":[],"categories_segments":[],"categories_sizes":[],"default_left":[0,0,0,0,0,0,0,0,0,0,0,0,0,0,0],"id":46,"left_children":[1,3,-1,5,7,9,11,-1,13,-1,-1,-1,-1,-1,-1],"loss_changes":[2.4670906E1,3.1846302E1,0E0,2.8109879E1,1.4465849E1,3.1904812E1,1.3854485E0,0E0,9.416199E0,0E0,0E0,0E0,0E0,0E0,0E0],"parents":[2147483647,0,0,1,1,3,3,4,4,5,5,6,6,8,8],"right_children":[2,4,-1,6,8,10,12,-1,14,-1,-1,-1,-1,-1,-1],"split_conditions":[1.1047456E0,1.7985723E0,-1.398828E-2,1.0193652E0,3.7318766E-1,5.887075E-1,1.5144672E0,-1.2416961E-2,4.259744E-2,7.408784E-3,-5.910844E-3,-1.531902E-2,-7.1190433E-3,1.4511777E-2,-6.12305E-3],"split_indices":[4,7,0,7,2,3,8,0,9,0,0,0,0,0,0],"split_type":[0,0,0,0,0,0,0,0,0,0,0,0,0,0,0],"sum_hessian":[1.2391079E2,1.13115746E2,1.079504E1,8.700476E1,2.6110983E1,7.015387E1,1.6850897E1,1.7254984E0,2.4385485E1,3.694233E1,3.3211536E1,1.07895565E1,6.06134E0,2.2490187E1,1.8952979E0],"tree_param":{"num_deleted":"0","num_feature":"18","num_nodes":"15","size_leaf_vector":"1"}},{"base_weights":[-3.1510068E-3,1.6351579E-1,-1.4116432E-2,-4.4224747E-2,1.102693E0,4.5141953E-1,-1.060269E0,1.4481584E-2,-9.477961E-2,-1.4331773E-2,6.238702E-3,1.3138398E-2,-1.3617832E-2,1.1386957E-2,-1.1958378E-2],"categories":[],"categories_nodes":[],"categories_segments":[],"categories_sizes":[],"default_left":[0,0,0,0,0,0,0,0,0,0,0,0,0,0,0],"id":47,"left_children":[1,3,-1,5,7,9,11,-1,13,-1,-1,-1,-1,-1,-1],"loss_changes":[2.9589499E1,2.2042461E1,0E0,4.7449356E1,8.599936E0,2.149617E1,2.3893688E1,0E0,8.85703E0,0E0,0E0,0E0,0E0,0E0,0E0],"parents":[2147483647,0,0,1,1,3,3,4,4,5,5,6,6,8,8],"right_children":[2,4,-1,6,8,10,12,-1,14,-1,-1,-1,-1,-1,-1],"split_conditions":[1.7468924E-2,9.50048E-2,-1.4116432E-2,6.714585E-1,1.1518219E-1,8.59348E-2,7.873726E-2,1.4481584E-2,1.5626231E-1,-1.4331773E-2,6.238702E-3,1.3138398E-2,-1.3617832E-2,1.1386957E-2,-1.1958378E-2],"split_indices":[15,13,0,3,10,1,1,0,1,0,0,0,0,0,0],"split_type":[0,0,0,0,0,0,0,0,0,0,0,0,0,0,0],"sum_hessian":[1.2406416E2,1.1172738E2,1.2336787E1,9.227058E1,1.9456802E1,6.2390903E1,2.9879673E1,1.4937932E1,4.5188713E0,4.6176033E0,5.77733E1,2.98877E0,2.6890902E1,2.1151562E0,2.4037151E0],"tree_param":{"num_deleted":"0","num_feature":"18","num_nodes":"15","size_leaf_vector":"1"}},{"base_weights":[-3.255806E-3,1.6648592E-1,-1.4078222E-2,-1.0224207E-1,1.3342404E0,3.6716795E-1,-1.1330616E0,1.4689783E-2,1.6113706E-1,-1.3361957E-2,6.0323733E-3,1.2431303E-2,-1.3952699E-2,4.7113076E-3,-2.0839046E-3],"categories":[],"categories_nodes":[],"categories_segments":[],"categories_sizes":[],"default_left":[0,0,0,0,0,0,0,0,0,0,0,0,0,0,0],"id":48,"left_children":[1,3,-1,5,7,9,11,-1,13,-1,-1,-1,-1,-1,-1],"loss_changes":[2.9379265E1,3.4642426E1,0E0,4.411849E1,3.0259323E0,2.6063898E1,1.9494324E1,0E0,4.704441E-1,0E0,0E0,0E0,0E0,0E0,0E0],"parents":[2147483647,0,0,1,1,3,3,4,4,5,5,6,6,8,8],"right_children":[2,4,-1,6,8,10,12,-1,14,-1,-1,-1,-1,-1,-1],"split_conditions":[1.1047456E0,9.49519E-2,-1.4078222E-2,6.714585E-1,5.2067796E-3,2.3285666E-2,7.873726E-2,1.4689783E-2,1.8886434E-1,-1.3361957E-2,6.0323733E-3,1.2431303E-2,-1.3952699E-2,4.7113076E-3,-2.0839046E-3],"split_indices":[4,13,0,3,16,12,1,0,0,0,0,0,0,0,0],"split_type":[0,0,0,0,0,0,0,0,0,0,0,0,0,0,0],"sum_hessian":[1.2124508E2,1.0895888E2,1.2286202E1,8.93173E1,1.9641582E1,6.1812984E1,2.7504313E1,1.7391813E1,2.249768E0,6.956686E0,5.4856297E1,2.3616345E0,2.5142677E1,1.0739149E0,1.1758533E0],"tree_param":{"num_deleted":"0","num_feature":"18","num_nodes":"15","size_leaf_vector":"1"}},{"base_weights":[-1.2316155E-2,1.4666837E-1,-1.401754E-2,-2.0072238E-1,1.1978873E0,-4.820324E-1,9.208624E-1,6.610686E-1,1.4607919E-2,1.4170386E-3,-1.3130564E-2,-9.728412E-3,1.1514358E-2,1.1199721E-2,-9.780452E-3],"categories":[],"categories_nodes":[],"categories_segments":[],"categories_sizes":[],"default_left":[0,0,0,0,0,0,0,0,0,0,0,0,0,0,0],"id":49,"left_children":[1,3,-1,5,7,9,11,13,-1,-1,-1,-1,-1,-1,-1],"loss_changes":[2.7577E1,4.1174606E1,0E0,2.7296164E1,2.9839363E0,3.5794678E1,8.721721E0,9.389549E0,0E0,0E0,0E0,0E0,0E0,0E0,0E0],"parents":[2147483647,0,0,1,1,3,3,4,4,5,5,6,6,7,7],"right_children":[2,4,-1,6,8,10,12,14,-1,-1,-1,-1,-1,-1,-1],"split_conditions":[1.1047456E0,1.7985723E0,-1.401754E-2,8.9060366E-2,1.3407499E-3,5.887075E-1,2.1370628E-1,6.669565E-2,1.4607919E-2,1.4170386E-3,-1.3130564E-2,-9.728412E-3,1.1514358E-2,1.1199721E-2,-9.780452E-3],"split_indices":[4,7,0,13,17,3,7,13,0,0,0,0,0,0,0],"split_type":[0,0,0,0,0,0,0,0,0,0,0,0,0,0,0],"sum_hessian":[1.2290907E2,1.11091965E2,1.1817107E1,8.410672E1,2.6985247E1,6.7697426E1,1.6409292E1,1.0026618E1,1.6958628E1,3.914563E1,2.8551796E1,1.4316777E0,1.4977613E1,8.08092E0,1.945698E0],"tree_param":{"num_deleted":"0","num_feature":"18","num_nodes":"15","size_leaf_vector":"1"}},{"base_weights":[-6.1019577E-2,1.0074878E-1,-1.3969371E-2,-2.0327964E-1,9.3782824E-1,6.957453E-2,-1.2743565E0,1.1488792E0,-9.2228325E-3,6.111778E-3,-4.7767153E-3,-2.7327454E-3,-1.3334117E-2,-1.071451E-2,1.2971825E-2],"categories":[],"categories_nodes":[],"categories_segments":[],"categories_sizes":[],"default_left":[0,0,0,0,0,0,0,0,0,0,0,0,0,0,0],"id":50,"left_children":[1,3,-1,5,7,9,11,13,-1,-1,-1,-1,-1,-1,-1],"loss_changes":[2.6426022E1,2.803883E1,0E0,2.378773E1,1.2574896E1,1.9728231E1,6.1200523E-1,1.021096E1,0E0,0E0,0E0,0E0,0E0,0E0,0E0],"parents":[2147483647,0,0,1,1,3,3,4,4,5,5,6,6,7,7],"right_children":[2,4,-1,6,8,10,12,14,-1,-1,-1,-1,-1,-1,-1],"split_conditions":[1.7468924E-2,1.7985723E0,-1.3969371E-2,1.0193652E0,1.6134065E-1,5.887075E-1,2.7533263E-1,3.7318766E-1,-9.2228325E-3,6.111778E-3,-4.7767153E-3,-2.7327454E-3,-1.3334117E-2,-1.071451E-2,1.2971825E-2],"split_indices":[15,7,0,7,1,3,2,2,0,0,0,0,0,0,0],"split_type":[0,0,0,0,0,0,0,0,0,0,0,0,0,0,0],"sum_hessian":[1.2062964E2,1.0842488E2,1.2204755E1,8.009238E1,2.8332506E1,6.4576675E1,1.5515703E1,2.5788828E1,2.543677E0,3.239695E1,3.217972E1,1.1777836E0,1.433792E1,1.2249358E0,2.4563892E1],"tree_param":{"num_deleted":"0","num_feature":"18","num_nodes":"15","size_leaf_vector":"1"}},{"base_weights":[9.597575E-3,1.846902E-1,-1.3909576E-2,-1.498292E-1,1.188136E0,3.5429943E-1,-7.095806E-1,1.2942119E0,-4.80895E-3,-5.592096E-4,1.5746847E-2,-1.2051749E-2,1.1669916E-2,5.9200916E-3,1.5002611E-2],"categories":[],"categories_nodes":[],"categories_segments":[],"categories_sizes":[],"default_left":[0,0,0,0,0,0,0,0,0,0,0,0,0,0,0],"id":51,"left_children":[1,3,-1,5,7,9,11,13,-1,-1,-1,-1,-1,-1,-1],"loss_changes":[3.0409613E1,3.716154E1,0E0,2.3819317E1,5.519184E0,2.2420883E1,3.8522675E1,2.9137802E0,0E0,0E0,0E0,0E0,0E0,0E0,0E0],"parents":[2147483647,0,0,1,1,3,3,4,4,5,5,6,6,7,7],"right_children":[2,4,-1,6,8,10,12,14,-1,-1,-1,-1,-1,-1,-1],"split_conditions":[1.1047456E0,1.7985723E0,-1.3909576E-2,5.887075E-1,1.2984395E0,9.88865E-2,9.9644095E-2,1.32665E-1,-4.80895E-3,-5.592096E-4,1.5746847E-2,-1.2051749E-2,1.1669916E-2,5.9200916E-3,1.5002611E-2],"split_indices":[4,7,0,3,3,10,13,1,0,0,0,0,0,0,0],"split_type":[0,0,0,0,0,0,0,0,0,0,0,0,0,0,0],"sum_hessian":[1.2195843E2,1.0917755E2,1.2780874E1,8.251887E1,2.6658688E1,4.3609715E1,3.8909153E1,2.5276785E1,1.3819023E0,3.335271E1,1.0257004E1,3.1063263E1,7.845889E0,6.613059E0,1.8663725E1],"tree_param":{"num_deleted":"0","num_feature":"18","num_nodes":"15","size_leaf_vector":"1"}},{"base_weights":[-2.606908E-2,1.2831263E-1,-1.3747238E-2,-7.7804014E-2,1.1009227E0,3.6667776E-1,-9.985155E-1,1.4225034E-2,-2.3237258E-1,-8.553409E-3,6.545152E-3,1.3349686E-2,-1.3237193E-2,1.0238449E-2,-1.1480378E-2],"categories":[],"categories_nodes":[],"categories_segments":[],"categories_sizes":[],"default_left":[0,0,0,0,0,0,0,0,0,0,0,0,0,0,0],"id":52,"left_children":[1,3,-1,5,7,9,11,-1,13,-1,-1,-1,-1,-1,-1],"loss_changes":[2.5582943E1,2.2218893E1,0E0,3.8030106E1,8.636545E0,2.2649586E1,2.4709826E1,0E0,6.4943047E0,0E0,0E0,0E0,0E0,0E0,0E0],"parents":[2147483647,0,0,1,1,3,3,4,4,5,5,6,6,8,8],"right_children":[2,4,-1,6,8,10,12,-1,14,-1,-1,-1,-1,-1,-1],"split_conditions":[1.7468924E-2,9.50048E-2,-1.3747238E-2,6.714585E-1,4.6901307E-3,3.7549585E-1,7.873726E-2,1.4225034E-2,1.6692027E-1,-8.553409E-3,6.545152E-3,1.3349686E-2,-1.3237193E-2,1.0238449E-2,-1.1480378E-2],"split_indices":[15,13,0,3,16,2,1,0,1,0,0,0,0,0,0],"split_type":[0,0,0,0,0,0,0,0,0,0,0,0,0,0,0],"sum_hessian":[1.2102506E2,1.09406105E2,1.1618957E1,9.1034065E1,1.837204E1,6.180088E1,2.9233187E1,1.4748021E1,3.6240194E0,1.1405791E1,5.039509E1,3.1959305E0,2.6037256E1,1.4780765E0,2.145943E0],"tree_param":{"num_deleted":"0","num_feature":"18","num_nodes":"15","size_leaf_vector":"1"}},{"base_weights":[-7.7339165E-2,-2.50631E-1,1.0926781E0,9.9983595E-2,-7.0867175E-1,1.2989092E0,-8.313509E-3,3.2516295E-1,-1.55646615E-2,2.7935255E-1,-1.0881486E0,1.3884091E-2,5.823611E-3,-1.2097487E-2,6.470492E-3,1.17414445E-2,-1.2239171E-2,-1.3803018E-2,-1.4561273E-3],"categories":[],"categories_nodes":[],"categories_segments":[],"categories_sizes":[],"default_left":[0,0,0,0,0,0,0,0,0,0,0,0,0,0,0,0,0,0,0],"id":53,"left_children":[1,3,5,7,9,11,-1,13,-1,15,17,-1,-1,-1,-1,-1,-1,-1,-1],"loss_changes":[2.4906963E1,1.719563E1,7.3728294E0,2.3361794E1,1.7684786E1,1.3509369E-1,0E0,2.7842709E1,0E0,1.9810879E1,9.078121E0,0E0,0E0,0E0,0E0,0E0,0E0,0E0,0E0],"parents":[2147483647,0,0,1,1,2,2,3,3,4,4,5,5,7,7,9,9,10,10],"right_children":[2,4,6,8,10,12,-1,14,-1,16,18,-1,-1,-1,-1,-1,-1,-1,-1],"split_conditions":[5.790966E0,6.714585E-1,1.1047456E0,4.163451E-2,4.3051517E-1,7.1720105E-1,-8.313509E-3,1.0137599E-3,-1.55646615E-2,4.1935747E-3,1.2311485E0,1.3884091E-2,5.823611E-3,-1.2097487E-2,6.470492E-3,1.17414445E-2,-1.2239171E-2,-1.3803018E-2,-1.4561273E-3],"split_indices":[6,3,4,12,8,2,0,17,0,16,5,0,0,0,0,0,0,0,0],"split_type":[0,0,0,0,0,0,0,0,0,0,0,0,0,0,0,0,0,0,0],"sum_hessian":[1.2049232E2,1.0563278E2,1.4859535E1,6.0275585E1,4.5357193E1,1.3714426E1,1.1451087E0,5.376977E1,6.505815E0,1.2659679E1,3.2697514E1,1.1358114E1,2.3563128E0,8.843121E0,4.492665E1,8.073203E0,4.586477E0,2.4606043E1,8.091471E0],"tree_param":{"num_deleted":"0","num_feature":"18","num_nodes":"19","size_leaf_vector":"1"}},{"base_weights":[-8.165666E-3,3.7613636E-1,-5.9093624E-1,-1.46281095E-2,5.744144E-1,-9.258234E-1,9.013982E-2,9.2918104E-1,-7.527662E-1,-1.1051583E0,1.151105E-2,1.4559861E-2,-1.1966208E0,1.2683115E-2,5.7649184E-3,-1.5067662E-2,1.0216734E-2,3.4513678E-3,-1.3518099E-2,-2.013108E-3,-1.3092296E-2],"categories":[],"categories_nodes":[],"categories_segments":[],"categories_sizes":[],"default_left":[0,0,0,0,0,0,0,0,0,0,0,0,0,0,0,0,0,0,0,0,0],"id":54,"left_children":[1,3,5,-1,7,9,11,13,15,17,-1,-1,19,-1,-1,-1,-1,-1,-1,-1,-1],"loss_changes":[2.7523872E1,2.7848593E1,1.122123E1,0E0,3.2519146E1,1.3498146E1,3.16333E1,5.7005844E0,2.135011E1,1.1457657E1,0E0,0E0,7.794819E-1,0E0,0E0,0E0,0E0,0E0,0E0,0E0,0E0],"parents":[2147483647,0,0,1,1,2,2,4,4,5,5,6,6,7,7,8,8,9,9,12,12],"right_children":[2,4,6,-1,8,10,12,14,16,18,-1,-1,20,-1,-1,-1,-1,-1,-1,-1,-1],"split_conditions":[7.1720105E-1,2.1952316E-2,9.50048E-2,-1.46281095E-2,4.8001617E-2,1.7456827E0,1.1518219E-1,1.24687135E-1,1.1353124E-1,5.887075E-1,1.151105E-2,1.4559861E-2,4.853467E-3,1.2683115E-2,5.7649184E-3,-1.5067662E-2,1.0216734E-2,3.4513678E-3,-1.3518099E-2,-2.013108E-3,-1.3092296E-2],"split_indices":[2,9,13,0,9,3,10,0,10,3,0,0,16,0,0,0,0,0,0,0,0],"split_type":[0,0,0,0,0,0,0,0,0,0,0,0,0,0,0,0,0,0,0,0,0],"sum_hessian":[1.2090395E2,7.307197E1,4.7831985E1,6.4911976E0,6.658077E1,3.1824453E1,1.6007534E1,5.2773777E1,1.3806995E1,2.9725643E1,2.0988104E0,7.701344E0,8.30619E0,2.5580536E1,2.7193243E1,9.795509E0,4.011486E0,4.26259E0,2.5463053E1,1.127582E0,7.178608E0],"tree_param":{"num_deleted":"0","num_feature":"18","num_nodes":"21","size_leaf_vector":"1"}},{"base_weights":[8.631419E-3,1.6365455E-1,-1.3618463E-2,-1.185437E-1,9.84237E-1,4.4783318E-1,-7.14849E-1,1.211017E0,-1.1029613E-2,8.158453E-3,-1.0683138E-2,-1.1644915E-2,9.931464E-3,5.69843E-3,1.3693926E-2],"categories":[],"categories_nodes":[],"categories_segments":[],"categories_sizes":[],"default_left":[0,0,0,0,0,0,0,0,0,0,0,0,0,0,0],"id":55,"left_children":[1,3,-1,5,7,9,11,13,-1,-1,-1,-1,-1,-1,-1],"loss_changes":[2.6137342E1,2.5698626E1,0E0,2.8384436E1,1.4767656E1,2.4993498E1,3.25393E1,1.8672562E0,0E0,0E0,0E0,0E0,0E0,0E0,0E0],"parents":[2147483647,0,0,1,1,3,3,4,4,5,5,6,6,7,7],"right_children":[2,4,-1,6,8,10,12,14,-1,-1,-1,-1,-1,-1,-1],"split_conditions":[1.7468924E-2,1.7985723E0,-1.3618463E-2,5.887075E-1,1.4997567E-1,1.0193652E0,9.9644095E-2,9.485841E-3,-1.1029613E-2,8.158453E-3,-1.0683138E-2,-1.1644915E-2,9.931464E-3,5.69843E-3,1.3693926E-2],"split_indices":[15,7,0,3,11,7,13,15,0,0,0,0,0,0,0],"split_type":[0,0,0,0,0,0,0,0,0,0,0,0,0,0,0],"sum_hessian":[1.2097585E2,1.0947324E2,1.1502603E1,8.2095985E1,2.7377264E1,4.22323E1,3.986368E1,2.5072819E1,2.304444E0,3.4355206E1,7.8770933E0,3.1808159E1,8.055523E0,5.8772373E0,1.9195583E1],"tree_param":{"num_deleted":"0","num_feature":"18","num_nodes":"15","size_leaf_vector":"1"}},{"base_weights":[-4.2342603E-2,1.10602535E-1,-1.3516721E-2,-1.4492182E-1,1.0553161E0,2.600881E-1,-9.846843E-1,1.2905804E0,-2.2201896E-1,-1.4257797E-2,4.510683E-3,1.2344066E-2,-1.2424159E-2,1.38885295E-2,-1.3601402E-3,-1.108001E-2,9.322084E-3],"categories":[],"categories_nodes":[],"categories_segments":[],"categories_sizes":[],"default_left":[0,0,0,0,0,0,0,0,0,0,0,0,0,0,0,0,0],"id":56,"left_children":[1,3,-1,5,7,9,11,13,15,-1,-1,-1,-1,-1,-1,-1,-1],"loss_changes":[2.3429474E1,2.550364E1,0E0,2.8668488E1,7.0414886E0,1.904311E1,1.7198626E1,2.8706665E0,5.480692E0,0E0,0E0,0E0,0E0,0E0,0E0,0E0,0E0],"parents":[2147483647,0,0,1,1,3,3,4,4,5,5,6,6,7,7,8,8],"right_children":[2,4,-1,6,8,10,12,14,16,-1,-1,-1,-1,-1,-1,-1,-1],"split_conditions":[1.7468924E-2,8.9060366E-2,-1.3516721E-2,6.714585E-1,9.919003E-1,8.59348E-2,7.873726E-2,5.2893953E-3,1.9174951E-1,-1.4257797E-2,4.510683E-3,1.2344066E-2,-1.2424159E-2,1.38885295E-2,-1.3601402E-3,-1.108001E-2,9.322084E-3],"split_indices":[15,13,0,3,3,1,1,16,1,0,0,0,0,0,0,0,0],"split_type":[0,0,0,0,0,0,0,0,0,0,0,0,0,0,0,0,0],"sum_hessian":[1.1525131E2,1.0401649E2,1.1234825E1,8.2538284E1,2.1478203E1,5.6148598E1,2.6389683E1,1.8128803E1,3.3494E0,5.0555353E0,5.1093063E1,2.3517148E0,2.4037968E1,1.6985214E1,1.1435893E0,1.917546E0,1.431854E0],"tree_param":{"num_deleted":"0","num_feature":"18","num_nodes":"17","size_leaf_vector":"1"}}]},"name":"gbtree"},"learner_model_param":{"base_score":"5E-1","boost_from_average":"1","num_class":"0","num_feature":"18","num_target":"1"},"objective":{"name":"binary:logistic","reg_loss_param":{"scale_pos_weight":"0.87945205"}}},"version":[2,1,4]}