{"learner":{"attributes":{"best_iteration":"3","best_score":"0.8934659090909091"},"feature_names":["acc_Y_rms","acc_X_rms","Gyro_Y_rms","Gyro_X_rms","acc_Y_peak","acc_Sum_peak","acc_Y_crest","acc_Y_kurtosis","acc_Sum_kurtosis","acc_Y_rms_low","acc_Y_rms_mid","acc_Y_rms_high","acc_Sum_rms_low","acc_Sum_rms_mid","acc_Sum_rms_high","Gyro_Y_rms_low","Gyro_Y_rms_mid","Gyro_Y_rms_high"],"feature_types":[],"gradient_booster":{"model":{"gbtree_model_param":{"num_parallel_tree":"1","num_trees":"54"},"iteration_indptr":[0,1,2,3,4,5,6,7,8,9,10,11,12,13,14,15,16,17,18,19,20,21,22,23,24,25,26,27,28,29,30,31,32,33,34,35,36,37,38,39,40,41,42,43,44,45,46,47,48,49,50,51,52,53,54],"tree_info":[0,0,0,0,0,0,0,0,0,0,0,0,0,0,0,0,0,0,0,0,0,0,0,0,0,0,0,0,0,0,0,0,0,0,0,0,0,0,0,0,0,0,0,0,0,0,0,0,0,0,0,0,0,0],"trees":[{"base_weights":[2.8696273E-2,2.4276482E-1,-1.8490566E-2,3.9960735E-2,1.3751298E0,3.5000363E-1,-1.4369543E0,1.7250628E0,-2.195489E-1,9.02201E-3,-6.4143348E-3,-1.8431373E-2,-2.777778E-3,1.843062E-2,5.73913E-3,1.1322751E-2,-1.2727272E-2],"categories":[],"categories_nodes":[],"categories_segments":[],"categories_sizes":[],"default_left":[0,0,0,0,0,0,0,0,0,0,0,0,0,0,0,0,0],"id":0,"left_children":[1,3,-1,5,7,9,11,13,15,-1,-1,-1,-1,-1,-1,-1,-1],"loss_changes":[5.203802E1,2.6605246E1,0E0,4.6059097E1,1.0202122E1,4.6035316E1,7.7075844E0,9.184723E-1,7.214055E0,0E0,0E0,0E0,0E0,0E0,0E0,0E0,0E0],"parents":[2147483647,0,0,1,1,3,3,4,4,5,5,6,6,7,7,8,8],"right_children":[2,4,-1,6,8,10,12,14,16,-1,-1,-1,-1,-1,-1,-1,-1],"split_conditions":[5.4213726E-3,9.50048E-2,-1.8490566E-2,4.8001617E-2,1.23037525E-1,6.814433E-1,6.344604E-2,4.9912864E-3,1.8597053E-1,9.02201E-3,-6.4143348E-3,-1.8431373E-2,-2.777778E-3,1.843062E-2,5.73913E-3,1.1322751E-2,-1.2727272E-2],"split_indices":[16,13,0,9,10,3,14,16,0,0,0,0,0,0,0,0,0],"split_type":[0,0,0,0,0,0,0,0,0,0,0,0,0,0,0,0,0],"sum_hessian":[1.2734146E2,1.1509146E2,1.225E1,9.84878E1,1.6603659E1,8.203049E1,1.6457317E1,1.354878E1,3.054878E0,5.27439E1,2.9286585E1,1.175E1,4.707317E0,1.1743902E1,1.804878E0,1.304878E0,1.75E0],"tree_param":{"num_deleted":"0","num_feature":"18","num_nodes":"17","size_leaf_vector":"1"}},{"base_weights":[7.379552E-2,3.386475E-1,-1.8572275E-2,8.145843E-1,-2.508817E-1,-1.6999708E-2,1.081812E0,-8.5512275E-1,1.368997E0,1.1633036E-2,-1.1963944E-2,1.6480109E-2,-1.5077239E-2,1.7443143E-2,-5.345856E-3],"categories":[],"categories_nodes":[],"categories_segments":[],"categories_sizes":[],"default_left":[0,0,0,0,0,0,0,0,0,0,0,0,0,0,0],"id":1,"left_children":[1,3,-1,5,7,-1,9,11,13,-1,-1,-1,-1,-1,-1],"loss_changes":[6.675457E1,3.2343353E1,0E0,4.4585148E1,5.2000793E1,0E0,1.2180962E1,6.527547E1,1.1286951E1,0E0,0E0,0E0,0E0,0E0,0E0],"parents":[2147483647,0,0,1,1,3,3,4,4,6,6,7,7,8,8],"right_children":[2,4,-1,6,8,-1,10,12,14,-1,-1,-1,-1,-1,-1],"split_conditions":[1.7276037E-2,6.383691E-1,-1.8572275E-2,2.2300312E-2,9.847418E-2,-1.6999708E-2,2.145908E-1,4.131088E-2,1.2237267E-1,1.1633036E-2,-1.1963944E-2,1.6480109E-2,-1.5077239E-2,1.7443143E-2,-5.345856E-3],"split_indices":[15,3,0,12,13,0,0,14,10,0,0,0,0,0,0],"split_type":[0,0,0,0,0,0,0,0,0,0,0,0,0,0,0],"sum_hessian":[1.2829422E2,1.1354539E2,1.4748838E1,6.2614166E1,5.0931217E1,5.4998884E0,5.7114277E1,3.7438248E1,1.3492969E1,5.5614326E1,1.4999508E0,7.426744E0,3.0011505E1,1.1340669E1,2.1523004E0],"tree_param":{"num_deleted":"0","num_feature":"18","num_nodes":"15","size_leaf_vector":"1"}},{"base_weights":[-4.1942686E-2,1.8656032E-1,-1.830012E-2,-1.574041E-1,8.965354E-1,7.8780943E-1,-8.4055644E-1,1.0190418E0,-1.1819738E-2,1.4061119E-2,-7.136118E-4,-2.624503E-3,-1.6032279E-2,1.2027568E-2,-1.9915684E-3],"categories":[],"categories_nodes":[],"categories_segments":[],"categories_sizes":[],"default_left":[0,0,0,0,0,0,0,0,0,0,0,0,0,0,0],"id":2,"left_children":[1,3,-1,5,7,9,11,13,-1,-1,-1,-1,-1,-1,-1],"loss_changes":[5.1376682E1,2.740987E1,0E0,4.978321E1,1.0521854E1,1.732831E1,1.9261507E1,8.093189E0,0E0,0E0,0E0,0E0,0E0,0E0,0E0],"parents":[2147483647,0,0,1,1,3,3,4,4,5,5,6,6,7,7],"right_children":[2,4,-1,6,8,10,12,14,-1,-1,-1,-1,-1,-1,-1],"split_conditions":[1.1047456E0,7.5054216E-1,-1.830012E-2,4.871216E-2,5.476083E-3,6.879203E-1,7.0996374E-1,1.2984395E0,-1.1819738E-2,1.4061119E-2,-7.136118E-4,-2.624503E-3,-1.6032279E-2,1.2027568E-2,-1.9915684E-3],"split_indices":[4,4,0,14,16,7,3,3,0,0,0,0,0,0,0],"split_type":[0,0,0,0,0,0,0,0,0,0,0,0,0,0,0],"sum_hessian":[1.2390913E2,1.10662834E2,1.3246288E1,7.507113E1,3.559171E1,3.1430502E1,4.3640625E1,3.4092064E1,1.4996474E0,1.7907076E1,1.3523426E1,2.558857E1,1.8052055E1,2.9635452E1,4.456609E0],"tree_param":{"num_deleted":"0","num_feature":"18","num_nodes":"15","size_leaf_vector":"1"}},{"base_weights":[6.175661E-2,2.785585E-1,-1.8133434E-2,7.8517926E-1,-2.078295E-1,-1.6332343E-2,1.0133833E0,1.6725674E-2,-5.4497075E-1,1.31125245E-2,2.6588996E-3,-1.2207262E-2,5.6047146E-3],"categories":[],"categories_nodes":[],"categories_segments":[],"categories_sizes":[],"default_left":[0,0,0,0,0,0,0,0,0,0,0,0,0],"id":3,"left_children":[1,3,-1,5,7,-1,9,-1,11,-1,-1,-1,-1],"loss_changes":[5.4866764E1,2.9912945E1,0E0,3.4406933E1,4.0461697E1,0E0,1.1862839E1,0E0,4.076527E1,0E0,0E0,0E0,0E0],"parents":[2147483647,0,0,1,1,3,3,4,4,6,6,8,8],"right_children":[2,4,-1,6,8,-1,10,-1,12,-1,-1,-1,-1],"split_conditions":[1.7276037E-2,5.954282E-1,-1.8133434E-2,2.1773184E-2,4.1483853E-2,-1.6332343E-2,1.0248114E0,1.6725674E-2,1.0350268E0,1.31125245E-2,2.6588996E-3,-1.2207262E-2,5.6047146E-3],"split_indices":[15,3,0,9,14,0,7,0,5,0,0,0,0],"split_type":[0,0,0,0,0,0,0,0,0,0,0,0,0],"sum_hessian":[1.3272269E2,1.1973068E2,1.2991999E1,5.834468E1,6.1386E1,4.4998794E0,5.38448E1,8.73055E0,5.2655453E1,3.796278E1,1.5882019E1,3.2614166E1,2.0041286E1],"tree_param":{"num_deleted":"0","num_feature":"18","num_nodes":"13","size_leaf_vector":"1"}},{"base_weights":[-5.1396158E-2,1.6345881E-1,-1.807527E-2,-5.21823E-2,1.581363E0,8.5994905E-1,-4.9098554E-1,1.7499054E-2,-7.9590053E-4,1.5059739E-2,-2.1141168E-4,3.5561176E-3,-1.500353E-2],"categories":[],"categories_nodes":[],"categories_segments":[],"categories_sizes":[],"default_left":[0,0,0,0,0,0,0,0,0,0,0,0,0],"id":4,"left_children":[1,3,-1,5,7,9,11,-1,-1,-1,-1,-1,-1],"loss_changes":[5.0150444E1,3.635924E1,0E0,4.2028214E1,4.5326805E0,1.9457848E1,6.1053555E1,0E0,0E0,0E0,0E0,0E0,0E0],"parents":[2147483647,0,0,1,1,3,3,4,4,5,5,6,6],"right_children":[2,4,-1,6,8,10,12,-1,-1,-1,-1,-1,-1],"split_conditions":[1.1047456E0,9.928076E-2,-1.807527E-2,5.783186E-1,1.1517153E-1,5.868355E-1,6.383691E-1,1.7499054E-2,-7.9590053E-4,1.5059739E-2,-2.1141168E-4,3.5561176E-3,-1.500353E-2],"split_indices":[4,13,0,5,10,7,3,0,0,0,0,0,0],"split_type":[0,0,0,0,0,0,0,0,0,0,0,0,0],"sum_hessian":[1.3113148E2,1.1764504E2,1.3486438E1,1.02951E2,1.4694044E1,3.3128242E1,6.9822754E1,1.3291733E1,1.4023116E0,1.8704605E1,1.44236355E1,3.8325394E1,3.1497364E1],"tree_param":{"num_deleted":"0","num_feature":"18","num_nodes":"13","size_leaf_vector":"1"}},{"base_weights":[-3.741887E-2,1.5864001E-1,-1.7804196E-2,-5.2646462E-2,1.5672574E0,4.7683448E-1,-8.981638E-1,1.795299E-2,1.6884129E-3,-1.6912809E-2,7.1405894E-3,1.5335621E-2,-1.3698137E-2],"categories":[],"categories_nodes":[],"categories_segments":[],"categories_sizes":[],"default_left":[0,0,0,0,0,0,0,0,0,0,0,0,0],"id":5,"left_children":[1,3,-1,5,7,9,11,-1,-1,-1,-1,-1,-1],"loss_changes":[4.5561703E1,3.5803352E1,0E0,4.7584713E1,4.699417E0,3.485792E1,4.901962E1,0E0,0E0,0E0,0E0,0E0,0E0],"parents":[2147483647,0,0,1,1,3,3,4,4,5,5,6,6],"right_children":[2,4,-1,6,8,10,12,-1,-1,-1,-1,-1,-1],"split_conditions":[1.3194011E0,9.983695E-2,-1.7804196E-2,6.383691E-1,9.919003E-1,8.623482E-2,5.251955E-1,1.795299E-2,1.6884129E-3,-1.6912809E-2,7.1405894E-3,1.5335621E-2,-1.3698137E-2],"split_indices":[5,13,0,3,3,1,5,0,0,0,0,0,0],"split_type":[0,0,0,0,0,0,0,0,0,0,0,0,0],"sum_hessian":[1.3149982E2,1.19020905E2,1.2478908E1,1.043339E2,1.4687005E1,6.442539E1,3.9908504E1,1.238376E1,2.3032444E0,5.749385E0,5.8676006E1,6.117338E0,3.379117E1],"tree_param":{"num_deleted":"0","num_feature":"18","num_nodes":"13","size_leaf_vector":"1"}},{"base_weights":[-2.3618998E-2,1.8337287E-1,-1.7716875E-2,9.3196166E-1,-1.3377428E-1,1.2879951E0,-4.1724157E-1,-1.2658421E0,2.6512393E-1,1.4481457E-2,-1.1296013E-2,-1.2076791E-2,1.3013275E-2,6.2419353E-3,-1.575448E-2,1.1021336E-2,-1.9154284E-3],"categories":[],"categories_nodes":[],"categories_segments":[],"categories_sizes":[],"default_left":[0,0,0,0,0,0,0,0,0,0,0,0,0,0,0,0,0],"id":6,"left_children":[1,3,-1,5,7,9,11,13,15,-1,-1,-1,-1,-1,-1,-1,-1],"loss_changes":[4.6044704E1,2.7162066E1,0E0,1.6877169E1,3.685393E1,1.2150917E1,1.2245203E1,1.3414406E1,2.3383825E1,0E0,0E0,0E0,0E0,0E0,0E0,0E0,0E0],"parents":[2147483647,0,0,1,1,3,3,4,4,5,5,6,6,7,7,8,8],"right_children":[2,4,-1,6,8,10,12,14,16,-1,-1,-1,-1,-1,-1,-1,-1],"split_conditions":[1.7276037E-2,5.783186E-1,-1.7716875E-2,1.0051602E0,7.586725E-1,1.128696E-1,5.5809442E-2,3.8065723E-1,6.65883E-2,1.4481457E-2,-1.1296013E-2,-1.2076791E-2,1.3013275E-2,6.2419353E-3,-1.575448E-2,1.1021336E-2,-1.9154284E-3],"split_indices":[15,5,0,7,5,1,11,2,13,0,0,0,0,0,0,0,0],"split_type":[0,0,0,0,0,0,0,0,0,0,0,0,0,0,0,0,0],"sum_hessian":[1.2535511E2,1.12883484E2,1.2471631E1,3.3015553E1,7.986793E1,2.6158186E1,6.8573666E0,2.0243578E1,5.962435E1,2.4909111E1,1.2490746E0,4.9006443E0,1.9567227E0,2.7063246E0,1.7537254E1,2.054841E1,3.9075943E1],"tree_param":{"num_deleted":"0","num_feature":"18","num_nodes":"17","size_leaf_vector":"1"}},{"base_weights":[-3.2830246E-2,1.7410293E-1,-1.7600786E-2,-9.651149E-2,1.659216E0,1.6784597E-2,-2.3874283E-1,1.7552145E-2,1.3496169E-3,1.5177301E-3,-9.933975E-3],"categories":[],"categories_nodes":[],"categories_segments":[],"categories_sizes":[],"default_left":[0,0,0,0,0,0,0,0,0,0,0],"id":7,"left_children":[1,3,-1,5,7,-1,9,-1,-1,-1,-1],"loss_changes":[4.663753E1,4.7047565E1,0E0,2.5552813E1,2.4023972E0,0E0,2.7591795E1,0E0,0E0,0E0,0E0],"parents":[2147483647,0,0,1,1,3,3,4,4,6,6],"right_children":[2,4,-1,6,8,-1,10,-1,-1,-1,-1],"split_conditions":[1.1047456E0,9.847418E-2,-1.7600786E-2,3.2890677E-2,1.2237267E-1,1.6784597E-2,7.3113E-1,1.7552145E-2,1.3496169E-3,1.5177301E-3,-9.933975E-3],"split_indices":[4,13,0,13,10,0,2,0,0,0,0],"split_type":[0,0,0,0,0,0,0,0,0,0,0],"sum_hessian":[1.2862466E2,1.1566644E2,1.2958229E1,9.8629395E1,1.7037043E1,6.515724E0,9.211367E1,1.5885069E1,1.151974E0,6.1228344E1,3.088533E1],"tree_param":{"num_deleted":"0","num_feature":"18","num_nodes":"11","size_leaf_vector":"1"}},{"base_weights":[1.1994211E-2,2.365613E-1,-1.7584072E-2,3.5255335E-2,1.3339975E0,6.1362183E-1,-9.4002885E-1,1.7291699E-2,-7.174791E-1,-1.7004302E-2,8.948198E-3,1.5708217E-2,-1.6036114E-2,1.473974E-3,-1.1748461E-2],"categories":[],"categories_nodes":[],"categories_segments":[],"categories_sizes":[],"default_left":[0,0,0,0,0,0,0,0,0,0,0,0,0,0,0],"id":8,"left_children":[1,3,-1,5,7,9,11,-1,13,-1,-1,-1,-1,-1,-1],"loss_changes":[5.277332E1,2.5966215E1,0E0,5.72803E1,1.6014679E1,4.2977135E1,6.5527695E1,0E0,1.6170759E0,0E0,0E0,0E0,0E0,0E0,0E0],"parents":[2147483647,0,0,1,1,3,3,4,4,5,5,6,6,8,8],"right_children":[2,4,-1,6,8,10,12,-1,14,-1,-1,-1,-1,-1,-1],"split_conditions":[1.7276037E-2,9.847418E-2,-1.7584072E-2,6.2926644E-1,1.2237267E-1,2.3064785E-2,4.5952255E-1,1.7291699E-2,9.812532E-1,-1.7004302E-2,8.948198E-3,1.5708217E-2,-1.6036114E-2,1.473974E-3,-1.1748461E-2],"split_indices":[15,13,0,3,10,12,4,0,3,0,0,0,0,0,0],"split_type":[0,0,0,0,0,0,0,0,0,0,0,0,0,0,0],"sum_hessian":[1.3069212E2,1.1674939E2,1.394273E1,9.95253E1,1.7224094E1,6.2708508E1,3.681679E1,1.4573866E1,2.650229E0,6.247673E0,5.6460835E1,7.4103756E0,2.9406416E1,1.1511472E0,1.4990816E0],"tree_param":{"num_deleted":"0","num_feature":"18","num_nodes":"15","size_leaf_vector":"1"}},{"base_weights":[5.4453295E-3,2.2721836E-1,-1.7504424E-2,4.724538E-2,1.3214489E0,2.7229208E-1,-1.5761129E0,1.6640585E-2,2.8654492E-1,1.6693719E-2,1.3299133E-3,-1.7601026E-2,1.3827969E-3,1.3772481E-2,-1.2480332E-2],"categories":[],"categories_nodes":[],"categories_segments":[],"categories_sizes":[],"default_left":[0,0,0,0,0,0,0,0,0,0,0,0,0,0,0],"id":9,"left_children":[1,3,-1,5,7,9,11,-1,13,-1,-1,-1,-1,-1,-1],"loss_changes":[5.1848804E1,2.3213896E1,0E0,3.7889378E1,5.42927E0,1.7469627E1,4.2277393E0,0E0,1.06750555E1,0E0,0E0,0E0,0E0,0E0,0E0],"parents":[2147483647,0,0,1,1,3,3,4,4,5,5,6,6,8,8],"right_children":[2,4,-1,6,8,10,12,-1,14,-1,-1,-1,-1,-1,-1],"split_conditions":[1.6443728E-2,9.983695E-2,-1.7504424E-2,1.504874E-1,4.6901307E-3,3.2890677E-2,9.7580954E-2,1.6640585E-2,1.6701496E-1,1.6693719E-2,1.3299133E-3,-1.7601026E-2,1.3827969E-3,1.3772481E-2,-1.2480332E-2],"split_indices":[15,13,0,1,16,13,13,0,1,0,0,0,0,0,0],"split_type":[0,0,0,0,0,0,0,0,0,0,0,0,0,0,0],"sum_hessian":[1.3112619E2,1.17194786E2,1.3931398E1,1.0153762E2,1.5657169E1,8.9906166E1,1.1631456E1,1.130625E1,4.350919E0,7.1557302E0,8.2750435E1,1.0480065E1,1.1513909E0,2.6032085E0,1.7477105E0],"tree_param":{"num_deleted":"0","num_feature":"18","num_nodes":"15","size_leaf_vector":"1"}},{"base_weights":[2.377714E-2,2.3615494E-1,-1.7319916E-2,6.452968E-1,-2.9260868E-1,-1.6775914E-2,8.9457774E-1,-8.80821E-1,1.1296566E0,5.587723E-3,1.7701624E-2,1.675962E-2,-1.5867231E-2,1.6797192E-2,-8.597822E-3],"categories":[],"categories_nodes":[],"categories_segments":[],"categories_sizes":[],"default_left":[0,0,0,0,0,0,0,0,0,0,0,0,0,0,0],"id":10,"left_children":[1,3,-1,5,7,-1,9,11,13,-1,-1,-1,-1,-1,-1],"loss_changes":[5.0671005E1,2.6393288E1,0E0,4.1223495E1,4.577542E1,0E0,1.7417961E1,7.201622E1,1.9061268E1,0E0,0E0,0E0,0E0,0E0,0E0],"parents":[2147483647,0,0,1,1,3,3,4,4,6,6,7,7,8,8],"right_children":[2,4,-1,6,8,-1,10,12,14,-1,-1,-1,-1,-1,-1],"split_conditions":[1.7276037E-2,6.383691E-1,-1.7319916E-2,8.623482E-2,9.400344E-2,-1.6775914E-2,9.899665E-2,9.2105195E-2,1.1517153E-1,5.587723E-3,1.7701624E-2,1.675962E-2,-1.5867231E-2,1.6797192E-2,-8.597822E-3],"split_indices":[15,3,0,1,13,0,10,0,10,0,0,0,0,0,0],"split_type":[0,0,0,0,0,0,0,0,0,0,0,0,0,0,0],"sum_hessian":[1.3379173E2,1.201267E2,1.366503E1,6.759966E1,5.2527035E1,5.9961057E0,6.1603558E1,3.742833E1,1.5098704E1,4.57107E1,1.5892858E1,7.8005314E0,2.96278E1,1.1950246E1,3.1484585E0],"tree_param":{"num_deleted":"0","num_feature":"18","num_nodes":"15","size_leaf_vector":"1"}},{"base_weights":[4.8370488E-2,2.6451448E-1,-1.7076937E-2,7.3634905E-1,-3.54871E-1,-1.6064605E-2,9.500523E-1,-8.893172E-1,1.111601E0,1.1950038E-2,-1.2454838E-3,1.4771566E-2,-1.4078117E-2,1.6433602E-2,2.7412537E-3],"categories":[],"categories_nodes":[],"categories_segments":[],"categories_sizes":[],"default_left":[0,0,0,0,0,0,0,0,0,0,0,0,0,0,0],"id":11,"left_children":[1,3,-1,5,7,-1,9,11,13,-1,-1,-1,-1,-1,-1],"loss_changes":[4.811689E1,3.3192406E1,0E0,3.371132E1,3.9704002E1,0E0,1.5821072E1,4.7183083E1,5.6232624E0,0E0,0E0,0E0,0E0,0E0,0E0],"parents":[2147483647,0,0,1,1,3,3,4,4,6,6,7,7,8,8],"right_children":[2,4,-1,6,8,-1,10,12,14,-1,-1,-1,-1,-1,-1],"split_conditions":[1.7276037E-2,6.383691E-1,-1.7076937E-2,2.1773184E-2,9.928076E-2,-1.6064605E-2,4.799904E-2,9.07455E-2,1.6504557E-1,1.1950038E-2,-1.2454838E-3,1.4771566E-2,-1.4078117E-2,1.6433602E-2,2.7412537E-3],"split_indices":[15,3,0,9,13,0,9,1,1,0,0,0,0,0,0],"split_type":[0,0,0,0,0,0,0,0,0,0,0,0,0,0,0],"sum_hessian":[1.24579185E2,1.1168223E2,1.289696E1,6.328456E1,4.8397663E1,4.7452755E0,5.8539288E1,3.575907E1,1.2638593E1,4.7581257E1,1.095803E1,6.0944242E0,2.9664646E1,7.141674E0,5.4969187E0],"tree_param":{"num_deleted":"0","num_feature":"18","num_nodes":"15","size_leaf_vector":"1"}},{"base_weights":[2.9686177E-2,2.2088662E-1,-1.690208E-2,-4.30096E-2,1.4300774E0,5.67721E-1,-7.8911984E-1,1.6669363E0,-9.145657E-2,-1.6389556E-2,8.617803E-3,1.5515107E-2,-1.3476742E-2,1.7557591E-2,7.7294856E-3,1.0942988E-2,-1.1487373E-2],"categories":[],"categories_nodes":[],"categories_segments":[],"categories_sizes":[],"default_left":[0,0,0,0,0,0,0,0,0,0,0,0,0,0,0,0,0],"id":12,"left_children":[1,3,-1,5,7,9,11,13,15,-1,-1,-1,-1,-1,-1,-1,-1],"loss_changes":[4.3178104E1,3.772456E1,0E0,4.5037926E1,7.783127E0,3.6706406E1,6.022213E1,1.0185623E-1,6.021148E0,0E0,0E0,0E0,0E0,0E0,0E0,0E0,0E0],"parents":[2147483647,0,0,1,1,3,3,4,4,5,5,6,6,7,7,8,8],"right_children":[2,4,-1,6,8,10,12,14,16,-1,-1,-1,-1,-1,-1,-1,-1],"split_conditions":[1.7276037E-2,9.50048E-2,-1.690208E-2,5.9172887E-1,1.23037525E-1,2.2300312E-2,6.749662E-3,9.919003E-1,1.8597053E-1,-1.6389556E-2,8.617803E-3,1.5515107E-2,-1.3476742E-2,1.7557591E-2,7.7294856E-3,1.0942988E-2,-1.1487373E-2],"split_indices":[15,13,0,3,10,12,15,3,0,0,0,0,0,0,0,0,0],"split_type":[0,0,0,0,0,0,0,0,0,0,0,0,0,0,0,0,0],"sum_hessian":[1.2916718E2,1.1702868E2,1.2138495E1,9.685523E1,2.0173449E1,5.3390987E1,4.3464245E1,1.7373356E1,2.8000925E0,5.7404E0,4.7650585E1,8.031288E0,3.5432957E1,1.492637E1,2.446986E0,1.3033521E0,1.4967403E0],"tree_param":{"num_deleted":"0","num_feature":"18","num_nodes":"17","size_leaf_vector":"1"}},{"base_weights":[1.5007602E-2,2.2994016E-1,-1.6880615E-2,1.0070539E0,-9.012788E-2,1.4375753E0,1.2897645E-1,-4.2169538E-1,1.1096158E0,1.5448856E-2,-7.380067E-4,-1.51737E-2,1.0759615E-2,3.6279473E-3,-1.4297494E-2,1.4844199E-2,-7.3314616E-3],"categories":[],"categories_nodes":[],"categories_segments":[],"categories_sizes":[],"default_left":[0,0,0,0,0,0,0,0,0,0,0,0,0,0,0,0,0],"id":13,"left_children":[1,3,-1,5,7,9,11,13,15,-1,-1,-1,-1,-1,-1,-1,-1],"loss_changes":[4.6084503E1,2.7880974E1,0E0,1.2166927E1,3.231279E1,3.6540337E0,2.0105383E1,5.0691017E1,1.3250347E1,0E0,0E0,0E0,0E0,0E0,0E0,0E0,0E0],"parents":[2147483647,0,0,1,1,3,3,4,4,5,5,6,6,7,7,8,8],"right_children":[2,4,-1,6,8,10,12,14,16,-1,-1,-1,-1,-1,-1,-1,-1],"split_conditions":[1.7276037E-2,5.783186E-1,-1.6880615E-2,6.879203E-1,9.50048E-2,1.2703785E0,2.3226842E-2,6.673407E-1,9.842374E-1,1.5448856E-2,-7.380067E-4,-1.51737E-2,1.0759615E-2,3.6279473E-3,-1.4297494E-2,1.4844199E-2,-7.3314616E-3],"split_indices":[15,5,0,7,13,8,9,3,3,0,0,0,0,0,0,0,0],"split_type":[0,0,0,0,0,0,0,0,0,0,0,0,0,0,0,0,0],"sum_hessian":[1.2383806E2,1.1072873E2,1.3109322E1,3.1675467E1,7.905327E1,2.0826866E1,1.0848601E1,6.2444332E1,1.6608934E1,1.9425453E1,1.401411E0,3.74155E0,7.1070514E0,3.5476124E1,2.6968208E1,1.3963351E1,2.6455832E0],"tree_param":{"num_deleted":"0","num_feature":"18","num_nodes":"17","size_leaf_vector":"1"}},{"base_weights":[7.4542224E-2,3.0759352E-1,-1.6779179E-2,8.774841E-1,-2.8966996E-1,-1.5276276E-2,1.0868294E0,-8.3772725E-1,1.4319495E0,1.4221172E-2,1.4445068E-3,1.2520783E-2,-1.49489185E-2,1.6867109E-2,-2.6337835E-3],"categories":[],"categories_nodes":[],"categories_segments":[],"categories_sizes":[],"default_left":[0,0,0,0,0,0,0,0,0,0,0,0,0,0,0],"id":14,"left_children":[1,3,-1,5,7,-1,9,11,13,-1,-1,-1,-1,-1,-1],"loss_changes":[5.1545856E1,3.8078598E1,0E0,3.0417194E1,5.310556E1,0E0,1.6580444E1,6.004515E1,6.3408985E0,0E0,0E0,0E0,0E0,0E0,0E0],"parents":[2147483647,0,0,1,1,3,3,4,4,6,6,7,7,8,8],"right_children":[2,4,-1,6,8,-1,10,12,14,-1,-1,-1,-1,-1,-1],"split_conditions":[1.7276037E-2,5.954282E-1,-1.6779179E-2,8.623482E-2,9.928076E-2,-1.5276276E-2,6.65883E-2,9.9953376E-2,1.1517153E-1,1.4221172E-2,1.4445068E-3,1.2520783E-2,-1.49489185E-2,1.6867109E-2,-2.6337835E-3],"split_indices":[15,3,0,1,13,0,13,1,10,0,0,0,0,0,0],"split_type":[0,0,0,0,0,0,0,0,0,0,0,0,0,0,0],"sum_hessian":[1.2394638E2,1.1012576E2,1.3820621E1,5.6114166E1,5.4011597E1,3.9889574E0,5.212521E1,4.135889E1,1.2652707E1,3.807093E1,1.405428E1,9.677821E0,3.1681068E1,1.1004166E1,1.6485419E0],"tree_param":{"num_deleted":"0","num_feature":"18","num_nodes":"15","size_leaf_vector":"1"}},{"base_weights":[4.3202784E-2,2.5743604E-1,-1.6649751E-2,6.9986975E-1,-1.8127303E-1,-1.6168533E-2,9.8551726E-1,1.5818251E-2,-5.440719E-1,1.1630969E-2,-3.0639952E-3,-1.7474744E-2,-2.6268046E-4],"categories":[],"categories_nodes":[],"categories_segments":[],"categories_sizes":[],"default_left":[0,0,0,0,0,0,0,0,0,0,0,0,0],"id":15,"left_children":[1,3,-1,5,7,-1,9,-1,11,-1,-1,-1,-1],"loss_changes":[4.777047E1,2.260689E1,0E0,3.988945E1,3.8566406E1,0E0,1.2317928E1,0E0,3.0880978E1,0E0,0E0,0E0,0E0],"parents":[2147483647,0,0,1,1,3,3,4,4,6,6,8,8],"right_children":[2,4,-1,6,8,-1,10,-1,12,-1,-1,-1,-1],"split_conditions":[1.7276037E-2,5.954282E-1,-1.6649751E-2,8.623482E-2,9.778216E-2,-1.6168533E-2,4.312596E-2,1.5818251E-2,1.3314666E-1,1.1630969E-2,-3.0639952E-3,-1.7474744E-2,-2.6268046E-4],"split_indices":[15,3,0,1,1,0,12,0,1,0,0,0,0],"split_type":[0,0,0,0,0,0,0,0,0,0,0,0,0],"sum_hessian":[1.2836751E2,1.148169E2,1.35506115E1,5.6869392E1,5.794751E1,5.730697E0,5.1138695E1,9.3157215E0,4.8631786E1,4.5046562E1,6.092134E0,1.3915854E1,3.4715935E1],"tree_param":{"num_deleted":"0","num_feature":"18","num_nodes":"13","size_leaf_vector":"1"}},{"base_weights":[7.680657E-2,2.7506143E-1,-1.6355973E-2,6.586739E-1,-2.4338771E-1,-1.6161956E-2,9.226481E-1,-8.1077117E-1,1.2142895E0,1.0311719E-2,-8.384285E-3,1.5784418E-2,-1.409722E-2,1.5258003E-2,-1.0573245E-2],"categories":[],"categories_nodes":[],"categories_segments":[],"categories_sizes":[],"default_left":[0,0,0,0,0,0,0,0,0,0,0,0,0,0,0],"id":16,"left_children":[1,3,-1,5,7,-1,9,11,13,-1,-1,-1,-1,-1,-1],"loss_changes":[4.1859795E1,2.2072392E1,0E0,3.967852E1,4.03391E1,0E0,1.187616E1,5.2098003E1,1.13307495E1,0E0,0E0,0E0,0E0,0E0,0E0],"parents":[2147483647,0,0,1,1,3,3,4,4,6,6,7,7,8,8],"right_children":[2,4,-1,6,8,-1,10,12,14,-1,-1,-1,-1,-1,-1],"split_conditions":[1.7276037E-2,6.814433E-1,-1.6355973E-2,8.623482E-2,9.983695E-2,-1.6161956E-2,1.5398745E-1,9.2105195E-2,1.23037525E-1,1.0311719E-2,-8.384285E-3,1.5784418E-2,-1.409722E-2,1.5258003E-2,-1.0573245E-2],"split_indices":[15,3,0,1,13,0,1,0,10,0,0,0,0,0,0],"split_type":[0,0,0,0,0,0,0,0,0,0,0,0,0,0,0],"sum_hessian":[1.2097594E2,1.0917544E2,1.1800498E1,6.2591835E1,4.6583607E1,5.9753213E0,5.6616512E1,3.3851215E1,1.2732389E1,5.3720528E1,2.8959851E0,6.457386E0,2.7393831E1,1.1485658E1,1.2467316E0],"tree_param":{"num_deleted":"0","num_feature":"18","num_nodes":"15","size_leaf_vector":"1"}},{"base_weights":[-8.01074E-3,2.0101625E-1,-1.6347349E-2,6.2784964E-1,-3.5486397E-1,-1.5877822E-2,8.7039167E-1,-9.506375E-1,1.2029152E0,5.0677676E-3,1.7643247E-2,1.3872907E-2,-1.4209852E-2,1.5670098E-2,-5.180614E-3],"categories":[],"categories_nodes":[],"categories_segments":[],"categories_sizes":[],"default_left":[0,0,0,0,0,0,0,0,0,0,0,0,0,0,0],"id":17,"left_children":[1,3,-1,5,7,-1,9,11,13,-1,-1,-1,-1,-1,-1],"loss_changes":[4.1808197E1,2.6082346E1,0E0,3.470593E1,4.567038E1,0E0,1.7483688E1,4.0747925E1,9.405081E0,0E0,0E0,0E0,0E0,0E0,0E0],"parents":[2147483647,0,0,1,1,3,3,4,4,6,6,7,7,8,8],"right_children":[2,4,-1,6,8,-1,10,12,14,-1,-1,-1,-1,-1,-1],"split_conditions":[1.7276037E-2,6.383691E-1,-1.6347349E-2,2.0773394E-2,9.928076E-2,-1.5877822E-2,9.7714484E-2,1.02706045E-1,1.2237267E-1,5.0677676E-3,1.7643247E-2,1.3872907E-2,-1.4209852E-2,1.5670098E-2,-5.180614E-3],"split_indices":[15,3,0,12,13,0,10,0,10,0,0,0,0,0,0],"split_type":[0,0,0,0,0,0,0,0,0,0,0,0,0,0,0],"sum_hessian":[1.2098828E2,1.0798864E2,1.299964E1,6.1011444E1,4.6977192E1,5.472598E0,5.553885E1,3.4263027E1,1.2714166E1,4.0593857E1,1.4944991E1,5.4120717E0,2.8850954E1,1.0567863E1,2.146302E0],"tree_param":{"num_deleted":"0","num_feature":"18","num_nodes":"15","size_leaf_vector":"1"}},{"base_weights":[-3.372875E-2,1.3211957E-1,-1.6200688E-2,-2.2625566E-1,8.2915497E-1,5.291109E-1,-9.310499E-1,9.694449E-1,-1.2404444E-2,1.4138637E-2,-8.232908E-4,-1.4262936E-2,-7.6368806E-4,1.2358164E-2,-1.6945759E-4],"categories":[],"categories_nodes":[],"categories_segments":[],"categories_sizes":[],"default_left":[0,0,0,0,0,0,0,0,0,0,0,0,0,0,0],"id":18,"left_children":[1,3,-1,5,7,9,11,13,-1,-1,-1,-1,-1,-1,-1],"loss_changes":[3.412533E1,2.9569012E1,0E0,4.2266373E1,1.28608055E1,2.0950348E1,1.7226051E1,1.0048809E1,0E0,0E0,0E0,0E0,0E0,0E0,0E0],"parents":[2147483647,0,0,1,1,3,3,4,4,5,5,6,6,7,7],"right_children":[2,4,-1,6,8,10,12,14,-1,-1,-1,-1,-1,-1,-1],"split_conditions":[5.476083E-3,7.453331E-1,-1.6200688E-2,1.1215835E-1,1.1047456E0,7.790028E-1,1.1491838E0,1.027901E0,-1.2404444E-2,1.4138637E-2,-8.232908E-4,-1.4262936E-2,-7.6368806E-4,1.2358164E-2,-1.6945759E-4],"split_indices":[16,4,0,1,4,8,8,3,0,0,0,0,0,0,0],"split_type":[0,0,0,0,0,0,0,0,0,0,0,0,0,0,0],"sum_hessian":[1.2789524E2,1.1661963E2,1.1275608E1,7.746633E1,3.9153297E1,3.751197E1,3.9954365E1,3.716557E1,1.987727E0,1.4793477E1,2.2718493E1,2.487296E1,1.5081403E1,2.9064049E1,8.101522E0],"tree_param":{"num_deleted":"0","num_feature":"18","num_nodes":"15","size_leaf_vector":"1"}},{"base_weights":[4.259577E-2,2.4665593E-1,-1.6307725E-2,2.6090167E-2,1.342766E0,5.0654745E-1,-8.200714E-1,1.5080944E0,-2.5833186E-3,-1.5907615E-2,7.480173E-3,1.4593022E-2,-1.4699002E-2,1.5978152E-2,1.2130591E-3],"categories":[],"categories_nodes":[],"categories_segments":[],"categories_sizes":[],"default_left":[0,0,0,0,0,0,0,0,0,0,0,0,0,0,0],"id":19,"left_children":[1,3,-1,5,7,9,11,13,-1,-1,-1,-1,-1,-1,-1],"loss_changes":[4.386445E1,2.760223E1,0E0,3.951888E1,5.4534035E0,3.257288E1,5.4308315E1,1.9818001E0,0E0,0E0,0E0,0E0,0E0,0E0,0E0],"parents":[2147483647,0,0,1,1,3,3,4,4,5,5,6,6,7,7],"right_children":[2,4,-1,6,8,10,12,14,-1,-1,-1,-1,-1,-1,-1],"split_conditions":[1.1047456E0,9.50048E-2,-1.6307725E-2,6.180336E-1,5.4213726E-3,2.1385772E-2,2.3618514E-2,1.3551992E0,-2.5833186E-3,-1.5907615E-2,7.480173E-3,1.4593022E-2,-1.4699002E-2,1.5978152E-2,1.2130591E-3],"split_indices":[4,13,0,3,16,12,12,3,0,0,0,0,0,0,0],"split_type":[0,0,0,0,0,0,0,0,0,0,0,0,0,0,0],"sum_hessian":[1.2628054E2,1.1331487E2,1.2965668E1,9.518499E1,1.8129883E1,6.0968147E1,3.4216843E1,1.648567E1,1.644213E0,5.717804E0,5.5250343E1,7.3144884E0,2.6902351E1,1.5340989E1,1.1446812E0],"tree_param":{"num_deleted":"0","num_feature":"18","num_nodes":"15","size_leaf_vector":"1"}},{"base_weights":[6.5686055E-2,2.5477263E-1,-1.6039234E-2,3.3187312E-1,-1.48249E-2,1.7105061E-1,1.3329048E0,4.507355E-3,-9.501189E-3,1.2367114E-3,1.5304759E-2],"categories":[],"categories_nodes":[],"categories_segments":[],"categories_sizes":[],"default_left":[0,0,0,0,0,0,0,0,0,0,0],"id":20,"left_children":[1,3,-1,5,-1,7,9,-1,-1,-1,-1],"loss_changes":[4.1679844E1,1.6336575E1,0E0,1.8138046E1,0E0,3.1609741E1,3.5482292E0,0E0,0E0,0E0,0E0],"parents":[2147483647,0,0,1,1,3,3,5,5,6,6],"right_children":[2,4,-1,6,-1,8,10,-1,-1,-1,-1],"split_conditions":[1.7276037E-2,1.1047456E0,-1.6039234E-2,1.9620018E0,-1.48249E-2,1.0619344E0,6.547265E-1,4.507355E-3,-9.501189E-3,1.2367114E-3,1.5304759E-2],"split_indices":[15,4,0,7,0,7,4,0,0,0,0],"split_type":[0,0,0,0,0,0,0,0,0,0,0],"sum_hessian":[1.297289E2,1.1729268E2,1.2436221E1,1.1308297E2,4.2097054E0,9.843896E1,1.4644011E1,7.926391E1,1.917505E1,2.2849486E0,1.2359062E1],"tree_param":{"num_deleted":"0","num_feature":"18","num_nodes":"11","size_leaf_vector":"1"}},{"base_weights":[-1.1188963E-3,1.8594508E-1,-1.6048042E-2,-3.9780542E-2,1.3229804E0,8.8208425E-1,-4.6122414E-1,1.6205419E-2,6.382884E-2,1.3745576E-2,-2.6205133E-3,2.8293927E-3,-1.3950207E-2,-1.2062136E-2,1.2254704E-2],"categories":[],"categories_nodes":[],"categories_segments":[],"categories_sizes":[],"default_left":[0,0,0,0,0,0,0,0,0,0,0,0,0,0,0],"id":21,"left_children":[1,3,-1,5,7,9,11,-1,13,-1,-1,-1,-1,-1,-1],"loss_changes":[3.8542675E1,2.9584568E1,0E0,3.8083096E1,7.0484047E0,1.7696594E1,4.70969E1,0E0,8.39697E0,0E0,0E0,0E0,0E0,0E0,0E0],"parents":[2147483647,0,0,1,1,3,3,4,4,5,5,6,6,8,8],"right_children":[2,4,-1,6,8,10,12,-1,14,-1,-1,-1,-1,-1,-1],"split_conditions":[1.1047456E0,9.50048E-2,-1.6048042E-2,5.7198143E-1,1.2237267E-1,1.0381494E0,6.383691E-1,1.6205419E-2,1.0606624E0,1.3745576E-2,-2.6205133E-3,2.8293927E-3,-1.3950207E-2,-1.2062136E-2,1.2254704E-2],"split_indices":[4,13,0,5,10,8,3,0,8,0,0,0,0,0,0],"split_type":[0,0,0,0,0,0,0,0,0,0,0,0,0,0,0],"sum_hessian":[1.2648441E2,1.1406339E2,1.2421021E1,9.597528E1,1.8088114E1,2.976794E1,6.620734E1,1.439847E1,3.6896431E0,2.0669653E1,9.098288E0,3.7232735E1,2.89746E1,1.7442523E0,1.9453907E0],"tree_param":{"num_deleted":"0","num_feature":"18","num_nodes":"15","size_leaf_vector":"1"}},{"base_weights":[9.452675E-3,2.0408456E-1,-1.5890649E-2,-1.8936148E-2,1.313882E0,4.6888682E-1,-8.291713E-1,1.6265187E-2,-2.5503263E-1,-1.570334E-2,7.002541E-3,1.4167407E-2,-1.3798056E-2,-1.2239462E-2,1.0165616E-2],"categories":[],"categories_nodes":[],"categories_segments":[],"categories_sizes":[],"default_left":[0,0,0,0,0,0,0,0,0,0,0,0,0,0,0],"id":22,"left_children":[1,3,-1,5,7,9,11,-1,13,-1,-1,-1,-1,-1,-1],"loss_changes":[3.9733055E1,2.819224E1,0E0,3.8232872E1,9.762302E0,2.9598331E1,4.690039E1,0E0,6.210617E0,0E0,0E0,0E0,0E0,0E0,0E0],"parents":[2147483647,0,0,1,1,3,3,4,4,5,5,6,6,8,8],"right_children":[2,4,-1,6,8,10,12,-1,14,-1,-1,-1,-1,-1,-1],"split_conditions":[1.7276037E-2,9.50048E-2,-1.5890649E-2,6.383691E-1,9.919003E-1,2.1385772E-2,4.5952255E-1,1.6265187E-2,2.0003746E-1,-1.570334E-2,7.002541E-3,1.4167407E-2,-1.3798056E-2,-1.2239462E-2,1.0165616E-2],"split_indices":[15,13,0,3,3,12,4,0,1,0,0,0,0,0,0],"split_type":[0,0,0,0,0,0,0,0,0,0,0,0,0,0,0],"sum_hessian":[1.2566636E2,1.1280393E2,1.2862423E1,9.4746895E1,1.8057041E1,5.940305E1,3.534384E1,1.5026086E1,3.030956E0,5.463322E0,5.3939728E1,6.6494255E0,2.8694416E1,1.7414776E0,1.2894783E0],"tree_param":{"num_deleted":"0","num_feature":"18","num_nodes":"15","size_leaf_vector":"1"}},{"base_weights":[1.1338172E-2,2.1245623E-1,-1.5858768E-2,-4.441606E-3,1.2072649E0,5.2548254E-1,-8.2372886E-1,1.4216226E0,-1.4736938E-1,-1.5329153E-2,7.3971217E-3,1.53648965E-2,-1.396537E-2,1.638782E-2,4.750532E-3,1.0077673E-2,-1.1486151E-2],"categories":[],"categories_nodes":[],"categories_segments":[],"categories_sizes":[],"default_left":[0,0,0,0,0,0,0,0,0,0,0,0,0,0,0,0,0],"id":23,"left_children":[1,3,-1,5,7,9,11,13,15,-1,-1,-1,-1,-1,-1,-1,-1],"loss_changes":[4.248917E1,2.5343113E1,0E0,4.2722153E1,6.314249E0,2.7485422E1,5.4394363E1,2.9719238E0,5.5274754E0,0E0,0E0,0E0,0E0,0E0,0E0,0E0,0E0],"parents":[2147483647,0,0,1,1,3,3,4,4,5,5,6,6,7,7,8,8],"right_children":[2,4,-1,6,8,10,12,14,16,-1,-1,-1,-1,-1,-1,-1,-1],"split_conditions":[1.7276037E-2,9.50048E-2,-1.5858768E-2,6.180336E-1,9.919003E-1,2.1385772E-2,9.2105195E-2,1.2903258E0,1.8955843E-1,-1.5329153E-2,7.3971217E-3,1.53648965E-2,-1.396537E-2,1.638782E-2,4.750532E-3,1.0077673E-2,-1.1486151E-2],"split_indices":[15,13,0,3,3,12,0,2,0,0,0,0,0,0,0,0,0],"split_type":[0,0,0,0,0,0,0,0,0,0,0,0,0,0,0,0,0],"sum_hessian":[1.3022188E2,1.1642843E2,1.3793447E1,9.640485E1,2.0023582E1,5.8758076E1,3.764677E1,1.7245241E1,2.778343E0,4.958593E0,5.3799484E1,7.023699E0,3.0623072E1,1.34323435E1,3.8128972E0,1.2870085E0,1.4913344E0],"tree_param":{"num_deleted":"0","num_feature":"18","num_nodes":"17","size_leaf_vector":"1"}},{"base_weights":[-5.7568576E-2,1.3723028E-1,-1.5726894E-2,-4.4098467E-2,1.2265216E0,4.5378897E-1,-8.2613623E-1,1.576243E-2,-2.4364893E-1,-1.5555377E-2,6.8677813E-3,1.5320208E-2,-1.3900511E-2,-1.2037988E-2,1.0119227E-2],"categories":[],"categories_nodes":[],"categories_segments":[],"categories_sizes":[],"default_left":[0,0,0,0,0,0,0,0,0,0,0,0,0,0,0],"id":24,"left_children":[1,3,-1,5,7,9,11,-1,13,-1,-1,-1,-1,-1,-1],"loss_changes":[3.8210083E1,2.2766037E1,0E0,3.9133038E1,8.838827E0,2.9843496E1,5.409273E1,0E0,6.0718017E0,0E0,0E0,0E0,0E0,0E0,0E0],"parents":[2147483647,0,0,1,1,3,3,4,4,5,5,6,6,8,8],"right_children":[2,4,-1,6,8,10,12,-1,14,-1,-1,-1,-1,-1,-1],"split_conditions":[1.708077E-2,9.50048E-2,-1.5726894E-2,6.383691E-1,9.842374E-1,8.623482E-2,9.2105195E-2,1.576243E-2,2.0003746E-1,-1.5555377E-2,6.8677813E-3,1.5320208E-2,-1.3900511E-2,-1.2037988E-2,1.0119227E-2],"split_indices":[15,13,0,3,3,1,0,0,1,0,0,0,0,0,0],"split_type":[0,0,0,0,0,0,0,0,0,0,0,0,0,0,0],"sum_hessian":[1.2773137E2,1.1398567E2,1.3745694E1,9.85415E1,1.544418E1,6.046558E1,3.8075916E1,1.2418049E1,3.0261312E0,5.692898E0,5.4772682E1,7.016757E0,3.1059158E1,1.7381685E0,1.2879627E0],"tree_param":{"num_deleted":"0","num_feature":"18","num_nodes":"15","size_leaf_vector":"1"}},{"base_weights":[7.348953E-3,2.0177571E-1,-1.5626494E-2,-5.996772E-2,6.681509E-1,6.5315294E-1,-5.8253354E-1,9.0378916E-1,-1.4044949E-2,-5.2024936E-3,1.0280482E-2,-1.4087076E-2,3.5914985E-4,1.1632528E-2,-3.1547954E-3],"categories":[],"categories_nodes":[],"categories_segments":[],"categories_sizes":[],"default_left":[0,0,0,0,0,0,0,0,0,0,0,0,0,0,0],"id":25,"left_children":[1,3,-1,5,7,9,11,13,-1,-1,-1,-1,-1,-1,-1],"loss_changes":[4.00849E1,1.4299702E1,0E0,2.8605122E1,2.1818459E1,1.4832316E1,2.2654028E1,1.2511278E1,0E0,0E0,0E0,0E0,0E0,0E0,0E0],"parents":[2147483647,0,0,1,1,3,3,4,4,5,5,6,6,7,7],"right_children":[2,4,-1,6,8,10,12,14,-1,-1,-1,-1,-1,-1,-1],"split_conditions":[1.7276037E-2,7.5054216E-1,-1.5626494E-2,4.8365954E-2,1.1047456E0,4.1196087E-1,7.586725E-1,1.2005507E0,-1.4044949E-2,-5.2024936E-3,1.0280482E-2,-1.4087076E-2,3.5914985E-4,1.1632528E-2,-3.1547954E-3],"split_indices":[15,4,0,14,4,3,5,3,0,0,0,0,0,0,0],"split_type":[0,0,0,0,0,0,0,0,0,0,0,0,0,0,0],"sum_hessian":[1.2928546E2,1.15814606E2,1.3470865E1,7.473983E1,4.1074768E1,3.1501432E1,4.32384E1,3.7388077E1,3.6866918E0,7.533682E0,2.396775E1,1.7963491E1,2.527491E1,3.0865713E1,6.522365E0],"tree_param":{"num_deleted":"0","num_feature":"18","num_nodes":"15","size_leaf_vector":"1"}},{"base_weights":[9.59017E-2,2.6594827E-1,-1.5390509E-2,6.365789E-2,9.051242E-1,7.5033545E-1,-3.1652912E-1,1.1426015E0,-1.2515563E-2,1.2942273E-2,-2.960517E-3,2.2461105E-3,-1.0644109E-2,1.3909878E-2,-1.0503618E-3],"categories":[],"categories_nodes":[],"categories_segments":[],"categories_sizes":[],"default_left":[0,0,0,0,0,0,0,0,0,0,0,0,0,0,0],"id":26,"left_children":[1,3,-1,5,7,9,11,13,-1,-1,-1,-1,-1,-1,-1],"loss_changes":[3.552575E1,1.48458E1,0E0,2.3375576E1,1.5583054E1,1.8527056E1,2.361049E1,8.022305E0,0E0,0E0,0E0,0E0,0E0,0E0,0E0],"parents":[2147483647,0,0,1,1,3,3,4,4,5,5,6,6,7,7],"right_children":[2,4,-1,6,8,10,12,14,-1,-1,-1,-1,-1,-1,-1],"split_conditions":[5.476083E-3,9.9552506E-1,-1.5390509E-2,5.783186E-1,1.3194011E0,6.833406E-1,6.383691E-1,9.919003E-1,-1.2515563E-2,1.2942273E-2,-2.960517E-3,2.2461105E-3,-1.0644109E-2,1.3909878E-2,-1.0503618E-3],"split_indices":[16,5,0,5,5,7,3,3,0,0,0,0,0,0,0],"split_type":[0,0,0,0,0,0,0,0,0,0,0,0,0,0,0],"sum_hessian":[1.2530992E2,1.1426309E2,1.1046829E1,8.7629234E1,2.6633854E1,3.0880535E1,5.67487E1,2.4415598E1,2.2182562E0,2.0163225E1,1.0717308E1,3.3331154E1,2.3417547E1,2.026603E1,4.149569E0],"tree_param":{"num_deleted":"0","num_feature":"18","num_nodes":"15","size_leaf_vector":"1"}},{"base_weights":[-9.205371E-3,1.9010632E-1,-1.5500099E-2,1.8334195E-3,1.4378463E0,5.483951E-1,-5.894235E-1,1.5977634E-2,-8.208776E-4,-1.5460748E-2,8.326641E-3,1.2577293E-2,-1.1865016E-2],"categories":[],"categories_nodes":[],"categories_segments":[],"categories_sizes":[],"default_left":[0,0,0,0,0,0,0,0,0,0,0,0,0],"id":27,"left_children":[1,3,-1,5,7,9,11,-1,-1,-1,-1,-1,-1],"loss_changes":[3.9892494E1,2.7027447E1,0E0,3.295529E1,3.7976284E0,3.2837593E1,5.5520836E1,0E0,0E0,0E0,0E0,0E0,0E0],"parents":[2147483647,0,0,1,1,3,3,4,4,5,5,6,6],"right_children":[2,4,-1,6,8,10,12,-1,-1,-1,-1,-1,-1],"split_conditions":[1.708077E-2,9.983695E-2,-1.5500099E-2,5.954282E-1,1.2237267E-1,2.1773184E-2,9.9953376E-2,1.5977634E-2,-8.208776E-4,-1.5460748E-2,8.326641E-3,1.2577293E-2,-1.1865016E-2],"split_indices":[15,13,0,3,10,9,1,0,0,0,0,0,0],"split_type":[0,0,0,0,0,0,0,0,0,0,0,0,0],"sum_hessian":[1.27941E2,1.1406294E2,1.3878059E1,9.997854E1,1.4084404E1,5.1990593E1,4.7987946E1,1.2697277E1,1.3871276E0,5.6826377E0,4.6307953E1,1.1452232E1,3.6535713E1],"tree_param":{"num_deleted":"0","num_feature":"18","num_nodes":"13","size_leaf_vector":"1"}},{"base_weights":[7.159252E-2,2.7950838E-1,-1.3156012E0,7.907722E-2,1.2546585E0,-1.5751658E-2,1.244166E-1,5.684481E-1,-7.220773E-1,1.5191768E0,-1.0968847E-2,1.0263481E-2,-8.796026E-3,-1.5273447E-2,8.122515E-3,1.3871629E-2,-1.247427E-2,1.6034102E-2,7.078774E-3],"categories":[],"categories_nodes":[],"categories_segments":[],"categories_sizes":[],"default_left":[0,0,0,0,0,0,0,0,0,0,0,0,0,0,0,0,0,0,0],"id":28,"left_children":[1,3,5,7,9,-1,11,13,15,17,-1,-1,-1,-1,-1,-1,-1,-1,-1],"loss_changes":[3.689258E1,2.1587185E1,6.43132E0,3.691367E1,1.3391691E1,0E0,4.049142E0,3.1059944E1,4.1340622E1,5.157852E-2,0E0,0E0,0E0,0E0,0E0,0E0,0E0,0E0,0E0],"parents":[2147483647,0,0,1,1,2,2,3,3,4,4,6,6,7,7,8,8,9,9],"right_children":[2,4,6,8,10,-1,12,14,16,18,-1,-1,-1,-1,-1,-1,-1,-1,-1],"split_conditions":[1.5789034E-2,9.7580954E-2,2.2024584E0,6.383691E-1,1.23037525E-1,-1.5751658E-2,1.832363E-1,2.1773184E-2,4.131088E-2,9.919003E-1,-1.0968847E-2,1.0263481E-2,-8.796026E-3,-1.5273447E-2,8.122515E-3,1.3871629E-2,-1.247427E-2,1.6034102E-2,7.078774E-3],"split_indices":[15,13,8,3,10,0,0,9,14,3,0,0,0,0,0,0,0,0,0],"split_type":[0,0,0,0,0,0,0,0,0,0,0,0,0,0,0,0,0,0,0],"sum_hessian":[1.2563794E2,1.09955986E2,1.5681953E1,9.210577E1,1.7850214E1,1.3207446E1,2.4745073E0,5.7359318E1,3.474645E1,1.6363497E1,1.4867166E0,1.2918088E0,1.1826985E0,5.428652E0,5.1930668E1,6.6014905E0,2.8144958E1,1.393984E1,2.423656E0],"tree_param":{"num_deleted":"0","num_feature":"18","num_nodes":"19","size_leaf_vector":"1"}},{"base_weights":[3.6921944E-2,1.9630553E-1,-1.5300885E-2,1.981699E-2,1.328008E0,5.691092E-1,-7.011394E-1,1.524342E-2,7.900809E-4,-1.5028313E-2,7.920581E-3,1.239227E-2,-1.1667546E-2],"categories":[],"categories_nodes":[],"categories_segments":[],"categories_sizes":[],"default_left":[0,0,0,0,0,0,0,0,0,0,0,0,0],"id":29,"left_children":[1,3,-1,5,7,9,11,-1,-1,-1,-1,-1,-1],"loss_changes":[3.305635E1,2.3927647E1,0E0,4.1887817E1,3.8434868E0,2.8912947E1,4.278087E1,0E0,0E0,0E0,0E0,0E0,0E0],"parents":[2147483647,0,0,1,1,3,3,4,4,5,5,6,6],"right_children":[2,4,-1,6,8,10,12,-1,-1,-1,-1,-1,-1],"split_conditions":[1.1047456E0,9.847418E-2,-1.5300885E-2,5.954282E-1,1.146006E-1,2.1385772E-2,4.5952255E-1,1.524342E-2,7.900809E-4,-1.5028313E-2,7.920581E-3,1.239227E-2,-1.1667546E-2],"split_indices":[4,13,0,3,10,12,4,0,0,0,0,0,0],"split_type":[0,0,0,0,0,0,0,0,0,0,0,0,0],"sum_hessian":[1.301521E2,1.1893021E2,1.1221889E1,1.03765526E2,1.516468E1,5.9013855E1,4.475167E1,1.29142065E1,2.2504728E0,5.175496E0,5.3838356E1,8.338986E0,3.6412685E1],"tree_param":{"num_deleted":"0","num_feature":"18","num_nodes":"13","size_leaf_vector":"1"}},{"base_weights":[7.72486E-2,2.6564246E-1,-1.5153796E-2,6.381086E-1,-1.5707959E-1,-1.525309E-2,8.7837064E-1,-1.1336873E0,4.814655E-1,1.563065E-2,4.869397E-3,-1.4008746E-2,6.180478E-3,1.0964072E-2,-5.064997E-3],"categories":[],"categories_nodes":[],"categories_segments":[],"categories_sizes":[],"default_left":[0,0,0,0,0,0,0,0,0,0,0,0,0,0,0],"id":30,"left_children":[1,3,-1,5,7,-1,9,11,13,-1,-1,-1,-1,-1,-1],"loss_changes":[3.9764534E1,1.870487E1,0E0,3.4092968E1,3.556127E1,0E0,1.4608955E1,1.1395199E1,2.1608482E1,0E0,0E0,0E0,0E0,0E0,0E0],"parents":[2147483647,0,0,1,1,3,3,4,4,6,6,7,7,8,8],"right_children":[2,4,-1,6,8,-1,10,12,14,-1,-1,-1,-1,-1,-1],"split_conditions":[1.7276037E-2,6.383691E-1,-1.5153796E-2,8.623482E-2,8.822869E-1,-1.525309E-2,5.0864343E-2,1.921143E-1,4.3480587E-3,1.563065E-2,4.869397E-3,-1.4008746E-2,6.180478E-3,1.0964072E-2,-5.064997E-3],"split_indices":[15,3,0,1,3,0,13,1,16,0,0,0,0,0,0],"split_type":[0,0,0,0,0,0,0,0,0,0,0,0,0,0,0],"sum_hessian":[1.3018852E2,1.17162445E2,1.3026077E1,6.201269E1,5.5149754E1,5.6639185E0,5.6348774E1,2.1496704E1,3.365305E1,1.9407612E1,3.6941162E1,1.8825583E1,2.6711206E0,2.0674686E1,1.2978362E1],"tree_param":{"num_deleted":"0","num_feature":"18","num_nodes":"15","size_leaf_vector":"1"}},{"base_weights":[-2.6815347E-2,1.701711E-1,-1.5165585E-2,5.493933E-1,-3.1869105E-1,-1.52122555E-2,7.854223E-1,-1.1680908E0,2.3257513E-1,1.0464778E-2,-3.6666992E-3,-1.3675269E-2,7.4482993E-3,7.4687265E-3,-4.0364517E-3],"categories":[],"categories_nodes":[],"categories_segments":[],"categories_sizes":[],"default_left":[0,0,0,0,0,0,0,0,0,0,0,0,0,0,0],"id":31,"left_children":[1,3,-1,5,7,-1,9,11,13,-1,-1,-1,-1,-1,-1],"loss_changes":[3.754135E1,2.1144117E1,0E0,3.2504883E1,2.3704824E1,0E0,1.7878536E1,8.596159E0,1.0504519E1,0E0,0E0,0E0,0E0,0E0,0E0],"parents":[2147483647,0,0,1,1,3,3,4,4,6,6,7,7,8,8],"right_children":[2,4,-1,6,8,-1,10,12,14,-1,-1,-1,-1,-1,-1],"split_conditions":[1.7276037E-2,6.383691E-1,-1.5165585E-2,8.623482E-2,8.582209E-1,-1.52122555E-2,5.0203055E-2,1.9878952E-1,4.3480587E-3,1.0464778E-2,-3.6666992E-3,-1.3675269E-2,7.4482993E-3,7.4687265E-3,-4.0364517E-3],"split_indices":[15,3,0,1,3,0,9,1,16,0,0,0,0,0,0],"split_type":[0,0,0,0,0,0,0,0,0,0,0,0,0,0,0],"sum_hessian":[1.2604754E2,1.12109276E2,1.3938265E1,6.3064667E1,4.904461E1,5.8959565E0,5.7168713E1,1.886232E1,3.018229E1,4.6682484E1,1.0486229E1,1.7339645E1,1.5226753E0,1.6594208E1,1.358808E1],"tree_param":{"num_deleted":"0","num_feature":"18","num_nodes":"15","size_leaf_vector":"1"}},{"base_weights":[2.8856229E-2,2.0392843E-1,-1.4937832E-2,6.2357795E-1,-1.9288348E-1,-1.4559844E-2,8.402761E-1,-6.4079285E-1,1.0924636E0,1.084846E-2,-5.3522276E-4,1.2011278E-2,-1.25230225E-2,1.4113907E-2,2.0940464E-4],"categories":[],"categories_nodes":[],"categories_segments":[],"categories_sizes":[],"default_left":[0,0,0,0,0,0,0,0,0,0,0,0,0,0,0],"id":32,"left_children":[1,3,-1,5,7,-1,9,11,13,-1,-1,-1,-1,-1,-1],"loss_changes":[3.4221508E1,1.92691E1,0E0,2.6515171E1,3.5167427E1,0E0,1.1307457E1,5.2220955E1,5.383892E0,0E0,0E0,0E0,0E0,0E0,0E0],"parents":[2147483647,0,0,1,1,3,3,4,4,6,6,7,7,8,8],"right_children":[2,4,-1,6,8,-1,10,12,14,-1,-1,-1,-1,-1,-1],"split_conditions":[1.7276037E-2,5.954282E-1,-1.4937832E-2,2.1385772E-2,9.847418E-2,-1.4559844E-2,6.65883E-2,9.9953376E-2,9.919003E-1,1.084846E-2,-5.3522276E-4,1.2011278E-2,-1.25230225E-2,1.4113907E-2,2.0940464E-4],"split_indices":[15,3,0,12,13,0,13,1,3,0,0,0,0,0,0],"split_type":[0,0,0,0,0,0,0,0,0,0,0,0,0,0,0],"sum_hessian":[1.2623355E2,1.139928E2,1.2240756E1,5.5124382E1,5.8868412E1,4.662391E0,5.046199E1,4.402747E1,1.4840942E1,3.945278E1,1.100921E1,1.0733379E1,3.329409E1,1.11924515E1,3.6484911E0],"tree_param":{"num_deleted":"0","num_feature":"18","num_nodes":"15","size_leaf_vector":"1"}},{"base_weights":[2.1296777E-2,1.9394231E-1,-1.5137606E-2,1.4690575E-3,1.1904038E0,4.317398E-1,-8.3898044E-1,1.5159059E-2,1.6323502E-1,-1.5007706E-2,6.425951E-3,-1.3534078E-2,1.410578E-2,-1.1667473E-2,1.0739439E-2],"categories":[],"categories_nodes":[],"categories_segments":[],"categories_sizes":[],"default_left":[0,0,0,0,0,0,0,0,0,0,0,0,0,0,0],"id":33,"left_children":[1,3,-1,5,7,9,11,-1,13,-1,-1,-1,-1,-1,-1],"loss_changes":[3.356641E1,2.181303E1,0E0,3.5197033E1,5.908552E0,2.719482E1,4.004847E1,0E0,7.9769025E0,0E0,0E0,0E0,0E0,0E0,0E0],"parents":[2147483647,0,0,1,1,3,3,4,4,5,5,6,6,8,8],"right_children":[2,4,-1,6,8,10,12,-1,14,-1,-1,-1,-1,-1,-1],"split_conditions":[1.1047456E0,9.50048E-2,-1.5137606E-2,6.814433E-1,1.1517153E-1,2.1390896E-2,1.7167052E0,1.5159059E-2,8.9271015E-1,-1.5007706E-2,6.425951E-3,-1.3534078E-2,1.410578E-2,-1.1667473E-2,1.0739439E-2],"split_indices":[4,13,0,3,10,9,3,0,8,0,0,0,0,0,0],"split_type":[0,0,0,0,0,0,0,0,0,0,0,0,0,0,0],"sum_hessian":[1.2454797E2,1.1274174E2,1.1806231E1,9.532965E1,1.7412088E1,6.3372303E1,3.1957348E1,1.286079E1,4.551299E0,5.6324825E0,5.773982E1,2.6333736E1,5.623612E0,1.7355671E0,2.8157318E0],"tree_param":{"num_deleted":"0","num_feature":"18","num_nodes":"15","size_leaf_vector":"1"}},{"base_weights":[-2.9247412E-3,1.6627413E-1,-1.4795308E-2,1.4721478E-2,5.7434298E-2,-1.5178278E-2,1.968736E-1,1.143415E-2,-4.6974476E-4],"categories":[],"categories_nodes":[],"categories_segments":[],"categories_sizes":[],"default_left":[0,0,0,0,0,0,0,0,0],"id":34,"left_children":[1,3,-1,-1,5,-1,7,-1,-1],"loss_changes":[3.0896461E1,1.5687303E1,0E0,0E0,2.3026457E1,0E0,2.2198164E1,0E0,0E0],"parents":[2147483647,0,0,1,1,4,4,6,6],"right_children":[2,4,-1,-1,6,-1,8,-1,-1],"split_conditions":[1.7276037E-2,1.929692E-3,-1.4795308E-2,1.4721478E-2,2.1952316E-2,-1.5178278E-2,5.783186E-1,1.143415E-2,-4.6974476E-4],"split_indices":[15,16,0,0,9,0,5,0,0],"split_type":[0,0,0,0,0,0,0,0,0],"sum_hessian":[1.2168029E2,1.0996697E2,1.1713318E1,7.4965563E0,1.0247042E2,7.529016E0,9.49414E1,1.86928E1,7.62486E1],"tree_param":{"num_deleted":"0","num_feature":"18","num_nodes":"9","size_leaf_vector":"1"}},{"base_weights":[-4.341609E-2,8.306152E-1,-3.1950036E-1,1.2225595E0,-1.8051946E-1,-1.1180449E0,2.9431654E-2,1.3495009E0,-2.4869237E-3,-1.1037257E0,9.9380505E-1,-1.3825494E0,7.5974107E-1,3.7613234E-1,-1.4962099E-2,1.4635561E-2,1.9461609E-3,-1.4226323E-2,1.2291546E-3,1.2848824E-2,4.1667762E-4,7.866005E-3,-1.6350426E-2,1.2014892E-2,-1.0725209E-3,3.0831558E-5,1.3467107E-2],"categories":[],"categories_nodes":[],"categories_segments":[],"categories_sizes":[],"default_left":[0,0,0,0,0,0,0,0,0,0,0,0,0,0,0,0,0,0,0,0,0,0,0,0,0,0,0],"id":35,"left_children":[1,3,5,7,9,11,13,15,-1,17,19,21,23,25,-1,-1,-1,-1,-1,-1,-1,-1,-1,-1,-1,-1,-1],"loss_changes":[3.1012058E1,1.2452475E1,2.7214949E1,4.51371E0,1.1388829E1,1.5797043E1,3.6987255E1,2.4483528E0,0E0,2.4392862E0,1.2502971E0,1.5733852E1,1.7800066E0,2.0601748E1,0E0,0E0,0E0,0E0,0E0,0E0,0E0,0E0,0E0,0E0,0E0,0E0,0E0],"parents":[2147483647,0,0,1,1,2,2,3,3,4,4,5,5,6,6,7,7,9,9,10,10,11,11,12,12,13,13],"right_children":[2,4,6,8,10,12,14,16,-1,18,20,22,24,26,-1,-1,-1,-1,-1,-1,-1,-1,-1,-1,-1,-1,-1],"split_conditions":[5.564371E-1,4.308793E0,7.770529E-1,1.2008903E0,2.6312124E-3,9.4179966E-2,1.1047456E0,1.0508499E-1,-2.4869237E-3,4.819897E0,6.105089E-2,2.512201E-3,3.4822616E-1,9.928076E-2,-1.4962099E-2,1.4635561E-2,1.9461609E-3,-1.4226323E-2,1.2291546E-3,1.2848824E-2,4.1667762E-4,7.866005E-3,-1.6350426E-2,1.2014892E-2,-1.0725209E-3,3.0831558E-5,1.3467107E-2],"split_indices":[5,6,5,8,16,10,4,1,0,6,10,16,2,13,0,0,0,0,0,0,0,0,0,0,0,0,0],"split_type":[0,0,0,0,0,0,0,0,0,0,0,0,0,0,0,0,0,0,0,0,0,0,0,0,0,0,0],"sum_hessian":[1.2641764E2,2.9864294E1,9.6553345E1,2.1371141E1,8.493152E0,2.8690296E1,6.7863045E1,1.9749853E1,1.6212882E0,4.788638E0,3.704514E0,2.537913E1,3.3111653E0,5.5910824E1,1.1952226E1,1.773144E1,2.0184138E0,3.6737452E0,1.1148928E0,2.5695167E0,1.1349972E0,2.4256046E0,2.2953526E1,1.9379398E0,1.3732257E0,4.111221E1,1.4798614E1],"tree_param":{"num_deleted":"0","num_feature":"18","num_nodes":"27","size_leaf_vector":"1"}},{"base_weights":[-5.1236063E-2,1.1448354E-1,-1.47383595E-2,6.7943937E-1,-9.959384E-2,1.200997E0,-1.9400999E-1,-1.1020216E0,2.5765935E-1,1.364193E-2,-3.7626424E-3,-1.1982032E-2,9.207345E-3,2.8738668E-3,-1.435764E-2,1.1468099E-2,-1.2960498E-3],"categories":[],"categories_nodes":[],"categories_segments":[],"categories_sizes":[],"default_left":[0,0,0,0,0,0,0,0,0,0,0,0,0,0,0,0,0],"id":36,"left_children":[1,3,-1,5,7,9,11,13,15,-1,-1,-1,-1,-1,-1,-1,-1],"loss_changes":[2.9580519E1,1.369424E1,0E0,1.4395696E1,2.9857273E1,5.5595913E0,1.5078369E1,1.0561739E1,2.1391514E1,0E0,0E0,0E0,0E0,0E0,0E0,0E0,0E0],"parents":[2147483647,0,0,1,1,3,3,4,4,5,5,6,6,7,7,8,8],"right_children":[2,4,-1,6,8,10,12,14,16,-1,-1,-1,-1,-1,-1,-1,-1],"split_conditions":[1.6443728E-2,5.783186E-1,-1.47383595E-2,6.4219695E-1,7.586725E-1,1.1215835E-1,2.5733758E-2,3.8065723E-1,3.044685E-2,1.364193E-2,-3.7626424E-3,-1.1982032E-2,9.207345E-3,2.8738668E-3,-1.435764E-2,1.1468099E-2,-1.2960498E-3],"split_indices":[15,5,0,7,5,1,9,2,9,0,0,0,0,0,0,0,0],"split_type":[0,0,0,0,0,0,0,0,0,0,0,0,0,0,0,0,0],"sum_hessian":[1.23756966E2,1.1166819E2,1.2088777E1,3.0088924E1,8.157927E1,1.8604641E1,1.1484283E1,2.0887022E1,6.0692245E1,1.6982574E1,1.6220657E0,6.00234E0,5.481944E0,4.0723333E0,1.6814688E1,1.7818966E1,4.2873276E1],"tree_param":{"num_deleted":"0","num_feature":"18","num_nodes":"17","size_leaf_vector":"1"}},{"base_weights":[3.9747383E-2,2.026758E-1,-1.48360925E-2,-1.5057026E-1,8.803667E-1,5.080026E-1,-7.599879E-1,1.074304E0,-1.2779549E-2,1.1684746E-2,-2.8766834E-3,-1.3076949E-2,3.8973298E-3,-1.1930751E-2,1.1876146E-2],"categories":[],"categories_nodes":[],"categories_segments":[],"categories_sizes":[],"default_left":[0,0,0,0,0,0,0,0,0,0,0,0,0,0,0],"id":37,"left_children":[1,3,-1,5,7,9,11,13,-1,-1,-1,-1,-1,-1,-1],"loss_changes":[3.13714E1,2.741592E1,0E0,3.0796997E1,1.778006E1,1.9789162E1,2.5544104E1,1.0796692E1,0E0,0E0,0E0,0E0,0E0,0E0,0E0],"parents":[2147483647,0,0,1,1,3,3,4,4,5,5,6,6,7,7],"right_children":[2,4,-1,6,8,10,12,14,-1,-1,-1,-1,-1,-1,-1],"split_conditions":[1.1047456E0,7.453331E-1,-1.48360925E-2,1.1215835E-1,1.3551992E0,7.0147955E-1,9.242243E-2,3.0016787E-2,-1.2779549E-2,1.1684746E-2,-2.8766834E-3,-1.3076949E-2,3.8973298E-3,-1.1930751E-2,1.1876146E-2],"split_indices":[4,4,0,1,3,7,10,12,0,0,0,0,0,0,0],"split_type":[0,0,0,0,0,0,0,0,0,0,0,0,0,0,0],"sum_hessian":[1.2418513E2,1.1296958E2,1.1215545E1,7.477235E1,3.8197235E1,3.6016834E1,3.8755512E1,3.5508816E1,2.688416E0,1.9424429E1,1.6592407E1,2.6157251E1,1.2598262E1,1.2365174E0,3.42723E1],"tree_param":{"num_deleted":"0","num_feature":"18","num_nodes":"15","size_leaf_vector":"1"}},{"base_weights":[4.537218E-2,2.0782381E-1,-1.471988E-2,6.448504E-2,1.2313728E0,3.1504557E-1,-1.173314E0,1.4540478E-2,3.4426563E-4,4.675388E-3,-1.02406535E-2,-1.6739028E-2,-3.623112E-3],"categories":[],"categories_nodes":[],"categories_segments":[],"categories_sizes":[],"default_left":[0,0,0,0,0,0,0,0,0,0,0,0,0],"id":38,"left_children":[1,3,-1,5,7,9,11,-1,-1,-1,-1,-1,-1],"loss_changes":[3.1537476E1,1.684034E1,0E0,3.2070488E1,3.7109547E0,1.7998478E1,6.465267E0,0E0,0E0,0E0,0E0,0E0,0E0],"parents":[2147483647,0,0,1,1,3,3,4,4,5,5,6,6],"right_children":[2,4,-1,6,8,10,12,-1,-1,-1,-1,-1,-1],"split_conditions":[1.1047456E0,9.847418E-2,-1.471988E-2,4.8001617E-2,4.9912864E-3,7.5681105E-2,4.0897797E-3,1.4540478E-2,3.4426563E-4,4.675388E-3,-1.02406535E-2,-1.6739028E-2,-3.623112E-3],"split_indices":[4,13,0,9,16,13,16,0,0,0,0,0,0],"split_type":[0,0,0,0,0,0,0,0,0,0,0,0,0],"sum_hessian":[1.2570125E2,1.1432448E2,1.1376772E1,1.0121345E2,1.3111026E1,8.479447E1,1.6418978E1,1.0873387E1,2.237638E0,7.6709885E1,8.084591E0,9.494523E0,6.9244537E0],"tree_param":{"num_deleted":"0","num_feature":"18","num_nodes":"13","size_leaf_vector":"1"}},{"base_weights":[5.8671486E-2,2.3655601E-1,-1.4419786E-2,7.28238E-1,-2.3279016E-1,3.3457863E-1,1.6507296E-2,1.39511805E-2,-5.4255843E-1,5.340391E-3,-1.5363661E-2,-1.1004592E-2,6.7633823E-3],"categories":[],"categories_nodes":[],"categories_segments":[],"categories_sizes":[],"default_left":[0,0,0,0,0,0,0,0,0,0,0,0,0],"id":39,"left_children":[1,3,-1,5,7,9,-1,-1,11,-1,-1,-1,-1],"loss_changes":[3.2590733E1,2.5292692E1,0E0,1.8843655E1,2.9226477E1,1.5258723E1,0E0,0E0,3.348809E1,0E0,0E0,0E0,0E0],"parents":[2147483647,0,0,1,1,3,3,4,4,5,5,8,8],"right_children":[2,4,-1,6,8,10,-1,-1,12,-1,-1,-1,-1],"split_conditions":[1.7276037E-2,5.9172887E-1,-1.4419786E-2,9.665613E-2,8.685678E-4,8.924339E-1,1.6507296E-2,1.39511805E-2,1.1327312E0,5.340391E-3,-1.5363661E-2,-1.1004592E-2,6.7633823E-3],"split_indices":[15,3,0,10,17,5,0,0,5,0,0,0,0],"split_type":[0,0,0,0,0,0,0,0,0,0,0,0,0],"sum_hessian":[1.1981116E2,1.07867134E2,1.1944023E1,5.2410675E1,5.545646E1,3.7689808E1,1.4720865E1,8.305464E0,4.7150997E1,3.4704536E1,2.9852707E0,3.24126E1,1.4738395E1],"tree_param":{"num_deleted":"0","num_feature":"18","num_nodes":"13","size_leaf_vector":"1"}},{"base_weights":[3.6388252E-2,2.0737945E-1,-1.4613743E-2,-1.0829206E-1,8.6266613E-1,7.346997E-1,-7.2253895E-1,9.897293E-1,-1.09144505E-2,-8.8296074E-4,1.2503875E-2,-1.1877713E-2,-3.7170123E-4,1.120389E-2,8.534908E-4],"categories":[],"categories_nodes":[],"categories_segments":[],"categories_sizes":[],"default_left":[0,0,0,0,0,0,0,0,0,0,0,0,0,0,0],"id":40,"left_children":[1,3,-1,5,7,9,11,13,-1,-1,-1,-1,-1,-1,-1],"loss_changes":[3.189113E1,2.3173954E1,0E0,3.9982967E1,1.01149845E1,1.3950993E1,1.4170319E1,4.0035477E0,0E0,0E0,0E0,0E0,0E0,0E0,0E0],"parents":[2147483647,0,0,1,1,3,3,4,4,5,5,6,6,7,7],"right_children":[2,4,-1,6,8,10,12,14,-1,-1,-1,-1,-1,-1,-1],"split_conditions":[1.1047456E0,7.427115E-1,-1.4613743E-2,5.783186E-1,5.476083E-3,2.5335772E-2,1.2216806E0,5.2999925E-2,-1.09144505E-2,-8.8296074E-4,1.2503875E-2,-1.1877713E-2,-3.7170123E-4,1.120389E-2,8.534908E-4],"split_indices":[4,4,0,5,16,9,8,9,0,0,0,0,0,0,0],"split_type":[0,0,0,0,0,0,0,0,0,0,0,0,0,0,0],"sum_hessian":[1.223407E2,1.1057815E2,1.1762549E1,7.519106E1,3.538708E1,3.1611448E1,4.3579617E1,3.3689957E1,1.6971242E0,1.2496627E1,1.911482E1,2.5522057E1,1.8057562E1,2.9228361E1,4.461595E0],"tree_param":{"num_deleted":"0","num_feature":"18","num_nodes":"15","size_leaf_vector":"1"}},{"base_weights":[-2.239781E-2,1.713318E-1,-1.2468871E0,1.0582595E-2,1.1186942E0,-1.3530976E-2,3.5273962E-4,4.7144935E-1,-7.8588516E-1,1.4131733E0,-1.0636846E-2,-1.4342157E-2,6.4475993E-3,1.4027715E-2,-1.3510302E-2,1.5255354E-2,3.705185E-3],"categories":[],"categories_nodes":[],"categories_segments":[],"categories_sizes":[],"default_left":[0,0,0,0,0,0,0,0,0,0,0,0,0,0,0,0,0],"id":41,"left_children":[1,3,5,7,9,-1,-1,11,13,15,-1,-1,-1,-1,-1,-1,-1],"loss_changes":[3.0318623E1,1.6808512E1,2.4249344E0,3.5402493E1,1.17942505E1,0E0,0E0,2.1098042E1,4.5628624E1,1.1380463E0,0E0,0E0,0E0,0E0,0E0,0E0,0E0],"parents":[2147483647,0,0,1,1,2,2,3,3,4,4,7,7,8,8,9,9],"right_children":[2,4,6,8,10,-1,-1,12,14,16,-1,-1,-1,-1,-1,-1,-1],"split_conditions":[1.5789034E-2,9.847418E-2,4.9576855E0,6.814433E-1,1.23037525E-1,-1.3530976E-2,3.5273962E-4,2.081861E-2,6.446569E-2,4.9912864E-3,-1.0636846E-2,-1.4342157E-2,6.4475993E-3,1.4027715E-2,-1.3510302E-2,1.5255354E-2,3.705185E-3],"split_indices":[15,13,6,3,10,0,0,12,0,16,0,0,0,0,0,0,0],"split_type":[0,0,0,0,0,0,0,0,0,0,0,0,0,0,0,0,0],"sum_hessian":[1.2590756E2,1.094511E2,1.645646E1,9.4437965E1,1.5013137E1,1.5146446E1,1.3100153E0,6.0080917E1,3.4357044E1,1.3538749E1,1.474388E0,4.40205E0,5.5678867E1,6.7467055E0,2.761034E1,1.1803603E1,1.7351453E0],"tree_param":{"num_deleted":"0","num_feature":"18","num_nodes":"17","size_leaf_vector":"1"}},{"base_weights":[-3.2134995E-2,1.3128178E-1,-1.4280108E-2,5.2592546E-1,-3.55921E-1,-1.4612264E-2,7.4040663E-1,-8.941182E-1,1.1070209E0,4.310099E-3,1.587413E-2,1.2467957E-2,-1.3060814E-2,1.4293748E-2,-5.2529564E-3],"categories":[],"categories_nodes":[],"categories_segments":[],"categories_sizes":[],"default_left":[0,0,0,0,0,0,0,0,0,0,0,0,0,0,0],"id":42,"left_children":[1,3,-1,5,7,-1,9,11,13,-1,-1,-1,-1,-1,-1],"loss_changes":[2.9376364E1,2.2387884E1,0E0,2.8442652E1,4.2144196E1,0E0,1.4674088E1,3.5818283E1,8.382835E0,0E0,0E0,0E0,0E0,0E0,0E0],"parents":[2147483647,0,0,1,1,3,3,4,4,6,6,7,7,8,8],"right_children":[2,4,-1,6,8,-1,10,12,14,-1,-1,-1,-1,-1,-1],"split_conditions":[1.7276037E-2,6.383691E-1,-1.4280108E-2,2.2300312E-2,9.7580954E-2,-1.4612264E-2,9.899665E-2,4.131088E-2,1.1517153E-1,4.310099E-3,1.587413E-2,1.2467957E-2,-1.3060814E-2,1.4293748E-2,-5.2529564E-3],"split_indices":[15,3,0,12,13,0,10,14,10,0,0,0,0,0,0],"split_type":[0,0,0,0,0,0,0,0,0,0,0,0,0,0,0],"sum_hessian":[1.2695999E2,1.14465355E2,1.2494639E1,6.3195942E1,5.1269413E1,5.590213E0,5.760573E1,3.7764988E1,1.3504424E1,4.3298428E1,1.4307302E1,5.7672005E0,3.1997787E1,1.138117E1,2.1232543E0],"tree_param":{"num_deleted":"0","num_feature":"18","num_nodes":"15","size_leaf_vector":"1"}},{"base_weights":[-5.4668814E-2,4.692771E-1,-5.090532E-1,-1.4139485E-2,6.750729E-1,1.3788749E-2,-7.297228E-1,1.0929223E0,-4.6938127E-1,-1.3859711E0,-2.1984506E-2,-4.222217E-3,1.1726794E-2,-1.6675897E-2,9.167239E-3,1.6085225E-3,-1.45157445E-2,-1.1778836E-2,6.80302E-3],"categories":[],"categories_nodes":[],"categories_segments":[],"categories_sizes":[],"default_left":[0,0,0,0,0,0,0,0,0,0,0,0,0,0,0,0,0,0,0],"id":43,"left_children":[1,3,5,-1,7,-1,9,11,13,15,17,-1,-1,-1,-1,-1,-1,-1,-1],"loss_changes":[2.86882E1,2.2666094E1,2.7867922E1,0E0,2.4987398E1,0E0,2.7085821E1,5.0619736E0,2.5424618E1,3.3059616E0,2.4428637E1,0E0,0E0,0E0,0E0,0E0,0E0,0E0,0E0],"parents":[2147483647,0,0,1,1,2,2,4,4,6,6,7,7,8,8,9,9,10,10],"right_children":[2,4,6,-1,8,-1,10,12,14,16,18,-1,-1,-1,-1,-1,-1,-1,-1],"split_conditions":[5.954282E-1,2.081861E-2,8.685678E-4,-1.4139485E-2,4.8001617E-2,1.3788749E-2,4.5472283E0,2.5807726E-1,6.386977E-2,2.3618514E-2,1.1646298E-1,-4.222217E-3,1.1726794E-2,-1.6675897E-2,9.167239E-3,1.6085225E-3,-1.45157445E-2,-1.1778836E-2,6.80302E-3],"split_indices":[3,12,17,0,9,0,6,2,14,12,11,0,0,0,0,0,0,0,0],"split_type":[0,0,0,0,0,0,0,0,0,0,0,0,0,0,0,0,0,0,0],"sum_hessian":[1.1849836E2,5.5021202E1,6.3477158E1,4.841971E0,5.0179234E1,6.0937533E0,5.7383404E1,3.6791416E1,1.3387815E1,2.9277561E1,2.8105844E1,1.6251229E0,3.5166294E1,7.0716786E0,6.3161364E0,1.1321192E0,2.8145443E1,1.0366433E1,1.773941E1],"tree_param":{"num_deleted":"0","num_feature":"18","num_nodes":"19","size_leaf_vector":"1"}},{"base_weights":[1.3097879E-2,1.819388E-1,-1.4099626E-2,1.3887485E-2,9.51506E-2,-1.4814489E-2,2.3179999E-1,7.6306765E-3,-1.8280883E-3],"categories":[],"categories_nodes":[],"categories_segments":[],"categories_sizes":[],"default_left":[0,0,0,0,0,0,0,0,0],"id":44,"left_children":[1,3,-1,-1,5,-1,7,-1,-1],"loss_changes":[2.883558E1,1.1097246E1,0E0,0E0,2.2123592E1,0E0,2.0822014E1,0E0,0E0],"parents":[2147483647,0,0,1,1,4,4,6,6],"right_children":[2,4,-1,-1,6,-1,8,-1,-1],"split_conditions":[1.708077E-2,1.929692E-3,-1.4099626E-2,1.3887485E-2,2.1952316E-2,-1.4814489E-2,5.5959845E-1,7.6306765E-3,-1.8280883E-3],"split_indices":[15,16,0,0,9,0,3,0,0],"split_type":[0,0,0,0,0,0,0,0,0],"sum_hessian":[1.1794516E2,1.0621526E2,1.1729902E1,6.119576E0,1.0009568E2,7.1987295E0,9.289696E1,4.03514E1,5.2545555E1],"tree_param":{"num_deleted":"0","num_feature":"18","num_nodes":"9","size_leaf_vector":"1"}},{"base_weights":[4.7055412E-2,2.168325E-1,-1.4403701E-2,-1.2486756E-1,7.594811E-1,5.859516E-1,-7.476573E-1,9.861613E-1,-1.15797006E-1,1.1669121E-2,-2.4474615E-3,-1.1646956E-2,5.084182E-3,-4.986495E-3,1.0876798E-2,1.0962612E-2,-1.40509205E-2],"categories":[],"categories_nodes":[],"categories_segments":[],"categories_sizes":[],"default_left":[0,0,0,0,0,0,0,0,0,0,0,0,0,0,0,0,0],"id":45,"left_children":[1,3,-1,5,7,9,11,13,15,-1,-1,-1,-1,-1,-1,-1,-1],"loss_changes":[3.1024214E1,2.0496235E1,0E0,3.070594E1,8.577066E0,1.5965481E1,1.9912197E1,5.6650887E0,1.665025E1,0E0,0E0,0E0,0E0,0E0,0E0,0E0,0E0],"parents":[2147483647,0,0,1,1,3,3,4,4,5,5,6,6,7,7,8,8],"right_children":[2,4,-1,6,8,10,12,14,16,-1,-1,-1,-1,-1,-1,-1,-1],"split_conditions":[1.1047456E0,7.296274E-1,-1.4403701E-2,4.871216E-2,1.027901E0,6.879203E-1,9.242243E-2,1.20433904E-1,9.200527E-2,1.1669121E-2,-2.4474615E-3,-1.1646956E-2,5.084182E-3,-4.986495E-3,1.0876798E-2,1.0962612E-2,-1.40509205E-2],"split_indices":[4,4,0,14,3,7,10,1,10,0,0,0,0,0,0,0,0],"split_type":[0,0,0,0,0,0,0,0,0,0,0,0,0,0,0,0,0],"sum_hessian":[1.2061644E2,1.0902624E2,1.1590204E1,6.737243E1,4.1653812E1,3.149026E1,3.5882164E1,3.298472E1,8.669094E0,1.829244E1,1.3197819E1,2.6992836E1,8.88933E0,1.8605406E0,3.1124178E1,4.5455613E0,4.1235332E0],"tree_param":{"num_deleted":"0","num_feature":"18","num_nodes":"17","size_leaf_vector":"1"}},{"base_weights":[-7.359309E-2,9.142537E-2,-1.4401216E-2,-1.2735383E-1,1.1837282E0,1.2015463E-1,-1.3508317E0,1.3780056E0,-5.8401726E-2,5.6995414E-3,-7.0770667E-3,-1.477578E-2,1.6880578E-3,-7.6081214E-4,1.5174468E-2,-1.0452739E-2,9.426704E-3],"categories":[],"categories_nodes":[],"categories_segments":[],"categories_sizes":[],"default_left":[0,0,0,0,0,0,0,0,0,0,0,0,0,0,0,0,0],"id":46,"left_children":[1,3,-1,5,7,9,11,13,15,-1,-1,-1,-1,-1,-1,-1,-1],"loss_changes":[2.8142927E1,2.6861618E1,0E0,2.8635004E1,4.604866E0,2.986633E1,3.3123455E0,3.4110165E0,4.4383082E0,0E0,0E0,0E0,0E0,0E0,0E0,0E0,0E0],"parents":[2147483647,0,0,1,1,3,3,4,4,5,5,6,6,7,7,8,8],"right_children":[2,4,-1,6,8,10,12,14,16,-1,-1,-1,-1,-1,-1,-1,-1],"split_conditions":[1.1047456E0,9.400344E-2,-1.4401216E-2,4.799904E-2,9.919003E-1,6.814433E-1,1.1431291E-1,2.4720582E-1,2.0003746E-1,5.6995414E-3,-7.0770667E-3,-1.477578E-2,1.6880578E-3,-7.6081214E-4,1.5174468E-2,-1.0452739E-2,9.426704E-3],"split_indices":[4,13,0,9,3,3,10,7,1,0,0,0,0,0,0,0,0],"split_type":[0,0,0,0,0,0,0,0,0,0,0,0,0,0,0,0,0],"sum_hessian":[1.2321712E2,1.1077349E2,1.2443624E1,9.30248E1,1.7748688E1,7.812249E1,1.4902315E1,1.5253544E1,2.4951446E0,5.0821384E1,2.7301104E1,1.3780611E1,1.1217036E0,1.3745185E0,1.38790245E1,1.2342489E0,1.2608958E0],"tree_param":{"num_deleted":"0","num_feature":"18","num_nodes":"17","size_leaf_vector":"1"}},{"base_weights":[-1.635576E-2,1.4021616E-1,-1.4224069E-2,-5.1028337E-2,1.0911729E0,3.7235168E-1,-8.880428E-1,1.3714814E0,-6.400482E-1,6.6192523E-3,-9.341557E-3,1.3369499E-2,-1.385003E-2,-2.340784E-3,1.5581758E-2,1.0099772E-3,-1.053686E-2],"categories":[],"categories_nodes":[],"categories_segments":[],"categories_sizes":[],"default_left":[0,0,0,0,0,0,0,0,0,0,0,0,0,0,0,0,0],"id":47,"left_children":[1,3,-1,5,7,9,11,13,15,-1,-1,-1,-1,-1,-1,-1,-1],"loss_changes":[2.790647E1,2.0816689E1,0E0,3.4349834E1,1.0174919E1,2.500381E1,3.783449E1,5.402567E0,1.1337523E0,0E0,0E0,0E0,0E0,0E0,0E0,0E0,0E0],"parents":[2147483647,0,0,1,1,3,3,4,4,5,5,6,6,7,7,8,8],"right_children":[2,4,-1,6,8,10,12,14,16,-1,-1,-1,-1,-1,-1,-1,-1],"split_conditions":[1.1047456E0,9.400344E-2,-1.4224069E-2,6.814433E-1,9.919003E-1,4.8001617E-2,6.446569E-2,2.4720582E-1,1.91017E-1,6.6192523E-3,-9.341557E-3,1.3369499E-2,-1.385003E-2,-2.340784E-3,1.5581758E-2,1.0099772E-3,-1.053686E-2],"split_indices":[4,13,0,3,3,9,0,7,0,0,0,0,0,0,0,0,0],"split_type":[0,0,0,0,0,0,0,0,0,0,0,0,0,0,0,0,0],"sum_hessian":[1.2485628E2,1.1315598E2,1.1700296E1,9.49976E1,1.8158386E1,6.345555E1,3.1542048E1,1.5806837E1,2.3515494E0,5.2346798E1,1.1108753E1,5.450187E0,2.609186E1,1.6201179E0,1.4186719E1,1.1131446E0,1.2384048E0],"tree_param":{"num_deleted":"0","num_feature":"18","num_nodes":"17","size_leaf_vector":"1"}},{"base_weights":[-3.6487307E-2,3.9775935E-1,-5.0900644E-1,-1.4400274E-2,5.8373773E-1,1.3091351E-2,-8.066269E-1,8.985611E-1,-6.206105E-1,-1.4080483E0,1.7664815E-1,4.7853203E-3,1.2001068E-2,-1.3281711E-2,5.675197E-3,-6.0318997E-3,-1.4721764E-2,9.757229E-3,-1.3135757E-2],"categories":[],"categories_nodes":[],"categories_segments":[],"categories_sizes":[],"default_left":[0,0,0,0,0,0,0,0,0,0,0,0,0,0,0,0,0,0,0],"id":48,"left_children":[1,3,5,-1,7,-1,9,11,13,15,17,-1,-1,-1,-1,-1,-1,-1,-1],"loss_changes":[2.4839409E1,2.2417637E1,3.2407852E1,0E0,2.2563879E1,0E0,3.0058018E1,5.305252E0,1.1362478E1,7.3209E-1,2.5120567E1,0E0,0E0,0E0,0E0,0E0,0E0,0E0,0E0],"parents":[2147483647,0,0,1,1,2,2,4,4,6,6,7,7,8,8,9,9,10,10],"right_children":[2,4,6,-1,8,-1,10,12,14,16,18,-1,-1,-1,-1,-1,-1,-1,-1],"split_conditions":[6.2926644E-1,8.623482E-2,4.131088E-2,-1.4400274E-2,4.8001617E-2,1.3091351E-2,9.400344E-2,3.0016787E-2,6.357103E-2,3.3234686E-1,5.476083E-3,4.7853203E-3,1.2001068E-2,-1.3281711E-2,5.675197E-3,-6.0318997E-3,-1.4721764E-2,9.757229E-3,-1.3135757E-2],"split_indices":[3,1,14,0,9,0,13,12,14,8,16,0,0,0,0,0,0,0,0],"split_type":[0,0,0,0,0,0,0,0,0,0,0,0,0,0,0,0,0,0,0],"sum_hessian":[1.1906903E2,6.2129776E1,5.6939255E1,5.0898924E0,5.7039883E1,7.531459E0,4.9407795E1,4.542059E1,1.1619293E1,3.0388584E1,1.9019213E1,2.0062319E1,2.535827E1,7.2085557E0,4.410738E0,3.0104985E0,2.7378086E1,1.2605339E1,6.413873E0],"tree_param":{"num_deleted":"0","num_feature":"18","num_nodes":"19","size_leaf_vector":"1"}},{"base_weights":[2.675845E-2,1.9546825E-1,-1.4190986E-2,-2.3314182E-2,1.2617949E0,3.688778E-1,-8.5316855E-1,1.452908E-2,2.0033774E-1,-1.450411E-2,5.6987437E-3,1.3572693E-2,-1.4441661E-2,-1.0382576E-2,1.0909529E-2],"categories":[],"categories_nodes":[],"categories_segments":[],"categories_sizes":[],"default_left":[0,0,0,0,0,0,0,0,0,0,0,0,0,0,0],"id":49,"left_children":[1,3,-1,5,7,9,11,-1,13,-1,-1,-1,-1,-1,-1],"loss_changes":[3.0988073E1,2.6536894E1,0E0,3.1318594E1,3.6366215E0,2.4736683E1,4.229284E1,0E0,5.671E0,0E0,0E0,0E0,0E0,0E0,0E0],"parents":[2147483647,0,0,1,1,3,3,4,4,5,5,6,6,8,8],"right_children":[2,4,-1,6,8,10,12,-1,14,-1,-1,-1,-1,-1,-1],"split_conditions":[1.1047456E0,9.400344E-2,-1.4190986E-2,6.814433E-1,9.842374E-1,8.623482E-2,7.873726E-2,1.452908E-2,2.0003746E-1,-1.450411E-2,5.6987437E-3,1.3572693E-2,-1.4441661E-2,-1.0382576E-2,1.0909529E-2],"split_indices":[4,13,0,3,3,1,1,0,1,0,0,0,0,0,0],"split_type":[0,0,0,0,0,0,0,0,0,0,0,0,0,0,0],"sum_hessian":[1.2489943E2,1.1262285E2,1.2276587E1,9.426107E1,1.8361778E1,6.438703E1,2.9874037E1,1.524768E1,3.1140976E0,5.7873797E0,5.859965E1,6.0287704E0,2.3845266E1,1.2332368E0,1.8808609E0],"tree_param":{"num_deleted":"0","num_feature":"18","num_nodes":"15","size_leaf_vector":"1"}},{"base_weights":[5.231037E-2,2.1665542E-1,-1.3777307E-2,6.076452E-1,-3.0947736E-1,-1.4297045E-2,8.1441665E-1,-1.3257571E0,3.7322843E-1,1.0281392E-2,-2.5724035E-3,-1.5321906E-2,7.1043265E-3,1.0597827E-2,-2.249871E-3],"categories":[],"categories_nodes":[],"categories_segments":[],"categories_sizes":[],"default_left":[0,0,0,0,0,0,0,0,0,0,0,0,0,0,0],"id":50,"left_children":[1,3,-1,5,7,-1,9,11,13,-1,-1,-1,-1,-1,-1],"loss_changes":[2.9370958E1,2.3189852E1,0E0,2.8329E1,3.4028446E1,0E0,1.3818684E1,9.344341E0,1.2432725E1,0E0,0E0,0E0,0E0,0E0,0E0],"parents":[2147483647,0,0,1,1,3,3,4,4,6,6,7,7,8,8],"right_children":[2,4,-1,6,8,-1,10,12,14,-1,-1,-1,-1,-1,-1],"split_conditions":[1.7276037E-2,6.383691E-1,-1.3777307E-2,2.081861E-2,9.326326E-1,-1.4297045E-2,4.8001617E-2,1.9878952E-1,3.0296713E-2,1.0281392E-2,-2.5724035E-3,-1.5321906E-2,7.1043265E-3,1.0597827E-2,-2.249871E-3],"split_indices":[15,3,0,12,3,0,9,1,9,0,0,0,0,0,0],"split_type":[0,0,0,0,0,0,0,0,0,0,0,0,0,0,0],"sum_hessian":[1.22701996E2,1.1081524E2,1.1886757E1,6.3483356E1,4.7331886E1,5.304353E0,5.8179E1,1.8640947E1,2.8690937E1,4.8539318E1,9.639683E0,1.7149786E1,1.4911623E0,1.2999837E1,1.5691101E1],"tree_param":{"num_deleted":"0","num_feature":"18","num_nodes":"15","size_leaf_vector":"1"}},{"base_weights":[4.350848E-2,2.2135052E-1,-1.3823668E-2,1.5842054E-2,1.143904E0,3.8982978E-1,-8.380687E-1,1.5160863E-2,-2.0143788E-1,1.1646773E-3,1.1970568E-2,-1.0589425E-3,-1.428695E-2,1.1187277E-2,-1.2526331E-2],"categories":[],"categories_nodes":[],"categories_segments":[],"categories_sizes":[],"default_left":[0,0,0,0,0,0,0,0,0,0,0,0,0,0,0],"id":51,"left_children":[1,3,-1,5,7,9,11,-1,13,-1,-1,-1,-1,-1,-1],"loss_changes":[3.2345818E1,2.1443811E1,0E0,3.0215416E1,1.0624382E1,1.4373402E1,1.2313065E1,0E0,8.8238E0,0E0,0E0,0E0,0E0,0E0,0E0],"parents":[2147483647,0,0,1,1,3,3,4,4,5,5,6,6,8,8],"right_children":[2,4,-1,6,8,10,12,-1,14,-1,-1,-1,-1,-1,-1],"split_conditions":[1.7276037E-2,9.50048E-2,-1.3823668E-2,6.65883E-2,1.2237267E-1,7.800991E-1,6.5550023E-1,1.5160863E-2,1.5626231E-1,1.1646773E-3,1.1970568E-2,-1.0589425E-3,-1.428695E-2,1.1187277E-2,-1.2526331E-2],"split_indices":[15,13,0,13,10,5,2,0,1,0,0,0,0,0,0],"split_type":[0,0,0,0,0,0,0,0,0,0,0,0,0,0,0],"sum_hessian":[1.253497E2,1.122003E2,1.3149402E1,9.25917E1,1.9608603E1,6.4768486E1,2.7823212E1,1.5260063E1,4.348539E0,4.9238483E1,1.5530004E1,1.2949525E1,1.4873686E1,1.8991756E0,2.449363E0],"tree_param":{"num_deleted":"0","num_feature":"18","num_nodes":"15","size_leaf_vector":"1"}},{"base_weights":[4.4558056E-2,2.0562342E-1,-1.3630685E-2,4.114841E-2,1.0352348E0,4.474944E-1,-5.976054E-1,1.4740397E-2,3.6462927E-1,-1.4284054E-2,6.6336803E-3,1.3027008E-2,-1.12444395E-2,1.31662525E-2,-8.935796E-3],"categories":[],"categories_nodes":[],"categories_segments":[],"categories_sizes":[],"default_left":[0,0,0,0,0,0,0,0,0,0,0,0,0,0,0],"id":52,"left_children":[1,3,-1,5,7,9,11,-1,13,-1,-1,-1,-1,-1,-1],"loss_changes":[2.819095E1,1.5149152E1,0E0,2.4654165E1,4.870949E0,2.443374E1,3.8466743E1,0E0,1.1475616E1,0E0,0E0,0E0,0E0,0E0,0E0],"parents":[2147483647,0,0,1,1,3,3,4,4,5,5,6,6,8,8],"right_children":[2,4,-1,6,8,10,12,-1,14,-1,-1,-1,-1,-1,-1],"split_conditions":[1.7276037E-2,9.50048E-2,-1.3630685E-2,6.383691E-1,4.4294964E-3,2.2300312E-2,9.07455E-2,1.4740397E-2,1.6504557E-1,-1.4284054E-2,6.6336803E-3,1.3027008E-2,-1.12444395E-2,1.31662525E-2,-8.935796E-3],"split_indices":[15,13,0,3,16,12,1,0,1,0,0,0,0,0,0],"split_type":[0,0,0,0,0,0,0,0,0,0,0,0,0,0,0],"sum_hessian":[1.221064E2,1.1033538E2,1.1771022E1,9.295595E1,1.7379429E1,5.699669E1,3.5959263E1,9.781145E0,7.598283E0,5.302462E0,5.1694225E1,7.4856944E0,2.8473568E1,4.299063E0,3.2992196E0],"tree_param":{"num_deleted":"0","num_feature":"18","num_nodes":"15","size_leaf_vector":"1"}},{"base_weights":[-8.9276336E-2,6.1495766E-2,-1.3936575E-2,-2.6503146E-1,7.007912E-1,5.3661615E-1,-7.224253E-1,9.552332E-1,-2.3221235E-1,1.2261395E-2,2.4142397E-4,-2.149651E-3,-1.3811811E-2,-1.2162042E-2,1.0941673E-2,1.0609265E-2,-1.3650272E-2],"categories":[],"categories_nodes":[],"categories_segments":[],"categories_sizes":[],"default_left":[0,0,0,0,0,0,0,0,0,0,0,0,0,0,0,0,0],"id":53,"left_children":[1,3,-1,5,7,9,11,13,15,-1,-1,-1,-1,-1,-1,-1,-1],"loss_changes":[2.360954E1,2.2767683E1,0E0,2.690911E1,8.969257E0,9.458418E0,1.5241056E1,1.0124163E1,1.4192746E1,0E0,0E0,0E0,0E0,0E0,0E0,0E0,0E0],"parents":[2147483647,0,0,1,1,3,3,4,4,5,5,6,6,7,7,8,8],"right_children":[2,4,-1,6,8,10,12,14,16,-1,-1,-1,-1,-1,-1,-1,-1],"split_conditions":[1.1047456E0,7.453331E-1,-1.3936575E-2,5.7198143E-1,9.919003E-1,7.014224E-1,6.673407E-1,3.0016787E-2,4.1935747E-3,1.2261395E-2,2.4142397E-4,-2.149651E-3,-1.3811811E-2,-1.2162042E-2,1.0941673E-2,1.0609265E-2,-1.3650272E-2],"split_indices":[4,4,0,5,3,8,3,12,16,0,0,0,0,0,0,0,0],"split_type":[0,0,0,0,0,0,0,0,0,0,0,0,0,0,0,0,0],"sum_hessian":[1.18614174E2,1.0717838E2,1.1435787E1,7.133081E1,3.5847572E1,2.5850658E1,4.5480152E1,2.8147549E1,7.700024E0,1.0427745E1,1.54229145E1,2.6439388E1,1.9040766E1,1.2263765E0,2.6921173E1,3.625209E0,4.074815E0],"tree_param":{"num_deleted":"0","num_feature":"18","num_nodes":"17","size_leaf_vector":"1"}}]},"name":"gbtree"},"learner_model_param":{"base_score":"5E-1","boost_from_average":"1","num_class":"0","num_feature":"18","num_target":"1"},"objective":{"name":"binary:logistic","reg_loss_param":{"scale_pos_weight":"2.60975599"}}},"version":[2,1,4]}