{"learner":{"attributes":{"scikit_learn":"{\"_estimator_type\": \"classifier\"}"},"feature_names":["acc_Y_rms","acc_Y_peak","acc_Y_crest","acc_Sum_rms","acc_Sum_peak","acc_Sum_crest","Gyro_Y_rms","Gyro_Y_peak","Gyro_Y_crest","acc_Y_rms_high","Gyro_Y_rms_high","Gyro_Y_rms_low"],"feature_types":["float","float","float","float","float","float","float","float","float","float","float","float"],"gradient_booster":{"model":{"gbtree_model_param":{"num_parallel_tree":"1","num_trees":"100"},"iteration_indptr":[0,1,2,3,4,5,6,7,8,9,10,11,12,13,14,15,16,17,18,19,20,21,22,23,24,25,26,27,28,29,30,31,32,33,34,35,36,37,38,39,40,41,42,43,44,45,46,47,48,49,50,51,52,53,54,55,56,57,58,59,60,61,62,63,64,65,66,67,68,69,70,71,72,73,74,75,76,77,78,79,80,81,82,83,84,85,86,87,88,89,90,91,92,93,94,95,96,97,98,99,100],"tree_info":[0,0,0,0,0,0,0,0,0,0,0,0,0,0,0,0,0,0,0,0,0,0,0,0,0,0,0,0,0,0,0,0,0,0,0,0,0,0,0,0,0,0,0,0,0,0,0,0,0,0,0,0,0,0,0,0,0,0,0,0,0,0,0,0,0,0,0,0,0,0,0,0,0,0,0,0,0,0,0,0,0,0,0,0,0,0,0,0,0,0,0,0,0,0,0,0,0,0,0,0],"trees":[{"base_weights":[2.0272722E-2,3.0937004E-1,-1.2455412E0,8.456006E-1,9.436552E-4,-1.443038E-1,-1.5531662E-2,-3.8182776E-4,1.2035473E-1,-1.00166395E-1,5.7195228E-2],"categories":[],"categories_nodes":[],"categories_segments":[],"categories_sizes":[],"default_left":[0,0,0,0,0,0,0,0,0,0,0],"id":0,"left_children":[1,3,5,7,9,-1,-1,-1,-1,-1,-1],"loss_changes":[4.941998E1,1.7736412E1,2.6547165E0,1.3338226E1,4.6824318E1,0E0,0E0,0E0,0E0,0E0,0E0],"parents":[2147483647,0,0,1,1,2,2,3,3,4,4],"right_children":[2,4,6,8,10,-1,-1,-1,-1,-1,-1],"split_conditions":[1.9704264E0,1.9019273E-1,3.5512612E0,7.1760863E-1,6.783391E-1,-1.443038E-1,-1.5531662E-2,-3.8182776E-4,1.2035473E-1,-1.00166395E-1,5.7195228E-2],"split_indices":[7,3,5,7,1,0,0,0,0,0,0],"split_type":[0,0,0,0,0,0,0,0,0,0,0],"sum_hessian":[1.2734146E2,1.0738414E2,1.9957317E1,3.484756E1,7.253658E1,1.475E1,5.207317E0,1.0969512E1,2.3878048E1,2.4317074E1,4.821951E1],"tree_param":{"num_deleted":"0","num_feature":"12","num_nodes":"11","size_leaf_vector":"1"}},{"base_weights":[5.6359164E-2,3.654736E-1,-1.3590126E-1,4.6802297E-1,-7.530488E-2,6.593267E-3,8.670478E-2],"categories":[],"categories_nodes":[],"categories_segments":[],"categories_sizes":[],"default_left":[0,0,0,0,0,0,0],"id":1,"left_children":[1,3,-1,5,-1,-1,-1],"loss_changes":[5.9698845E1,1.4520995E1,0E0,1.6120283E1,0E0,0E0,0E0],"parents":[2147483647,0,0,1,1,3,3],"right_children":[2,4,-1,6,-1,-1,-1],"split_conditions":[1.9704264E0,1.2514749E0,-1.3590126E-1,7.770529E-1,-7.530488E-2,6.593267E-3,8.670478E-2],"split_indices":[7,4,0,4,0,0,0],"split_type":[0,0,0,0,0,0,0],"sum_hessian":[1.2804547E2,1.0871728E2,1.9328201E1,1.0306946E2,5.647819E0,5.5487732E1,4.7581722E1],"tree_param":{"num_deleted":"0","num_feature":"12","num_nodes":"7","size_leaf_vector":"1"}},{"base_weights":[-4.72441E-2,1.8846393E-1,-1.1524717E-1,7.862294E-1,-7.466334E-2,-2.2413103E-2,1.19097106E-1,-1.1422875E-1,3.1978816E-2],"categories":[],"categories_nodes":[],"categories_segments":[],"categories_sizes":[],"default_left":[0,0,0,0,0,0,0,0,0],"id":2,"left_children":[1,3,-1,5,7,-1,-1,-1,-1],"loss_changes":[3.5472115E1,1.8195833E1,0E0,1.6614439E1,3.6041718E1,0E0,0E0,0E0,0E0],"parents":[2147483647,0,0,1,1,3,3,4,4],"right_children":[2,4,-1,6,8,-1,-1,-1,-1],"split_conditions":[1.9704264E0,1.8789662E-1,-1.1524717E-1,6.9397604E-1,7.586725E-1,-2.2413103E-2,1.19097106E-1,-1.1422875E-1,3.1978816E-2],"split_indices":[7,3,0,7,4,0,0,0,0],"split_type":[0,0,0,0,0,0,0,0,0],"sum_hessian":[1.2329443E2,1.0429451E2,1.899992E1,3.000051E1,7.429401E1,8.512113E0,2.1488398E1,1.8170195E1,5.612381E1],"tree_param":{"num_deleted":"0","num_feature":"12","num_nodes":"9","size_leaf_vector":"1"}},{"base_weights":[3.65334E-2,2.2839127E-1,-1.2506668E-1,7.305894E-1,3.3512083E-3,9.819131E-2,4.34608E-3,-9.051095E-2,3.6273655E-2],"categories":[],"categories_nodes":[],"categories_segments":[],"categories_sizes":[],"default_left":[0,0,0,0,0,0,0,0,0],"id":3,"left_children":[1,3,-1,5,7,-1,-1,-1,-1],"loss_changes":[3.4060966E1,1.3211605E1,0E0,5.1196938E0,3.1033066E1,0E0,0E0,0E0,0E0],"parents":[2147483647,0,0,1,1,3,3,4,4],"right_children":[2,4,-1,6,8,-1,-1,-1,-1],"split_conditions":[1.7276037E-2,5.783186E-1,-1.2506668E-1,3.0399182E0,7.586725E-1,9.819131E-2,4.34608E-3,-9.051095E-2,3.6273655E-2],"split_indices":[11,4,0,5,4,0,0,0,0],"split_type":[0,0,0,0,0,0,0,0,0],"sum_hessian":[1.3127757E2,1.1850417E2,1.2773394E1,3.1819616E1,8.6684555E1,2.0661942E1,1.1157676E1,2.1630812E1,6.505374E1],"tree_param":{"num_deleted":"0","num_feature":"12","num_nodes":"9","size_leaf_vector":"1"}},{"base_weights":[-5.9894655E-2,1.5296908E-1,-1.0837779E-1,2.7993357E-1,-9.753203E-2,8.202238E-2,4.3818327E-3],"categories":[],"categories_nodes":[],"categories_segments":[],"categories_sizes":[],"default_left":[0,0,0,0,0,0,0],"id":4,"left_children":[1,3,-1,5,-1,-1,-1],"loss_changes":[3.0974964E1,1.7079107E1,0E0,1.2688461E1,0E0,0E0,0E0],"parents":[2147483647,0,0,1,1,3,3],"right_children":[2,4,-1,6,-1,-1,-1],"split_conditions":[1.9704264E0,1.7276037E-2,-1.0837779E-1,2.9125528E0,-9.753203E-2,8.202238E-2,4.3818327E-3],"split_indices":[7,11,0,5,0,0,0],"split_type":[0,0,0,0,0,0,0],"sum_hessian":[1.2904704E2,1.09548416E2,1.9498623E1,1.0264385E2,6.9045653E0,2.6165758E1,7.6478096E1],"tree_param":{"num_deleted":"0","num_feature":"12","num_nodes":"7","size_leaf_vector":"1"}},{"base_weights":[-3.915681E-2,1.18343204E-1,-1.1704941E-1,-1.9903992E-1,7.20544E-1,4.886051E-2,-6.2160403E-2,3.4989815E-2,1.236367E-1],"categories":[],"categories_nodes":[],"categories_segments":[],"categories_sizes":[],"default_left":[0,0,0,0,0,0,0,0,0],"id":5,"left_children":[1,3,-1,5,7,-1,-1,-1,-1],"loss_changes":[2.558857E1,2.4408493E1,0E0,2.55418E1,4.6648293E0,0E0,0E0,0E0,0E0],"parents":[2147483647,0,0,1,1,3,3,4,4],"right_children":[2,4,-1,6,8,-1,-1,-1,-1],"split_conditions":[1.1047456E0,7.453331E-1,-1.1704941E-1,5.7198143E-1,1.2311485E0,4.886051E-2,-6.2160403E-2,3.4989815E-2,1.236367E-1],"split_indices":[1,1,0,4,4,0,0,0,0],"split_type":[0,0,0,0,0,0,0,0,0],"sum_hessian":[1.2881448E2,1.1622693E2,1.2587558E1,7.721726E1,3.9009666E1,2.819202E1,4.902524E1,2.871019E1,1.0299477E1],"tree_param":{"num_deleted":"0","num_feature":"12","num_nodes":"9","size_leaf_vector":"1"}},{"base_weights":[-2.5198126E-2,6.245059E-1,-3.1561244E-1,-2.5549415E-2,9.802812E-2,-6.3904005E-1,1.726883E-1,-8.373516E-2,-0E0,5.866884E-2,-3.4678552E-2],"categories":[],"categories_nodes":[],"categories_segments":[],"categories_sizes":[],"default_left":[0,0,0,0,0,0,0,0,0,0,0],"id":6,"left_children":[1,3,5,-1,-1,7,9,-1,-1,-1,-1],"loss_changes":[2.4617464E1,1.4441144E1,1.5559192E1,0E0,0E0,7.3230095E0,9.728516E0,0E0,0E0,0E0,0E0],"parents":[2147483647,0,0,1,1,2,2,5,5,6,6],"right_children":[2,4,6,-1,-1,8,10,-1,-1,-1,-1],"split_conditions":[1.8868811E-1,6.9397604E-1,3.4187784E0,-2.5549415E-2,9.802812E-2,4.6889153E0,6.766357E-1,-8.373516E-2,-0E0,5.866884E-2,-3.4678552E-2],"split_indices":[3,7,5,0,0,2,6,0,0,0,0],"split_type":[0,0,0,0,0,0,0,0,0,0,0],"sum_hessian":[1.2188376E2,3.4810863E1,8.707289E1,9.618458E0,2.5192406E1,5.2682724E1,3.439017E1,3.904007E1,1.3642653E1,1.9849209E1,1.454096E1],"tree_param":{"num_deleted":"0","num_feature":"12","num_nodes":"11","size_leaf_vector":"1"}},{"base_weights":[-1.727827E-2,1.2819423E-1,-1.082072E-1,-1.0090928E-1,1.0394474E0,-3.482123E-2,4.395617E-2,1.3425599E-2,1.1917799E-1],"categories":[],"categories_nodes":[],"categories_segments":[],"categories_sizes":[],"default_left":[0,0,0,0,0,0,0,0,0],"id":7,"left_children":[1,3,-1,5,7,-1,-1,-1,-1],"loss_changes":[2.1698948E1,2.6000706E1,0E0,1.3719369E1,1.3118916E0,0E0,0E0,0E0,0E0],"parents":[2147483647,0,0,1,1,3,3,4,4],"right_children":[2,4,-1,6,8,-1,-1,-1,-1],"split_conditions":[1.1047456E0,3.1106475E-1,-1.082072E-1,3.5082104E0,4.3226285E0,-3.482123E-2,4.395617E-2,1.3425599E-2,1.1917799E-1],"split_indices":[1,3,0,5,2,0,0,0,0],"split_type":[0,0,0,0,0,0,0,0,0],"sum_hessian":[1.2444949E2,1.1253394E2,1.19155445E1,9.260141E1,1.9932537E1,6.602106E1,2.6580355E1,5.17181E0,1.4760726E1],"tree_param":{"num_deleted":"0","num_feature":"12","num_nodes":"9","size_leaf_vector":"1"}},{"base_weights":[1.4224429E-2,1.6875875E-1,-1.0302388E-1,3.0331487E-2,1.0150164E-1,3.3501413E-2,-4.5483384E-2],"categories":[],"categories_nodes":[],"categories_segments":[],"categories_sizes":[],"default_left":[0,0,0,0,0,0,0],"id":8,"left_children":[1,3,-1,5,-1,-1,-1],"loss_changes":[2.1101791E1,1.2738126E1,0E0,1.6668785E1,0E0,0E0,0E0],"parents":[2147483647,0,0,1,1,3,3],"right_children":[2,4,-1,6,-1,-1,-1],"split_conditions":[1.3194011E0,1.2311485E0,-1.0302388E-1,1.1741031E0,1.0150164E-1,3.3501413E-2,-4.5483384E-2],"split_indices":[4,4,0,7,0,0,0],"split_type":[0,0,0,0,0,0,0],"sum_hessian":[1.2568932E2,1.1397555E2,1.17137785E1,1.034195E2,1.0556043E1,6.5742165E1,3.767734E1],"tree_param":{"num_deleted":"0","num_feature":"12","num_nodes":"7","size_leaf_vector":"1"}},{"base_weights":[-0E0,1.4696166E-1,-1.0345586E-1,2.7719212E-1,-7.094903E-2,-5.328217E-4,5.784275E-2],"categories":[],"categories_nodes":[],"categories_segments":[],"categories_sizes":[],"default_left":[0,0,0,0,0,0,0],"id":9,"left_children":[1,3,-1,5,-1,-1,-1],"loss_changes":[2.0934282E1,1.3747316E1,0E0,9.720868E0,0E0,0E0,0E0],"parents":[2147483647,0,0,1,1,3,3],"right_children":[2,4,-1,6,-1,-1,-1],"split_conditions":[1.6443728E-2,1.9704264E0,-1.0345586E-1,7.770529E-1,-7.094903E-2,-5.328217E-4,5.784275E-2],"split_indices":[11,7,0,4,0,0,0],"split_type":[0,0,0,0,0,0,0],"sum_hessian":[1.2548565E2,1.1331404E2,1.2171607E1,1.0230681E2,1.100723E1,5.3614838E1,4.869197E1],"tree_param":{"num_deleted":"0","num_feature":"12","num_nodes":"7","size_leaf_vector":"1"}},{"base_weights":[-0E0,1.3669643E-1,-9.625573E-2,2.507179E-1,-6.5317266E-2,9.597217E-3,9.690636E-2],"categories":[],"categories_nodes":[],"categories_segments":[],"categories_sizes":[],"default_left":[0,0,0,0,0,0,0],"id":10,"left_children":[1,3,-1,5,-1,-1,-1],"loss_changes":[1.754452E1,1.1301763E1,0E0,1.0735278E1,0E0,0E0,0E0],"parents":[2147483647,0,0,1,1,3,3],"right_children":[2,4,-1,6,-1,-1,-1],"split_conditions":[1.7276037E-2,1.9704264E0,-9.625573E-2,1.8587228E0,-6.5317266E-2,9.597217E-3,9.690636E-2],"split_indices":[11,7,0,7,0,0,0],"split_type":[0,0,0,0,0,0,0],"sum_hessian":[1.2736406E2,1.1586567E2,1.1498393E1,1.05338486E2,1.0527181E1,9.247718E1,1.2861303E1],"tree_param":{"num_deleted":"0","num_feature":"12","num_nodes":"7","size_leaf_vector":"1"}},{"base_weights":[2.5402846E-2,5.5567604E-1,-1.872165E-1,5.9871547E-2,8.1401306E-1,-1.02842204E-1,3.8511097E-2,-6.912634E-2,8.018156E-2,1.0019815E-2,9.6291184E-2,2.518957E-2,-8.680113E-2],"categories":[],"categories_nodes":[],"categories_segments":[],"categories_sizes":[],"default_left":[0,0,0,0,0,0,0,0,0,0,0,0,0],"id":11,"left_children":[1,3,5,7,9,-1,11,-1,-1,-1,-1,-1,-1],"loss_changes":[1.469339E1,3.7047367E0,1.8237875E1,1.3816128E1,9.0217495E-1,0E0,1.4922486E1,0E0,0E0,0E0,0E0,0E0,0E0],"parents":[2147483647,0,0,1,1,2,2,3,3,4,4,6,6],"right_children":[2,4,6,8,10,-1,12,-1,-1,-1,-1,-1,-1],"split_conditions":[1.9316652E-1,9.785142E-4,7.586725E-1,4.3834156E-1,1.6412705E0,-1.02842204E-1,1.3194011E0,-6.912634E-2,8.018156E-2,1.0019815E-2,9.6291184E-2,2.518957E-2,-8.680113E-2],"split_indices":[3,10,4,6,8,0,4,0,0,0,0,0,0],"split_type":[0,0,0,0,0,0,0,0,0,0,0,0,0],"sum_hessian":[1.17440994E2,3.264933E1,8.4791664E1,1.4620032E1,1.8029297E1,1.5114674E1,6.967699E1,6.764981E0,7.855052E0,5.714555E0,1.2314742E1,6.0216503E1,9.460485E0],"tree_param":{"num_deleted":"0","num_feature":"12","num_nodes":"13","size_leaf_vector":"1"}},{"base_weights":[4.7248546E-3,1.2676635E-1,-8.76144E-2,-1.1581811E-2,6.126862E-1,2.6064325E-2,-6.607749E-2,1.11832194E-1,-5.93007E-2],"categories":[],"categories_nodes":[],"categories_segments":[],"categories_sizes":[],"default_left":[0,0,0,0,0,0,0,0,0],"id":12,"left_children":[1,3,-1,5,7,-1,-1,-1,-1],"loss_changes":[1.3338742E1,8.430117E0,0E0,1.779288E1,2.053724E1,0E0,0E0,0E0,0E0],"parents":[2147483647,0,0,1,1,3,3,4,4],"right_children":[2,4,-1,6,8,-1,-1,-1,-1],"split_conditions":[2.115089E0,3.0967027E-1,-8.76144E-2,1.1741031E0,2.3517366E-1,2.6064325E-2,-6.607749E-2,1.11832194E-1,-5.93007E-2],"split_indices":[7,3,0,7,0,0,0,0,0],"split_type":[0,0,0,0,0,0,0,0,0],"sum_hessian":[1.2088344E2,1.1093012E2,9.953316E0,8.854344E1,2.238668E1,6.3407196E1,2.5136244E1,1.6611841E1,5.7748384E0],"tree_param":{"num_deleted":"0","num_feature":"12","num_nodes":"9","size_leaf_vector":"1"}},{"base_weights":[2.5597569E-3,6.28585E-1,-2.3064217E-1,-6.9134175E-3,9.409985E-2,-8.888038E-1,-2.8002823E-2,-0E0,-1.1617037E-1,7.167425E-2,-2.9614065E-2],"categories":[],"categories_nodes":[],"categories_segments":[],"categories_sizes":[],"default_left":[0,0,0,0,0,0,0,0,0,0,0],"id":13,"left_children":[1,3,5,-1,-1,7,9,-1,-1,-1,-1],"loss_changes":[1.8610945E1,8.830243E0,1.0931538E1,0E0,0E0,4.093773E0,1.5610375E1,0E0,0E0,0E0,0E0],"parents":[2147483647,0,0,1,1,2,2,5,5,6,6],"right_children":[2,4,6,-1,-1,8,10,-1,-1,-1,-1],"split_conditions":[5.783186E-1,6.9397604E-1,9.4115585E-3,-6.9134175E-3,9.409985E-2,7.913203E-3,1.074143E-2,-0E0,-1.1617037E-1,7.167425E-2,-2.9614065E-2],"split_indices":[4,7,11,0,0,11,11,0,0,0,0],"split_type":[0,0,0,0,0,0,0,0,0,0,0],"sum_hessian":[1.1478956E2,3.0017944E1,8.4771614E1,9.498166E0,2.0519777E1,1.4808584E1,6.9963036E1,5.180062E0,9.628522E0,1.5319351E1,5.464368E1],"tree_param":{"num_deleted":"0","num_feature":"12","num_nodes":"11","size_leaf_vector":"1"}},{"base_weights":[5.4944605E-2,1.9148631E-1,-8.62084E-2,4.6374354E-1,-1.7011286E-1,6.355287E-2,-1.5069182E-2,-6.2049575E-2,5.688433E-2],"categories":[],"categories_nodes":[],"categories_segments":[],"categories_sizes":[],"default_left":[0,0,0,0,0,0,0,0,0],"id":14,"left_children":[1,3,-1,5,7,-1,-1,-1,-1],"loss_changes":[1.5027731E1,1.1362582E1,0E0,7.8007317E0,1.8008825E1,0E0,0E0,0E0,0E0],"parents":[2147483647,0,0,1,1,3,3,4,4],"right_children":[2,4,-1,6,8,-1,-1,-1,-1],"split_conditions":[1.7276037E-2,1.1741031E0,-8.62084E-2,2.5083238E-1,3.1106475E-1,6.355287E-2,-1.5069182E-2,-6.2049575E-2,5.688433E-2],"split_indices":[11,7,0,3,3,0,0,0,0],"split_type":[0,0,0,0,0,0,0,0,0],"sum_hessian":[1.1378145E2,1.03427895E2,1.0353558E1,5.9774925E1,4.365297E1,4.7852177E1,1.1922748E1,2.846113E1,1.5191838E1],"tree_param":{"num_deleted":"0","num_feature":"12","num_nodes":"9","size_leaf_vector":"1"}},{"base_weights":[9.946472E-3,1.2931882E-1,-8.552148E-2,-7.508355E-2,5.4699296E-1,3.187412E-2,-4.5496754E-2,2.2300776E-2,7.4886955E-2],"categories":[],"categories_nodes":[],"categories_segments":[],"categories_sizes":[],"default_left":[0,0,0,0,0,0,0,0,0],"id":15,"left_children":[1,3,-1,5,7,-1,-1,-1,-1],"loss_changes":[1.2454128E1,1.0307343E1,0E0,1.2609201E1,7.618675E-1,0E0,0E0,0E0,0E0],"parents":[2147483647,0,0,1,1,3,3,4,4],"right_children":[2,4,-1,6,8,-1,-1,-1,-1],"split_conditions":[1.1047456E0,7.453331E-1,-8.552148E-2,1.2494198E-1,1.8587228E0,3.187412E-2,-4.5496754E-2,2.2300776E-2,7.4886955E-2],"split_indices":[1,1,0,0,7,0,0,0,0],"split_type":[0,0,0,0,0,0,0,0,0],"sum_hessian":[1.1726468E2,1.0779933E2,9.465341E0,7.3524635E1,3.4274704E1,3.520258E1,3.8322052E1,1.909947E1,1.5175232E1],"tree_param":{"num_deleted":"0","num_feature":"12","num_nodes":"9","size_leaf_vector":"1"}},{"base_weights":[4.0096626E-2,1.5367462E-1,-7.880335E-2,2.3866111E-1,-6.343822E-2,-8.112747E-3,4.3549486E-2],"categories":[],"categories_nodes":[],"categories_segments":[],"categories_sizes":[],"default_left":[0,0,0,0,0,0,0],"id":16,"left_children":[1,3,-1,5,-1,-1,-1],"loss_changes":[1.0754495E1,7.464919E0,0E0,6.858196E0,0E0,0E0,0E0],"parents":[2147483647,0,0,1,1,3,3],"right_children":[2,4,-1,6,-1,-1,-1],"split_conditions":[2.115089E0,1.7276037E-2,-7.880335E-2,9.457766E-3,-6.343822E-2,-8.112747E-3,4.3549486E-2],"split_indices":[7,11,0,11,0,0,0],"split_type":[0,0,0,0,0,0,0],"sum_hessian":[1.09646545E2,1.0106516E2,8.581381E0,9.551882E1,5.546341E0,3.557697E1,5.9941853E1],"tree_param":{"num_deleted":"0","num_feature":"12","num_nodes":"7","size_leaf_vector":"1"}},{"base_weights":[-2.796036E-2,8.572363E-2,-6.995722E-2,-7.143237E-2,8.4889166E-2,1.7094618E-2,-7.505494E-2],"categories":[],"categories_nodes":[],"categories_segments":[],"categories_sizes":[],"default_left":[0,0,0,0,0,0,0],"id":17,"left_children":[1,3,-1,5,-1,-1,-1],"loss_changes":[9.58686E0,1.3114022E1,0E0,1.5496165E1,0E0,0E0,0E0],"parents":[2147483647,0,0,1,1,3,3],"right_children":[2,4,-1,6,-1,-1,-1],"split_conditions":[1.9704264E0,1.8587228E0,-6.995722E-2,1.2119559E0,8.4889166E-2,1.7094618E-2,-7.505494E-2],"split_indices":[7,7,0,7,0,0,0],"split_type":[0,0,0,0,0,0,0],"sum_hessian":[1.0859515E2,9.533125E1,1.32639065E1,8.172387E1,1.360738E1,6.190038E1,1.982349E1],"tree_param":{"num_deleted":"0","num_feature":"12","num_nodes":"7","size_leaf_vector":"1"}},{"base_weights":[-7.8434E-2,2.2047493E-3,-7.6276734E-2,-2.8717214E-1,3.2773763E-1,2.2926545E-2,-8.983401E-2,-2.4541108E-2,4.4046972E-2],"categories":[],"categories_nodes":[],"categories_segments":[],"categories_sizes":[],"default_left":[0,0,0,0,0,0,0,0,0],"id":18,"left_children":[1,3,-1,5,7,-1,-1,-1,-1],"loss_changes":[7.337781E0,1.0888929E1,0E0,2.0434746E1,4.341244E0,0E0,0E0,0E0,0E0],"parents":[2147483647,0,0,1,1,3,3,4,4],"right_children":[2,4,-1,6,8,-1,-1,-1,-1],"split_conditions":[2.115089E0,6.783391E-1,-7.6276734E-2,5.878288E-1,9.786856E-3,2.2926545E-2,-8.983401E-2,-2.4541108E-2,4.4046972E-2],"split_indices":[7,1,0,4,11,0,0,0,0],"split_type":[0,0,0,0,0,0,0,0,0],"sum_hessian":[1.1403515E2,1.05165535E2,8.8696165E0,5.436024E1,5.080529E1,3.0270117E1,2.4090124E1,5.925215E0,4.4880077E1],"tree_param":{"num_deleted":"0","num_feature":"12","num_nodes":"9","size_leaf_vector":"1"}},{"base_weights":[2.6903069E-3,1.0881138E-1,-7.555659E-2,-2.7569214E-1,3.3990943E-1,4.3605603E-2,-7.921986E-2,8.51837E-2,5.2882833E-3],"categories":[],"categories_nodes":[],"categories_segments":[],"categories_sizes":[],"default_left":[0,0,0,0,0,0,0,0,0],"id":19,"left_children":[1,3,-1,5,7,-1,-1,-1,-1],"loss_changes":[9.152671E0,1.0118478E1,0E0,1.7388767E1,9.338294E0,0E0,0E0,0E0,0E0],"parents":[2147483647,0,0,1,1,3,3,4,4],"right_children":[2,4,-1,6,8,-1,-1,-1,-1],"split_conditions":[1.7276037E-2,9.485841E-3,-7.555659E-2,5.036354E-1,8.992236E-2,4.3605603E-2,-7.921986E-2,8.51837E-2,5.2882833E-3],"split_indices":[11,11,0,4,9,0,0,0,0],"split_type":[0,0,0,0,0,0,0,0,0],"sum_hessian":[1.1167341E2,1.0287669E2,8.796712E0,3.663349E1,6.624321E1,1.4918476E1,2.1715014E1,1.9011742E1,4.7231464E1],"tree_param":{"num_deleted":"0","num_feature":"12","num_nodes":"9","size_leaf_vector":"1"}},{"base_weights":[2.6747685E-2,1.3042474E-1,-7.866871E-2,-6.38185E-2,5.7599777E-1,3.58611E-2,-3.857639E-2,-0E0,7.105359E-2],"categories":[],"categories_nodes":[],"categories_segments":[],"categories_sizes":[],"default_left":[0,0,0,0,0,0,0,0,0],"id":20,"left_children":[1,3,-1,5,7,-1,-1,-1,-1],"loss_changes":[9.905884E0,1.0308756E1,0E0,1.1637696E1,2.5546446E0,0E0,0E0,0E0,0E0],"parents":[2147483647,0,0,1,1,3,3,4,4],"right_children":[2,4,-1,6,8,-1,-1,-1,-1],"split_conditions":[1.1047456E0,3.504551E0,-7.866871E-2,2.9781392E0,7.800991E-1,3.58611E-2,-3.857639E-2,-0E0,7.105359E-2],"split_indices":[1,5,0,5,4,0,0,0,0],"split_type":[0,0,0,0,0,0,0,0,0],"sum_hessian":[1.1415795E2,1.0606678E2,8.091172E0,7.5286095E1,3.0780684E1,3.0971874E1,4.4314224E1,7.207036E0,2.3573647E1],"tree_param":{"num_deleted":"0","num_feature":"12","num_nodes":"9","size_leaf_vector":"1"}},{"base_weights":[-5.7325126E-3,1.8889874E-1,-4.8415875E-1,5.388932E-1,-4.515199E-2,-7.332377E-1,-0E0,6.963519E-2,-6.8656364E-3,-3.949782E-2,3.5196017E-2,-1.1378071E-2,-9.003262E-2,5.3534627E-2,-5.7683438E-2],"categories":[],"categories_nodes":[],"categories_segments":[],"categories_sizes":[],"default_left":[0,0,0,0,0,0,0,0,0,0,0,0,0,0,0],"id":21,"left_children":[1,3,5,7,9,11,13,-1,-1,-1,-1,-1,-1,-1,-1],"loss_changes":[1.1523127E1,7.5234466E0,4.3401537E0,4.3004427E0,8.161583E0,9.4906044E-1,6.926283E0,0E0,0E0,0E0,0E0,0E0,0E0,0E0,0E0],"parents":[2147483647,0,0,1,1,2,2,3,3,4,4,5,5,6,6],"right_children":[2,4,6,8,10,12,14,-1,-1,-1,-1,-1,-1,-1,-1],"split_conditions":[1.3658245E-2,3.0399182E0,1.9018408E0,1.0114521E-1,7.27871E-1,9.805871E-2,1.9704264E0,6.963519E-2,-6.8656364E-3,-3.949782E-2,3.5196017E-2,-1.1378071E-2,-9.003262E-2,5.3534627E-2,-5.7683438E-2],"split_indices":[11,5,7,9,1,9,7,0,0,0,0,0,0,0,0],"split_type":[0,0,0,0,0,0,0,0,0,0,0,0,0,0,0],"sum_hessian":[1.10667564E2,7.9330376E1,3.1337189E1,3.0893364E1,4.843701E1,1.8915634E1,1.2421555E1,2.5261477E1,5.6318874E0,2.7104774E1,2.133224E1,7.075154E0,1.184048E1,6.5776157E0,5.8439384E0],"tree_param":{"num_deleted":"0","num_feature":"12","num_nodes":"15","size_leaf_vector":"1"}},{"base_weights":[-1.2229049E-3,5.2432805E-1,-1.2626658E-1,6.859774E-2,-0E0,-7.329252E-1,2.5072765E-2,-1.198259E-1,-0E0,3.88318E-2,-4.8290342E-2],"categories":[],"categories_nodes":[],"categories_segments":[],"categories_sizes":[],"default_left":[0,0,0,0,0,0,0,0,0,0,0],"id":22,"left_children":[1,3,5,-1,-1,7,9,-1,-1,-1,-1],"loss_changes":[7.4633994E0,1.1424084E0,9.809353E0,0E0,0E0,7.0534163E0,1.5983712E1,0E0,0E0,0E0,0E0],"parents":[2147483647,0,0,1,1,2,2,5,5,6,6],"right_children":[2,4,6,-1,-1,8,10,-1,-1,-1,-1],"split_conditions":[1.4042454E0,1.0714994E-2,8.258301E-3,6.859774E-2,-0E0,4.3834156E-1,7.3113E-1,-1.198259E-1,-0E0,3.88318E-2,-4.8290342E-2],"split_indices":[8,11,11,0,0,6,6,0,0,0,0],"split_type":[0,0,0,0,0,0,0,0,0,0,0],"sum_hessian":[1.0958914E2,1.6457264E1,9.3131874E1,9.963794E0,6.49347E0,1.6077337E1,7.705454E1,7.79803E0,8.279307E0,4.676212E1,3.0292418E1],"tree_param":{"num_deleted":"0","num_feature":"12","num_nodes":"11","size_leaf_vector":"1"}},{"base_weights":[-0E0,7.753094E-2,-7.276068E-2,-1.5131608E-1,4.3939337E-1,1.6335938E-2,-5.3688206E-2,-0E0,5.894936E-2],"categories":[],"categories_nodes":[],"categories_segments":[],"categories_sizes":[],"default_left":[0,0,0,0,0,0,0,0,0],"id":23,"left_children":[1,3,-1,5,7,-1,-1,-1,-1],"loss_changes":[7.389145E0,9.69486E0,0E0,9.2022705E0,2.9849024E0,0E0,0E0,0E0,0E0],"parents":[2147483647,0,0,1,1,3,3,4,4],"right_children":[2,4,-1,6,8,-1,-1,-1,-1],"split_conditions":[1.1047456E0,7.296274E-1,-7.276068E-2,4.186892E0,4.3525977E0,1.6335938E-2,-5.3688206E-2,-0E0,5.894936E-2],"split_indices":[1,1,0,2,2,0,0,0,0],"split_type":[0,0,0,0,0,0,0,0,0],"sum_hessian":[1.12291916E2,1.0457882E2,7.7130976E0,6.415315E1,4.042566E1,3.5482483E1,2.8670671E1,1.159836E1,2.8827301E1],"tree_param":{"num_deleted":"0","num_feature":"12","num_nodes":"9","size_leaf_vector":"1"}},{"base_weights":[-7.5485244E-2,2.6477426E-2,-7.410503E-2,-8.945438E-2,7.379937E-2,2.865446E-2,-3.67456E-2],"categories":[],"categories_nodes":[],"categories_segments":[],"categories_sizes":[],"default_left":[0,0,0,0,0,0,0],"id":24,"left_children":[1,3,-1,5,-1,-1,-1],"loss_changes":[8.596212E0,9.473425E0,0E0,1.0203624E1,0E0,0E0,0E0],"parents":[2147483647,0,0,1,1,3,3],"right_children":[2,4,-1,6,-1,-1,-1],"split_conditions":[1.9704264E0,1.9018408E0,-7.410503E-2,1.2494198E-1,7.379937E-2,2.865446E-2,-3.67456E-2],"split_indices":[7,7,0,0,0,0,0],"split_type":[0,0,0,0,0,0,0],"sum_hessian":[1.0969517E2,9.798305E1,1.1712116E1,8.680526E1,1.1177793E1,3.5304688E1,5.150057E1],"tree_param":{"num_deleted":"0","num_feature":"12","num_nodes":"7","size_leaf_vector":"1"}},{"base_weights":[-0E0,7.748152E-2,-6.7979395E-2,-1.6560978E-1,3.062379E-1,1.669573E-2,-6.781169E-2,4.3830458E-2,-2.6940975E-2],"categories":[],"categories_nodes":[],"categories_segments":[],"categories_sizes":[],"default_left":[0,0,0,0,0,0,0,0,0],"id":25,"left_children":[1,3,-1,5,7,-1,-1,-1,-1],"loss_changes":[6.4436216E0,6.3912644E0,0E0,1.0180525E1,5.277741E0,0E0,0E0,0E0,0E0],"parents":[2147483647,0,0,1,1,3,3,4,4],"right_children":[2,4,-1,6,8,-1,-1,-1,-1],"split_conditions":[1.7276037E-2,7.800991E-1,-6.7979395E-2,1.1876568E-1,1.9704264E0,1.669573E-2,-6.781169E-2,4.3830458E-2,-2.6940975E-2],"split_indices":[11,4,0,0,7,0,0,0,0],"split_type":[0,0,0,0,0,0,0,0,0],"sum_hessian":[1.103865E2,1.0284388E2,7.5426188E0,4.8409534E1,5.443434E1,3.0219809E1,1.8189726E1,4.6659668E1,7.774671E0],"tree_param":{"num_deleted":"0","num_feature":"12","num_nodes":"9","size_leaf_vector":"1"}},{"base_weights":[3.7203413E-2,1.224305E-1,-6.681841E-2,-2.0213887E-2,5.856936E-1,2.1092234E-2,-5.4876614E-2,7.420366E-2,2.2611357E-3],"categories":[],"categories_nodes":[],"categories_segments":[],"categories_sizes":[],"default_left":[0,0,0,0,0,0,0,0,0],"id":26,"left_children":[1,3,-1,5,7,-1,-1,-1,-1],"loss_changes":[6.542593E0,7.5379634E0,0E0,1.1077325E1,1.4796448E0,0E0,0E0,0E0,0E0],"parents":[2147483647,0,0,1,1,3,3,4,4],"right_children":[2,4,-1,6,8,-1,-1,-1,-1],"split_conditions":[1.1047456E0,9.9552506E-1,-6.681841E-2,1.1729944E0,1.388386E-2,2.1092234E-2,-5.4876614E-2,7.420366E-2,2.2611357E-3],"split_indices":[1,4,0,7,11,0,0,0,0],"split_type":[0,0,0,0,0,0,0,0,0],"sum_hessian":[1.06103195E2,9.9617004E1,6.486196E0,7.817056E1,2.1446442E1,5.5161263E1,2.3009296E1,1.4152046E1,7.2943964E0],"tree_param":{"num_deleted":"0","num_feature":"12","num_nodes":"9","size_leaf_vector":"1"}},{"base_weights":[-2.6710548E-2,5.8436673E-2,-1.3291182E-1,1.0420135E-1,-5.3866696E-1,-4.8651513E-2,3.4338992E-2,-9.336698E-2,-5.569325E-3],"categories":[],"categories_nodes":[],"categories_segments":[],"categories_sizes":[],"default_left":[0,0,0,0,0,0,0,0,0],"id":27,"left_children":[1,-1,3,5,7,-1,-1,-1,-1],"loss_changes":[7.2205753E0,0E0,1.0440425E1,1.0078941E1,6.3148193E0,0E0,0E0,0E0,0E0],"parents":[2147483647,0,0,2,2,3,3,4,4],"right_children":[2,-1,4,6,8,-1,-1,-1,-1],"split_conditions":[1.3510439E0,5.8436673E-2,7.3113E-1,8.258301E-3,1.8587228E0,-4.8651513E-2,3.4338992E-2,-9.336698E-2,-5.569325E-3],"split_indices":[8,0,6,11,7,0,0,0,0],"split_type":[0,0,0,0,0,0,0,0,0],"sum_hessian":[1.0723421E2,1.1149896E1,9.608431E1,6.143478E1,3.4649532E1,1.5011193E1,4.6423584E1,1.5355003E1,1.9294529E1],"tree_param":{"num_deleted":"0","num_feature":"12","num_nodes":"9","size_leaf_vector":"1"}},{"base_weights":[1.7652197E-2,1.1559227E-1,-6.033772E-2,-0E0,5.1635385E-1,2.670964E-2,-5.5799443E-2,8.2952105E-2,-7.5920247E-3],"categories":[],"categories_nodes":[],"categories_segments":[],"categories_sizes":[],"default_left":[0,0,0,0,0,0,0,0,0],"id":28,"left_children":[1,3,-1,5,7,-1,-1,-1,-1],"loss_changes":[6.601175E0,4.9108934E0,0E0,1.3209976E1,5.4265356E0,0E0,0E0,0E0,0E0],"parents":[2147483647,0,0,1,1,3,3,4,4],"right_children":[2,4,-1,6,8,-1,-1,-1,-1],"split_conditions":[1.5789034E-2,3.2425693E-1,-6.033772E-2,1.1695545E0,2.0539846E-1,2.670964E-2,-5.5799443E-2,8.2952105E-2,-7.5920247E-3],"split_indices":[11,3,0,7,0,0,0,0,0],"split_type":[0,0,0,0,0,0,0,0,0],"sum_hessian":[1.0581593E2,9.6307274E1,9.508658E0,7.781133E1,1.849594E1,5.3873947E1,2.3937387E1,1.1893019E1,6.6029196E0],"tree_param":{"num_deleted":"0","num_feature":"12","num_nodes":"9","size_leaf_vector":"1"}},{"base_weights":[-0E0,9.510072E-2,-5.839629E-2,-0E0,6.38327E-2,3.3349834E-2,-1.8871741E-2],"categories":[],"categories_nodes":[],"categories_segments":[],"categories_sizes":[],"default_left":[0,0,0,0,0,0,0],"id":29,"left_children":[1,3,-1,5,-1,-1,-1],"loss_changes":[6.4712367E0,4.7147727E0,0E0,6.360386E0,0E0,0E0,0E0],"parents":[2147483647,0,0,1,1,3,3],"right_children":[2,4,-1,6,-1,-1,-1],"split_conditions":[1.9704264E0,1.9018408E0,-5.839629E-2,1.9316652E-1,6.38327E-2,3.3349834E-2,-1.8871741E-2],"split_indices":[7,7,0,3,0,0,0],"split_type":[0,0,0,0,0,0,0],"sum_hessian":[1.0902058E2,9.7769646E1,1.1250928E1,8.891744E1,8.852201E0,3.2529846E1,5.6387596E1],"tree_param":{"num_deleted":"0","num_feature":"12","num_nodes":"7","size_leaf_vector":"1"}},{"base_weights":[2.5973907E-2,1.3409106E-1,-6.514915E-2,-0E0,7.573476E-2,2.6351009E-2,-6.340214E-2],"categories":[],"categories_nodes":[],"categories_segments":[],"categories_sizes":[],"default_left":[0,0,0,0,0,0,0],"id":30,"left_children":[1,3,-1,5,-1,-1,-1],"loss_changes":[8.164489E0,8.261879E0,0E0,1.5702622E1,0E0,0E0,0E0],"parents":[2147483647,0,0,1,1,3,3],"right_children":[2,4,-1,6,-1,-1,-1],"split_conditions":[1.9704264E0,1.8587228E0,-6.514915E-2,1.01840705E-1,7.573476E-2,2.6351009E-2,-6.340214E-2],"split_indices":[7,7,0,9,0,0,0],"split_type":[0,0,0,0,0,0,0],"sum_hessian":[1.07567726E2,9.749489E1,1.0072838E1,8.4877716E1,1.2617178E1,6.24693E1,2.2408413E1],"tree_param":{"num_deleted":"0","num_feature":"12","num_nodes":"7","size_leaf_vector":"1"}},{"base_weights":[-2.263437E-2,5.924982E-2,-6.2085237E-2,-4.160658E-2,6.687099E-2,1.3234521E-2,-4.5486435E-2],"categories":[],"categories_nodes":[],"categories_segments":[],"categories_sizes":[],"default_left":[0,0,0,0,0,0,0],"id":31,"left_children":[1,3,-1,5,-1,-1,-1],"loss_changes":[6.026378E0,6.785188E0,0E0,6.900412E0,0E0,0E0,0E0],"parents":[2147483647,0,0,1,1,3,3],"right_children":[2,4,-1,6,-1,-1,-1],"split_conditions":[1.9704264E0,1.9018408E0,-6.2085237E-2,1.2272739E-2,6.687099E-2,1.3234521E-2,-4.5486435E-2],"split_indices":[7,7,0,11,0,0,0],"split_type":[0,0,0,0,0,0,0],"sum_hessian":[1.0280632E2,9.2920494E1,9.885825E0,8.231626E1,1.060423E1,5.8620296E1,2.3695967E1],"tree_param":{"num_deleted":"0","num_feature":"12","num_nodes":"7","size_leaf_vector":"1"}},{"base_weights":[-0E0,5.9274748E-2,-5.9388638E-2,-4.8246227E-2,6.649594E-2,1.3507527E-2,-4.1916218E-2],"categories":[],"categories_nodes":[],"categories_segments":[],"categories_sizes":[],"default_left":[0,0,0,0,0,0,0],"id":32,"left_children":[1,3,-1,5,-1,-1,-1],"loss_changes":[4.1419253E0,7.4239864E0,0E0,6.6826572E0,0E0,0E0,0E0],"parents":[2147483647,0,0,1,1,3,3],"right_children":[2,4,-1,6,-1,-1,-1],"split_conditions":[1.1047456E0,3.3593962E-1,-5.9388638E-2,1.1741031E0,6.649594E-2,1.3507527E-2,-4.1916218E-2],"split_indices":[1,3,0,7,0,0,0],"split_type":[0,0,0,0,0,0,0],"sum_hessian":[1.0279176E2,9.7065056E1,5.726707E0,8.4937645E1,1.2127411E1,5.716671E1,2.7770935E1],"tree_param":{"num_deleted":"0","num_feature":"12","num_nodes":"7","size_leaf_vector":"1"}},{"base_weights":[-0E0,5.3718068E-2,-6.296244E-2,1.1031487E-1,-3.9690277E-1,-5.023427E-2,2.8472764E-2,-9.206988E-2,8.509173E-3],"categories":[],"categories_nodes":[],"categories_segments":[],"categories_sizes":[],"default_left":[0,0,0,0,0,0,0,0,0],"id":33,"left_children":[1,-1,3,5,7,-1,-1,-1,-1],"loss_changes":[4.1113153E0,0E0,6.2332587E0,7.6687107E0,1.0537009E1,0E0,0E0,0E0,0E0],"parents":[2147483647,0,0,2,2,3,3,4,4],"right_children":[2,-1,4,6,8,-1,-1,-1,-1],"split_conditions":[1.299819E0,5.3718068E-2,7.3113E-1,5.4372188E-2,1.2881583E-1,-5.023427E-2,2.8472764E-2,-9.206988E-2,8.509173E-3],"split_indices":[8,0,6,9,9,0,0,0,0],"split_type":[0,0,0,0,0,0,0,0,0],"sum_hessian":[1.0187361E2,7.887679E0,9.398593E1,6.211105E1,3.1874882E1,1.0409883E1,5.1701168E1,1.4088418E1,1.7786463E1],"tree_param":{"num_deleted":"0","num_feature":"12","num_nodes":"9","size_leaf_vector":"1"}},{"base_weights":[-4.147668E-2,2.4658714E-1,-1.9163555E-1,5.991165E-2,-5.935734E-2,-4.1234335E-1,1.104576E-1,-3.159636E-2,2.7968258E-2,-6.594798E-2,1.5358078E-2,3.5104845E-2,-1.4069587E-2],"categories":[],"categories_nodes":[],"categories_segments":[],"categories_sizes":[],"default_left":[0,0,0,0,0,0,0,0,0,0,0,0,0],"id":34,"left_children":[1,3,5,-1,7,9,11,-1,-1,-1,-1,-1,-1],"loss_changes":[4.6702585E0,4.5425625E0,5.4177275E0,0E0,2.39363E0,7.352496E0,2.4501941E0,0E0,0E0,0E0,0E0,0E0,0E0],"parents":[2147483647,0,0,1,1,2,2,4,4,5,5,6,6],"right_children":[2,4,6,-1,8,10,12,-1,-1,-1,-1,-1,-1],"split_conditions":[3.0088685E0,1.2494198E-1,3.504551E0,5.991165E-2,4.253875E0,1.8031861E-3,3.7504978E0,-3.159636E-2,2.7968258E-2,-6.594798E-2,1.5358078E-2,3.5104845E-2,-1.4069587E-2],"split_indices":[5,0,5,0,2,10,5,0,0,0,0,0,0],"split_type":[0,0,0,0,0,0,0,0,0,0,0,0,0],"sum_hessian":[9.877762E1,3.0464407E1,6.831322E1,1.3447089E1,1.7017317E1,4.033218E1,2.7981033E1,1.1558761E1,5.4585567E0,2.8727474E1,1.1604707E1,1.5308889E1,1.2672145E1],"tree_param":{"num_deleted":"0","num_feature":"12","num_nodes":"13","size_leaf_vector":"1"}},{"base_weights":[-5.179427E-2,7.898474E-2,-4.3437523E-1,4.235241E-1,-1.3360499E-1,-6.6542053E-1,-0E0,5.8327835E-2,-0E0,-6.5372854E-2,2.6857892E-2,-8.041548E-2,-3.5896737E-3],"categories":[],"categories_nodes":[],"categories_segments":[],"categories_sizes":[],"default_left":[0,0,0,0,0,0,0,0,0,0,0,0,0],"id":35,"left_children":[1,3,5,7,9,11,-1,-1,-1,-1,-1,-1,-1],"loss_changes":[5.821008E0,6.5158305E0,3.5974793E0,2.2725644E0,1.2179009E1,8.2950115E-1,0E0,0E0,0E0,0E0,0E0,0E0,0E0],"parents":[2147483647,0,0,1,1,2,2,3,3,4,4,5,5],"right_children":[2,4,6,8,10,12,-1,-1,-1,-1,-1,-1,-1],"split_conditions":[1.388386E-2,4.186892E0,2.0432947E-3,8.478894E-2,9.457766E-3,1.7091315E0,-0E0,5.8327835E-2,-0E0,-6.5372854E-2,2.6857892E-2,-8.041548E-2,-3.5896737E-3],"split_indices":[11,2,10,9,11,7,0,0,0,0,0,0,0],"split_type":[0,0,0,0,0,0,0,0,0,0,0,0,0],"sum_hessian":[1.0081044E2,7.613787E1,2.4672567E1,2.8954615E1,4.718326E1,1.5768919E1,8.903649E0,1.958189E1,9.372725E0,2.0295427E1,2.6887833E1,1.0483137E1,5.285781E0],"tree_param":{"num_deleted":"0","num_feature":"12","num_nodes":"13","size_leaf_vector":"1"}},{"base_weights":[-3.9920755E-2,8.203305E-2,-4.1940877E-1,-1.9497727E-1,3.263696E-1,-5.273915E-1,-9.7183234E-5,4.990314E-3,-8.5113205E-2,7.4319415E-2,-9.511171E-3,-6.840626E-2,-0E0],"categories":[],"categories_nodes":[],"categories_segments":[],"categories_sizes":[],"default_left":[0,0,0,0,0,0,0,0,0,0,0,0,0],"id":36,"left_children":[1,3,5,7,9,11,-1,-1,-1,-1,-1,-1,-1],"loss_changes":[5.349241E0,5.954367E0,7.453437E-1,7.332958E0,9.259045E0,1.3001642E0,0E0,0E0,0E0,0E0,0E0,0E0,0E0],"parents":[2147483647,0,0,1,1,2,2,3,3,4,4,5,5],"right_children":[2,4,6,8,10,12,-1,-1,-1,-1,-1,-1,-1],"split_conditions":[1.3658245E-2,9.457766E-3,2.0432947E-3,1.2625428E-1,5.069546E-1,8.427951E-1,-9.7183234E-5,4.990314E-3,-8.5113205E-2,7.4319415E-2,-9.511171E-3,-6.840626E-2,-0E0],"split_indices":[11,11,10,0,6,1,0,0,0,0,0,0,0],"split_type":[0,0,0,0,0,0,0,0,0,0,0,0,0],"sum_hessian":[9.957729E1,7.6331215E1,2.3246077E1,3.4328976E1,4.2002243E1,1.5543198E1,7.7028794E0,2.7253517E1,7.075457E0,2.0391838E1,2.1610405E1,9.989232E0,5.553966E0],"tree_param":{"num_deleted":"0","num_feature":"12","num_nodes":"13","size_leaf_vector":"1"}},{"base_weights":[1.7209832E-2,-3.305658E-1,1.4065598E-1,-7.1415746E-1,3.3027187E-2,6.8331525E-2,-2.5485214E-2,-1.7904452E-3,-9.807956E-2,-5.7285078E-2,2.1887733E-2],"categories":[],"categories_nodes":[],"categories_segments":[],"categories_sizes":[],"default_left":[0,0,0,0,0,0,0,0,0,0,0],"id":37,"left_children":[1,3,5,7,-1,-1,9,-1,-1,-1,-1],"loss_changes":[4.4924245E0,8.286714E0,8.14926E0,2.5003395E0,0E0,0E0,9.84696E0,0E0,0E0,0E0,0E0],"parents":[2147483647,0,0,1,1,2,2,3,3,6,6],"right_children":[2,4,6,8,-1,-1,10,-1,-1,-1,-1],"split_conditions":[7.550301E-1,1.513356E-3,1.8868811E-1,3.0766252E-1,3.3027187E-2,6.8331525E-2,6.783391E-1,-1.7904452E-3,-9.807956E-2,-5.7285078E-2,2.1887733E-2],"split_indices":[7,10,3,6,0,0,1,0,0,0,0],"split_type":[0,0,0,0,0,0,0,0,0,0,0],"sum_hessian":[9.864995E1,2.1523531E1,7.712642E1,1.4320703E1,7.2028284E0,1.5840855E1,6.1285564E1,6.4816866E0,7.839016E0,1.8104013E1,4.318155E1],"tree_param":{"num_deleted":"0","num_feature":"12","num_nodes":"11","size_leaf_vector":"1"}},{"base_weights":[1.0466538E-2,-1.2911426E-1,3.247533E-1,3.6644557E-1,-2.7651125E-1,5.1797855E-1,-2.6835477E-2,6.5153725E-2,-1.9109119E-3,-7.896212E-2,-6.6688843E-3,2.6375463E-3,6.015856E-2],"categories":[],"categories_nodes":[],"categories_segments":[],"categories_sizes":[],"default_left":[0,0,0,0,0,0,0,0,0,0,0,0,0],"id":38,"left_children":[1,3,5,7,9,11,-1,-1,-1,-1,-1,-1,-1],"loss_changes":[5.0105243E0,5.826926E0,5.060081E0,2.6264956E0,5.5008574E0,5.2838707E-1,0E0,0E0,0E0,0E0,0E0,0E0,0E0],"parents":[2147483647,0,0,1,1,2,2,3,3,4,4,5,5],"right_children":[2,4,6,8,10,12,-1,-1,-1,-1,-1,-1,-1],"split_conditions":[3.504551E0,2.8142416E0,9.6328354E-1,1.9316652E-1,8.258301E-3,7.800991E-1,-2.6835477E-2,6.5153725E-2,-1.9109119E-3,-7.896212E-2,-6.6688843E-3,2.6375463E-3,6.015856E-2],"split_indices":[5,5,1,3,11,4,0,0,0,0,0,0,0],"split_type":[0,0,0,0,0,0,0,0,0,0,0,0,0],"sum_hessian":[9.9978386E1,6.9068054E1,3.0910337E1,1.2574996E1,5.6493053E1,2.5064205E1,5.8461323E0,6.7374344E0,5.837562E0,1.1003124E1,4.548993E1,6.3376074E0,1.8726597E1],"tree_param":{"num_deleted":"0","num_feature":"12","num_nodes":"13","size_leaf_vector":"1"}},{"base_weights":[3.235507E-2,3.1144363E-1,-9.060968E-2,-1.046957E-2,5.063357E-1,-7.753085E-2,4.8938338E-2,7.1299426E-2,-0E0,-2.5008395E-2,2.738353E-2],"categories":[],"categories_nodes":[],"categories_segments":[],"categories_sizes":[],"default_left":[0,0,0,0,0,0,0,0,0,0,0],"id":39,"left_children":[1,3,5,-1,7,-1,9,-1,-1,-1,-1],"loss_changes":[3.7628796E0,3.4179473E0,7.621432E0,0E0,2.0031633E0,0E0,4.5212297E0,0E0,0E0,0E0,0E0],"parents":[2147483647,0,0,1,1,2,2,4,4,6,6],"right_children":[2,4,6,-1,8,-1,10,-1,-1,-1,-1],"split_conditions":[1.22647636E-1,6.9397604E-1,9.457766E-3,-1.046957E-2,1.0453515E0,-7.753085E-2,1.6455351E0,7.1299426E-2,-0E0,-2.5008395E-2,2.738353E-2],"split_indices":[0,7,11,0,7,0,8,0,0,0,0],"split_type":[0,0,0,0,0,0,0,0,0,0,0],"sum_hessian":[9.410081E1,2.8923248E1,6.517756E1,8.326729E0,2.059652E1,8.391414E0,5.6786144E1,1.1849239E1,8.74728E0,2.222689E1,3.4559254E1],"tree_param":{"num_deleted":"0","num_feature":"12","num_nodes":"11","size_leaf_vector":"1"}},{"base_weights":[3.2076085E-4,7.757378E-2,-5.907023E-2,-1.0461343E-1,4.408971E-1,1.753842E-2,-3.7738636E-2,-0E0,5.4933824E-2],"categories":[],"categories_nodes":[],"categories_segments":[],"categories_sizes":[],"default_left":[0,0,0,0,0,0,0,0,0],"id":40,"left_children":[1,3,-1,5,7,-1,-1,-1,-1],"loss_changes":[4.3238707E0,6.8665104E0,0E0,5.5427227E0,1.4660068E0,0E0,0E0,0E0,0E0],"parents":[2147483647,0,0,1,1,3,3,4,4],"right_children":[2,4,-1,6,8,-1,-1,-1,-1],"split_conditions":[1.1047456E0,7.427115E-1,-5.907023E-2,1.9316652E-1,1.4383296E0,1.753842E-2,-3.7738636E-2,-0E0,5.4933824E-2],"split_indices":[1,1,0,3,8,0,0,0,0],"split_type":[0,0,0,0,0,0,0,0,0],"sum_hessian":[9.592103E1,9.0170494E1,5.750532E0,6.0593864E1,2.9576626E1,2.89728E1,3.1621067E1,7.445699E0,2.2130928E1],"tree_param":{"num_deleted":"0","num_feature":"12","num_nodes":"9","size_leaf_vector":"1"}},{"base_weights":[-3.2367576E-2,4.8154734E-2,-1.1106568E-1,7.491723E-2,-4.5094928E-1,-1.22142285E-2,4.0685903E-2,-8.436454E-2,-6.329443E-4],"categories":[],"categories_nodes":[],"categories_segments":[],"categories_sizes":[],"default_left":[0,0,0,0,0,0,0,0,0],"id":41,"left_children":[1,-1,3,5,7,-1,-1,-1,-1],"loss_changes":[4.015134E0,0E0,6.4902563E0,4.6656203E0,5.3875527E0,0E0,0E0,0E0,0E0],"parents":[2147483647,0,0,2,2,3,3,4,4],"right_children":[2,-1,4,6,8,-1,-1,-1,-1],"split_conditions":[1.299819E0,4.8154734E-2,7.3113E-1,3.4187784E0,1.7836712E-1,-1.22142285E-2,4.0685903E-2,-8.436454E-2,-6.329443E-4],"split_indices":[8,0,6,5,0,0,0,0,0],"split_type":[0,0,0,0,0,0,0,0,0],"sum_hessian":[9.682439E1,7.7717657E0,8.905262E1,5.817514E1,3.0877481E1,3.6596806E1,2.1578335E1,1.2819072E1,1.805841E1],"tree_param":{"num_deleted":"0","num_feature":"12","num_nodes":"9","size_leaf_vector":"1"}},{"base_weights":[-3.7408493E-2,9.6997935E-3,-5.7400078E-2,-9.048944E-2,5.067246E-1,9.266147E-3,-4.7339614E-2,7.286682E-2,5.651655E-3],"categories":[],"categories_nodes":[],"categories_segments":[],"categories_sizes":[],"default_left":[0,0,0,0,0,0,0,0,0],"id":42,"left_children":[1,3,-1,5,7,-1,-1,-1,-1],"loss_changes":[3.2086163E0,5.5434003E0,0E0,6.5207996E0,9.006777E-1,0E0,0E0,0E0,0E0],"parents":[2147483647,0,0,1,1,3,3,4,4],"right_children":[2,4,-1,6,8,-1,-1,-1,-1],"split_conditions":[2.3517366E-1,3.1067327E-1,-5.7400078E-2,1.1741031E0,1.7931017E-1,9.266147E-3,-4.7339614E-2,7.286682E-2,5.651655E-3],"split_indices":[0,3,0,7,0,0,0,0,0],"split_type":[0,0,0,0,0,0,0,0,0],"sum_hessian":[9.850829E1,9.335823E1,5.150063E0,7.9425514E1,1.3932714E1,5.4524113E1,2.4901405E1,5.772983E0,8.159731E0],"tree_param":{"num_deleted":"0","num_feature":"12","num_nodes":"9","size_leaf_vector":"1"}},{"base_weights":[-5.9200294E-2,-2.455822E-1,1.1047283E-1,-4.5197758E-1,3.4243315E-2,-3.298598E-2,2.6805413E-1,3.275388E-2,-7.8401916E-2,4.434788E-2,-3.4918815E-2],"categories":[],"categories_nodes":[],"categories_segments":[],"categories_sizes":[],"default_left":[0,0,0,0,0,0,0,0,0,0,0],"id":43,"left_children":[1,3,5,7,-1,-1,9,-1,-1,-1,-1],"loss_changes":[3.2981584E0,6.949065E0,3.9018738E0,1.2199396E1,0E0,0E0,5.39542E0,0E0,0E0,0E0,0E0],"parents":[2147483647,0,0,1,1,2,2,3,3,6,6],"right_children":[2,4,6,8,-1,-1,10,-1,-1,-1,-1],"split_conditions":[1.6892924E0,3.3593962E-1,8.829536E-3,1.65772E-1,3.4243315E-2,-3.298598E-2,1.91017E-1,3.275388E-2,-7.8401916E-2,4.434788E-2,-3.4918815E-2],"split_indices":[8,3,11,3,0,0,0,0,0,0,0],"split_type":[0,0,0,0,0,0,0,0,0,0,0],"sum_hessian":[9.073105E1,4.4979214E1,4.5751835E1,3.5408203E1,9.571011E0,8.944833E0,3.6807E1,9.6976595E0,2.5710543E1,3.1018896E1,5.788104E0],"tree_param":{"num_deleted":"0","num_feature":"12","num_nodes":"11","size_leaf_vector":"1"}},{"base_weights":[-7.749775E-3,-9.44485E-2,5.0353047E-2,-5.0616175E-1,-0E0,-8.684774E-2,3.9896485E-3,3.4683622E-2,-2.6649488E-2],"categories":[],"categories_nodes":[],"categories_segments":[],"categories_sizes":[],"default_left":[0,0,0,0,0,0,0,0,0],"id":44,"left_children":[1,3,-1,5,7,-1,-1,-1,-1],"loss_changes":[4.052947E0,3.4971523E0,0E0,4.3042507E0,7.472247E0,0E0,0E0,0E0,0E0],"parents":[2147483647,0,0,1,1,3,3,4,4],"right_children":[2,4,-1,6,8,-1,-1,-1,-1],"split_conditions":[5.790966E0,9.999807E-4,5.0353047E-2,4.3834156E-1,9.089766E-2,-8.684774E-2,3.9896485E-3,3.4683622E-2,-2.6649488E-2],"split_indices":[2,10,0,6,9,0,0,0,0],"split_type":[0,0,0,0,0,0,0,0,0],"sum_hessian":[9.029649E1,8.236238E1,7.9341125E0,1.169194E1,7.067044E1,6.3546352E0,5.3373055E0,3.0373772E1,4.029667E1],"tree_param":{"num_deleted":"0","num_feature":"12","num_nodes":"9","size_leaf_vector":"1"}},{"base_weights":[2.1763269E-2,8.5922495E-2,-4.6601593E-2,-7.758844E-2,3.209686E-1,2.6699334E-2,-3.915533E-2,-5.280926E-3,4.1163076E-2],"categories":[],"categories_nodes":[],"categories_segments":[],"categories_sizes":[],"default_left":[0,0,0,0,0,0,0,0,0],"id":45,"left_children":[1,3,-1,5,7,-1,-1,-1,-1],"loss_changes":[2.8565834E0,3.8952613E0,0E0,6.667253E0,1.8615084E0,0E0,0E0,0E0,0E0],"parents":[2147483647,0,0,1,1,3,3,4,4],"right_children":[2,4,-1,6,8,-1,-1,-1,-1],"split_conditions":[1.965003E-1,8.180498E-1,-4.6601593E-2,5.783186E-1,9.943129E-3,2.6699334E-2,-3.915533E-2,-5.280926E-3,4.1163076E-2],"split_indices":[9,4,0,4,11,0,0,0,0],"split_type":[0,0,0,0,0,0,0,0,0],"sum_hessian":[9.202567E1,8.67805E1,5.2451735E0,5.0644463E1,3.613604E1,2.2983091E1,2.766137E1,5.308405E0,3.0827635E1],"tree_param":{"num_deleted":"0","num_feature":"12","num_nodes":"9","size_leaf_vector":"1"}},{"base_weights":[-6.664129E-2,3.3611715E-1,-1.6374516E-1,5.98408E-2,-8.780398E-3,-6.4288276E-1,-3.6582954E-2,-8.7209046E-2,-0E0,2.4532849E-2,-3.0737614E-2],"categories":[],"categories_nodes":[],"categories_segments":[],"categories_sizes":[],"default_left":[0,0,0,0,0,0,0,0,0,0,0],"id":46,"left_children":[1,3,5,-1,-1,7,9,-1,-1,-1,-1],"loss_changes":[3.9523084E0,2.8590586E0,4.3617654E0,0E0,0E0,1.5015244E0,6.077784E0,0E0,0E0,0E0,0E0],"parents":[2147483647,0,0,1,1,2,2,5,5,6,6],"right_children":[2,4,6,-1,-1,8,10,-1,-1,-1,-1],"split_conditions":[1.4042454E0,1.0714994E-2,9.999807E-4,5.98408E-2,-8.780398E-3,1.6607901E-1,5.138944E-1,-8.7209046E-2,-0E0,2.4532849E-2,-3.0737614E-2],"split_indices":[8,11,10,0,0,3,6,0,0,0,0],"split_type":[0,0,0,0,0,0,0,0,0,0,0],"sum_hessian":[9.34288E1,1.3758254E1,7.967055E1,8.685335E0,5.072919E0,1.0807328E1,6.886322E1,5.564397E0,5.242931E0,3.216006E1,3.670316E1],"tree_param":{"num_deleted":"0","num_feature":"12","num_nodes":"11","size_leaf_vector":"1"}},{"base_weights":[-0E0,4.8035126E-2,-5.146577E-2,-2.6311938E-2,4.701929E-2,1.1581622E-2,-5.0365157E-2],"categories":[],"categories_nodes":[],"categories_segments":[],"categories_sizes":[],"default_left":[0,0,0,0,0,0,0],"id":47,"left_children":[1,3,-1,5,-1,-1,-1],"loss_changes":[2.948083E0,3.4780421E0,0E0,6.326865E0,0E0,0E0,0E0],"parents":[2147483647,0,0,1,1,3,3],"right_children":[2,4,-1,6,-1,-1,-1],"split_conditions":[2.115089E0,1.9018408E0,-5.146577E-2,1.3658245E-2,4.701929E-2,1.1581622E-2,-5.0365157E-2],"split_indices":[7,7,0,11,0,0,0],"split_type":[0,0,0,0,0,0,0],"sum_hessian":[9.500621E1,8.970098E1,5.30523E0,7.8241325E1,1.1459657E1,6.159368E1,1.6647642E1],"tree_param":{"num_deleted":"0","num_feature":"12","num_nodes":"7","size_leaf_vector":"1"}},{"base_weights":[-4.3656383E-2,1.6032007E-2,-3.9186656E-2,-4.2051394E-2,3.2351387E-1,-2.9396145E-2,1.0673563E-2,5.3644508E-2,-0E0],"categories":[],"categories_nodes":[],"categories_segments":[],"categories_sizes":[],"default_left":[0,0,0,0,0,0,0,0,0],"id":48,"left_children":[1,3,-1,5,7,-1,-1,-1,-1],"loss_changes":[2.3917027E0,1.8471843E0,0E0,3.0511649E0,1.5773838E0,0E0,0E0,0E0,0E0],"parents":[2147483647,0,0,1,1,3,3,4,4],"right_children":[2,4,-1,6,8,-1,-1,-1,-1],"split_conditions":[1.5112215E-2,3.1106475E-1,-3.9186656E-2,1.6455351E0,2.0398153E-1,-2.9396145E-2,1.0673563E-2,5.3644508E-2,-0E0],"split_indices":[11,3,0,8,0,0,0,0,0],"split_type":[0,0,0,0,0,0,0,0,0],"sum_hessian":[9.047951E1,7.885975E1,1.1619764E1,6.7224915E1,1.163483E1,2.5646114E1,4.15788E1,6.5313177E0,5.1035132E0],"tree_param":{"num_deleted":"0","num_feature":"12","num_nodes":"9","size_leaf_vector":"1"}},{"base_weights":[1.070038E-2,7.920905E-2,-5.2794755E-2,-1.8173426E-1,3.0726492E-1,9.471807E-3,-6.297312E-2,-2.4673691E-2,4.3966282E-2],"categories":[],"categories_nodes":[],"categories_segments":[],"categories_sizes":[],"default_left":[0,0,0,0,0,0,0,0,0],"id":49,"left_children":[1,3,-1,5,7,-1,-1,-1,-1],"loss_changes":[3.398969E0,5.967157E0,0E0,6.3679814E0,4.68016E0,0E0,0E0,0E0,0E0],"parents":[2147483647,0,0,1,1,3,3,4,4],"right_children":[2,4,-1,6,8,-1,-1,-1,-1],"split_conditions":[1.1047456E0,7.586725E-1,-5.2794755E-2,1.8868811E-1,9.365965E-3,9.471807E-3,-6.297312E-2,-2.4673691E-2,4.3966282E-2],"split_indices":[1,4,0,3,11,0,0,0,0],"split_type":[0,0,0,0,0,0,0,0,0],"sum_hessian":[9.3602E1,8.847094E1,5.131055E0,3.9689075E1,4.8781864E1,2.5601488E1,1.4087588E1,7.119643E0,4.1662224E1],"tree_param":{"num_deleted":"0","num_feature":"12","num_nodes":"9","size_leaf_vector":"1"}},{"base_weights":[4.582577E-2,1.2254896E-1,-4.1410442E-2,1.6450105E-2,6.0757227E-2,3.026866E-2,-1.6415408E-2],"categories":[],"categories_nodes":[],"categories_segments":[],"categories_sizes":[],"default_left":[0,0,0,0,0,0,0],"id":50,"left_children":[1,3,-1,5,-1,-1,-1],"loss_changes":[3.3550649E0,3.8609824E0,0E0,4.478098E0,0E0,0E0,0E0],"parents":[2147483647,0,0,1,1,3,3],"right_children":[2,4,-1,6,-1,-1,-1],"split_conditions":[1.9704264E0,1.9018408E0,-4.1410442E-2,1.24668255E-1,6.0757227E-2,3.026866E-2,-1.6415408E-2],"split_indices":[7,7,0,0,0,0,0],"split_type":[0,0,0,0,0,0,0],"sum_hessian":[9.115013E1,8.312554E1,8.024589E0,7.413898E1,8.986565E0,2.9516272E1,4.4622704E1],"tree_param":{"num_deleted":"0","num_feature":"12","num_nodes":"7","size_leaf_vector":"1"}},{"base_weights":[6.9323676E-3,1.8731397E-1,-2.4596511E-1,5.42866E-1,9.979451E-3,9.25409E-3,-3.7651315E-1,6.61932E-2,4.888837E-3,-5.6595873E-2,3.134816E-2,-0E0,-5.7110127E-2],"categories":[],"categories_nodes":[],"categories_segments":[],"categories_sizes":[],"default_left":[0,0,0,0,0,0,0,0,0,0,0,0,0],"id":51,"left_children":[1,3,5,7,9,-1,11,-1,-1,-1,-1,-1,-1],"loss_changes":[4.65148E0,3.3585875E0,2.2583923E0,2.3411179E-1,9.138213E0,0E0,2.0867677E0,0E0,0E0,0E0,0E0,0E0,0E0],"parents":[2147483647,0,0,1,1,2,2,3,3,4,4,6,6],"right_children":[2,4,6,8,10,-1,12,-1,-1,-1,-1,-1,-1],"split_conditions":[1.1944026E-2,1.5153804E0,8.992236E-2,1.8699881E-1,8.290505E-3,9.25409E-3,1.5855101E0,6.61932E-2,4.888837E-3,-5.6595873E-2,3.134816E-2,-0E0,-5.7110127E-2],"split_indices":[11,8,9,3,11,0,8,0,0,0,0,0,0],"split_type":[0,0,0,0,0,0,0,0,0,0,0,0,0],"sum_hessian":[9.320164E1,5.7464985E1,3.573665E1,1.3816953E1,4.3648033E1,8.219491E0,2.7517159E1,8.132364E0,5.6845884E0,1.24340315E1,3.1214E1,1.1985706E1,1.5531452E1],"tree_param":{"num_deleted":"0","num_feature":"12","num_nodes":"13","size_leaf_vector":"1"}},{"base_weights":[2.0543976E-2,4.068268E-2,-3.8643617E-2,-4.0468317E-1,7.0319675E-2,1.2331928E-2,-6.547787E-2,3.4405358E-2,-2.2986526E-2],"categories":[],"categories_nodes":[],"categories_segments":[],"categories_sizes":[],"default_left":[0,0,0,0,0,0,0,0,0],"id":52,"left_children":[1,-1,3,5,7,-1,-1,-1,-1],"loss_changes":[2.6283584E0,0E0,3.8693433E0,3.8876302E0,6.0729003E0,0E0,0E0,0E0,0E0],"parents":[2147483647,0,0,2,2,3,3,4,4],"right_children":[2,-1,4,6,8,-1,-1,-1,-1],"split_conditions":[1.3667247E0,4.068268E-2,1.0964756E-3,2.9160686E0,1.2272739E-2,1.2331928E-2,-6.547787E-2,3.4405358E-2,-2.2986526E-2],"split_indices":[8,0,10,5,11,0,0,0,0],"split_type":[0,0,0,0,0,0,0,0,0],"sum_hessian":[9.041856E1,1.0356379E1,8.006218E1,1.7358294E1,6.2703884E1,5.1087565E0,1.22495365E1,3.4157124E1,2.8546757E1],"tree_param":{"num_deleted":"0","num_feature":"12","num_nodes":"9","size_leaf_vector":"1"}},{"base_weights":[-1.0296357E-1,-3.7187976E-1,-0E0,-8.9850426E-2,4.3245688E-2,6.1819162E-2,-1.13224484E-1,3.9262902E-2,-3.1364705E-2,2.9540224E-2,-2.22226E-2],"categories":[],"categories_nodes":[],"categories_segments":[],"categories_sizes":[],"default_left":[0,0,0,0,0,0,0,0,0,0,0],"id":53,"left_children":[1,3,5,-1,7,-1,9,-1,-1,-1,-1],"loss_changes":[2.645454E0,6.7699285E0,5.434684E0,0E0,2.9816709E0,0E0,3.0854049E0,0E0,0E0,0E0,0E0],"parents":[2147483647,0,0,1,1,2,2,4,4,6,6],"right_children":[2,4,6,-1,8,-1,10,-1,-1,-1,-1],"split_conditions":[7.913505E-1,8.767245E-3,7.6404708E-3,-8.9850426E-2,8.7511025E-2,6.1819162E-2,8.7031966E-1,3.9262902E-2,-3.1364705E-2,2.9540224E-2,-2.22226E-2],"split_indices":[7,11,11,0,9,0,7,0,0,0,0],"split_type":[0,0,0,0,0,0,0,0,0,0,0],"sum_hessian":[8.680068E1,2.116646E1,6.5634224E1,7.8256884E0,1.3340772E1,7.0892835E0,5.8544937E1,7.904194E0,5.436578E0,8.595905E0,4.994903E1],"tree_param":{"num_deleted":"0","num_feature":"12","num_nodes":"11","size_leaf_vector":"1"}},{"base_weights":[-7.48606E-3,2.850759E-1,-7.834358E-2,4.7893595E-2,-0E0,-4.425085E-1,3.9409105E-2,4.681732E-3,-6.531944E-2,2.7577335E-2,-1.9926261E-2],"categories":[],"categories_nodes":[],"categories_segments":[],"categories_sizes":[],"default_left":[0,0,0,0,0,0,0,0,0,0,0],"id":54,"left_children":[1,3,5,-1,-1,7,9,-1,-1,-1,-1],"loss_changes":[1.8613975E0,1.007513E0,4.0344353E0,0E0,0E0,3.0973248E0,4.016512E0,0E0,0E0,0E0,0E0],"parents":[2147483647,0,0,1,1,2,2,5,5,6,6],"right_children":[2,4,6,-1,-1,8,10,-1,-1,-1,-1],"split_conditions":[1.4042454E0,3.0462084E0,1.0964756E-3,4.7893595E-2,-0E0,2.8680475E0,6.1573875E-1,4.681732E-3,-6.531944E-2,2.7577335E-2,-1.9926261E-2],"split_indices":[8,5,10,0,0,5,6,0,0,0,0],"split_type":[0,0,0,0,0,0,0,0,0,0,0],"sum_hessian":[8.9377235E1,1.1727377E1,7.764986E1,5.318781E0,6.4085956E0,1.767875E1,5.9971107E1,5.0627813E0,1.2615968E1,3.1845798E1,2.812531E1],"tree_param":{"num_deleted":"0","num_feature":"12","num_nodes":"11","size_leaf_vector":"1"}},{"base_weights":[2.1729168E-2,2.842196E-1,-8.545377E-2,-3.433027E-2,5.3124625E-2,-7.416776E-2,5.3916432E-2,-3.9170843E-2,2.9155567E-2,5.6232423E-2,-1.0213607E-2],"categories":[],"categories_nodes":[],"categories_segments":[],"categories_sizes":[],"default_left":[0,0,0,0,0,0,0,0,0,0,0],"id":55,"left_children":[1,3,5,7,-1,-1,9,-1,-1,-1,-1],"loss_changes":[2.966102E0,3.037589E0,7.0992117E0,2.595663E0,0E0,0E0,5.461898E0,0E0,0E0,0E0,0E0],"parents":[2147483647,0,0,1,1,2,2,3,3,6,6],"right_children":[2,4,6,8,-1,-1,10,-1,-1,-1,-1],"split_conditions":[1.9316652E-1,5.4372188E-2,9.457766E-3,7.171128E-1,5.3124625E-2,-7.416776E-2,1.0714994E-2,-3.9170843E-2,2.9155567E-2,5.6232423E-2,-1.0213607E-2],"split_indices":[3,9,11,7,0,0,11,0,0,0,0],"split_type":[0,0,0,0,0,0,0,0,0,0,0],"sum_hessian":[8.9044624E1,2.6128153E1,6.2916473E1,1.1524227E1,1.4603925E1,8.493208E0,5.4423267E1,6.4784193E0,5.045808E0,1.1229457E1,4.319381E1],"tree_param":{"num_deleted":"0","num_feature":"12","num_nodes":"11","size_leaf_vector":"1"}},{"base_weights":[4.7181133E-2,-2.6557368E-1,1.7290351E-1,1.8522168E-2,-6.720404E-1,2.816075E-1,-3.6967475E-2,-8.135673E-2,-8.895305E-3,3.8416114E-2,-2.7780106E-2],"categories":[],"categories_nodes":[],"categories_segments":[],"categories_sizes":[],"default_left":[0,0,0,0,0,0,0,0,0,0,0],"id":56,"left_children":[1,3,5,-1,7,9,-1,-1,-1,-1,-1],"loss_changes":[3.666536E0,5.7686577E0,4.5219526E0,0E0,2.4537086E-2,4.20474E0,0E0,0E0,0E0,0E0,0E0],"parents":[2147483647,0,0,1,1,2,2,4,4,5,5],"right_children":[2,4,6,-1,8,10,-1,-1,-1,-1,-1],"split_conditions":[7.913505E-1,3.0383987E0,2.1662013E-1,1.8522168E-2,3.3527267E0,1.9704264E0,-3.6967475E-2,-8.135673E-2,-8.895305E-3,3.8416114E-2,-2.7780106E-2],"split_indices":[7,5,0,0,5,7,0,0,0,0,0],"split_type":[0,0,0,0,0,0,0,0,0,0,0],"sum_hessian":[8.476572E1,2.0429092E1,6.4336624E1,9.810268E0,1.0618823E1,5.71373E1,7.1993284E0,5.574419E0,5.0444045E0,5.1119736E1,6.017563E0],"tree_param":{"num_deleted":"0","num_feature":"12","num_nodes":"11","size_leaf_vector":"1"}},{"base_weights":[-0E0,-9.513006E-2,2.7700374E-1,1.1383413E-2,-7.663255E-2,6.5486215E-2,-4.0136047E-2,-1.1577069E-2,4.0868115E-2],"categories":[],"categories_nodes":[],"categories_segments":[],"categories_sizes":[],"default_left":[0,0,0,0,0,0,0,0,0],"id":57,"left_children":[1,3,5,7,-1,-1,-1,-1,-1],"loss_changes":[2.5565944E0,6.284479E0,7.788357E0,4.0590143E0,0E0,0E0,0E0,0E0,0E0],"parents":[2147483647,0,0,1,1,2,2,3,3],"right_children":[2,4,6,8,-1,-1,-1,-1,-1],"split_conditions":[1.8587228E0,1.3026504E-1,2.053568E0,1.5904744E-1,-7.663255E-2,6.5486215E-2,-4.0136047E-2,-1.1577069E-2,4.0868115E-2],"split_indices":[7,9,7,0,0,0,0,0,0],"split_type":[0,0,0,0,0,0,0,0,0],"sum_hessian":[9.1004074E1,7.173543E1,1.926865E1,6.4866875E1,6.8685465E0,1.3433411E1,5.835239E0,4.9917072E1,1.4949807E1],"tree_param":{"num_deleted":"0","num_feature":"12","num_nodes":"9","size_leaf_vector":"1"}},{"base_weights":[-7.2089667E-3,-2.1637265E-1,1.254409E-1,1.3421199E-2,-7.410372E-2,3.441463E-1,-5.5079386E-2,4.1500296E-2,-1.5996778E-2,-1.12358285E-2,5.994744E-2,-4.824142E-2,1.6295588E-2],"categories":[],"categories_nodes":[],"categories_segments":[],"categories_sizes":[],"default_left":[0,0,0,0,0,0,0,0,0,0,0,0,0],"id":58,"left_children":[1,3,5,7,-1,9,11,-1,-1,-1,-1,-1,-1],"loss_changes":[2.6740363E0,5.478426E0,2.524348E0,2.7247121E0,0E0,4.053733E0,3.6480954E0,0E0,0E0,0E0,0E0,0E0,0E0],"parents":[2147483647,0,0,1,1,2,2,3,3,5,5,6,6],"right_children":[2,4,6,8,-1,10,12,-1,-1,-1,-1,-1,-1],"split_conditions":[1.650094E0,1.5698637E0,9.089766E-2,1.1310739E-1,-7.410372E-2,1.0789786E-3,1.5872571E-1,4.1500296E-2,-1.5996778E-2,-1.12358285E-2,5.994744E-2,-4.824142E-2,1.6295588E-2],"split_indices":[8,8,9,0,0,10,0,0,0,0,0,0,0],"split_type":[0,0,0,0,0,0,0,0,0,0,0,0,0],"sum_hessian":[8.3208595E1,3.39922E1,4.9216393E1,2.5701508E1,8.290692E0,2.271003E1,2.6506363E1,7.3887033E0,1.8312803E1,7.745299E0,1.4964731E1,8.456276E0,1.8050089E1],"tree_param":{"num_deleted":"0","num_feature":"12","num_nodes":"13","size_leaf_vector":"1"}},{"base_weights":[-2.6387481E-2,1.6294615E-1,-1.2528442E-1,-2.2341809E-1,5.4365367E-1,-6.423324E-2,1.7569492E-2,-6.54417E-2,1.9224929E-2,6.747305E-2,2.1123884E-3,1.1695667E-2,-3.4271345E-2],"categories":[],"categories_nodes":[],"categories_segments":[],"categories_sizes":[],"default_left":[0,0,0,0,0,0,0,0,0,0,0,0,0],"id":59,"left_children":[1,3,5,7,9,-1,11,-1,-1,-1,-1,-1,-1],"loss_changes":[1.8107663E0,5.4439955E0,5.671382E0,4.22268E0,4.8118544E-1,0E0,1.9901476E0,0E0,0E0,0E0,0E0,0E0,0E0],"parents":[2147483647,0,0,1,1,2,2,3,3,4,4,6,6],"right_children":[2,4,6,8,10,-1,12,-1,-1,-1,-1,-1,-1],"split_conditions":[1.8868811E-1,8.2858956E-1,7.41271E-1,9.23708E-4,1.7166607E-1,-6.423324E-2,2.1662013E-1,-6.54417E-2,1.9224929E-2,6.747305E-2,2.1123884E-3,1.1695667E-2,-3.4271345E-2],"split_indices":[3,7,4,10,3,0,0,0,0,0,0,0,0],"split_type":[0,0,0,0,0,0,0,0,0,0,0,0,0],"sum_hessian":[8.82657E1,2.5704979E1,6.256072E1,1.247931E1,1.322567E1,1.1273872E1,5.1286846E1,5.8978305E0,6.5814795E0,7.879056E0,5.3466134E0,4.5020126E1,6.2667193E0],"tree_param":{"num_deleted":"0","num_feature":"12","num_nodes":"13","size_leaf_vector":"1"}},{"base_weights":[-3.970248E-2,2.2512698E-3,-4.373437E-2,-7.5149804E-2,4.7833886E-2,6.5108254E-3,-4.0633764E-2],"categories":[],"categories_nodes":[],"categories_segments":[],"categories_sizes":[],"default_left":[0,0,0,0,0,0,0],"id":60,"left_children":[1,3,-1,5,-1,-1,-1],"loss_changes":[1.9665989E0,3.7326214E0,0E0,4.005501E0,0E0,0E0,0E0],"parents":[2147483647,0,0,1,1,3,3],"right_children":[2,4,-1,6,-1,-1,-1],"split_conditions":[2.1662013E-1,3.1106475E-1,-4.373437E-2,1.1741031E0,4.7833886E-2,6.5108254E-3,-4.0633764E-2],"split_indices":[0,3,0,7,0,0,0],"split_type":[0,0,0,0,0,0,0],"sum_hessian":[8.650786E1,8.047417E1,6.033688E0,7.1035675E1,9.438492E0,5.0602943E1,2.0432735E1],"tree_param":{"num_deleted":"0","num_feature":"12","num_nodes":"7","size_leaf_vector":"1"}},{"base_weights":[-1.0409465E-2,-1.1340257E-1,2.735819E-1,1.2038214E-1,-2.4224484E-1,-6.632253E-4,4.2047954E-1,-2.2442436E-2,4.136012E-2,-6.135736E-2,2.3728497E-3,5.3425487E-2,-0E0],"categories":[],"categories_nodes":[],"categories_segments":[],"categories_sizes":[],"default_left":[0,0,0,0,0,0,0,0,0,0,0,0,0],"id":61,"left_children":[1,3,5,7,9,-1,11,-1,-1,-1,-1,-1,-1],"loss_changes":[2.6948464E0,2.4924066E0,1.3929744E0,3.365376E0,5.8017273E0,0E0,4.8172712E-1,0E0,0E0,0E0,0E0,0E0,0E0],"parents":[2147483647,0,0,1,1,2,2,3,3,4,4,6,6],"right_children":[2,4,6,8,10,-1,12,-1,-1,-1,-1,-1,-1],"split_conditions":[4.9421535E0,1.9316652E-1,2.1861412E-1,7.7924323E-3,8.180498E-1,-6.632253E-4,5.335352E0,-2.2442436E-2,4.136012E-2,-6.135736E-2,2.3728497E-3,5.3425487E-2,-0E0],"split_indices":[2,3,3,11,4,0,2,0,0,0,0,0,0],"split_type":[0,0,0,0,0,0,0,0,0,0,0,0,0],"sum_hessian":[8.730699E1,6.885903E1,1.844796E1,2.1824781E1,4.703425E1,5.6455674E0,1.2802393E1,9.001858E0,1.2822924E1,1.847139E1,2.8562859E1,7.715085E0,5.087308E0],"tree_param":{"num_deleted":"0","num_feature":"12","num_nodes":"13","size_leaf_vector":"1"}},{"base_weights":[-3.997863E-3,-2.4990024E-1,1.4054546E-1,1.6436705E-1,-5.219604E-1,-3.1774953E-2,2.7429947E-1,2.7216172E-2,-0E0,-7.061181E-2,-0E0,4.340365E-2,-9.5210895E-3],"categories":[],"categories_nodes":[],"categories_segments":[],"categories_sizes":[],"default_left":[0,0,0,0,0,0,0,0,0,0,0,0,0],"id":62,"left_children":[1,3,5,7,9,-1,11,-1,-1,-1,-1,-1,-1],"loss_changes":[3.4238377E0,4.9627104E0,3.8408258E0,3.0522928E-1,1.8524008E0,0E0,3.3739073E0,0E0,0E0,0E0,0E0,0E0,0E0],"parents":[2147483647,0,0,1,1,2,2,3,3,4,4,6,6],"right_children":[2,4,6,8,10,-1,12,-1,-1,-1,-1,-1,-1],"split_conditions":[1.6455351E0,1.4125246E0,8.258301E-3,1.0714994E-2,9.683099E-1,-3.1774953E-2,1.3549926E-2,2.7216172E-2,-0E0,-7.061181E-2,-0E0,4.340365E-2,-9.5210895E-3],"split_indices":[8,8,11,11,4,0,11,0,0,0,0,0,0],"split_type":[0,0,0,0,0,0,0,0,0,0,0,0,0],"sum_hessian":[8.331058E1,3.2053635E1,5.1256947E1,1.2033587E1,2.0020046E1,8.336886E0,4.292006E1,5.3334255E0,6.7001615E0,1.238644E1,7.6336064E0,3.1245834E1,1.1674226E1],"tree_param":{"num_deleted":"0","num_feature":"12","num_nodes":"13","size_leaf_vector":"1"}},{"base_weights":[-4.0408865E-2,2.4829349E-1,-1.18043795E-1,4.0171567E-2,-0E0,-3.595259E-1,1.1835368E-3,-4.761131E-2,-0E0,-3.6652133E-2,1.3596996E-2],"categories":[],"categories_nodes":[],"categories_segments":[],"categories_sizes":[],"default_left":[0,0,0,0,0,0,0,0,0,0,0],"id":63,"left_children":[1,3,5,-1,-1,7,9,-1,-1,-1,-1],"loss_changes":[1.941291E0,8.5177267E-1,2.485362E0,0E0,0E0,1.4795265E0,2.5769985E0,0E0,0E0,0E0,0E0],"parents":[2147483647,0,0,1,1,2,2,5,5,6,6],"right_children":[2,4,6,-1,-1,8,10,-1,-1,-1,-1],"split_conditions":[1.4125246E0,1.1944026E-2,1.6455351E0,4.0171567E-2,-0E0,1.916122E-3,8.290505E-3,-4.761131E-2,-0E0,-3.6652133E-2,1.3596996E-2],"split_indices":[8,11,8,0,0,10,11,0,0,0,0],"split_type":[0,0,0,0,0,0,0,0,0,0,0],"sum_hessian":[8.0885864E1,1.2082514E1,6.8803345E1,6.804171E0,5.2783422E0,2.2183357E1,4.661999E1,1.7027245E1,5.156114E0,8.20923E0,3.841076E1],"tree_param":{"num_deleted":"0","num_feature":"12","num_nodes":"11","size_leaf_vector":"1"}},{"base_weights":[-0E0,2.1358708E-1,-1.1658954E-1,-6.9587664E-3,3.746795E-1,-8.2288615E-2,2.8036274E-2,5.3237762E-2,-0E0,5.717277E-2,-1.2271388E-2],"categories":[],"categories_nodes":[],"categories_segments":[],"categories_sizes":[],"default_left":[0,0,0,0,0,0,0,0,0,0,0],"id":64,"left_children":[1,3,5,-1,7,-1,9,-1,-1,-1,-1],"loss_changes":[2.2907877E0,1.8847536E0,7.2332807E0,0E0,1.7189901E0,0E0,5.310965E0,0E0,0E0,0E0,0E0],"parents":[2147483647,0,0,1,1,2,2,4,4,6,6],"right_children":[2,4,6,-1,8,-1,10,-1,-1,-1,-1],"split_conditions":[1.24668255E-1,4.2051962E-1,9.786856E-3,-6.9587664E-3,8.829536E-3,-8.2288615E-2,1.0714994E-2,5.3237762E-2,-0E0,5.717277E-2,-1.2271388E-2],"split_indices":[0,6,11,0,11,0,11,0,0,0,0],"split_type":[0,0,0,0,0,0,0,0,0,0,0],"sum_hessian":[8.3671455E1,2.6770758E1,5.69007E1,8.486088E0,1.828467E1,6.8608003E0,5.0039898E1,1.2598257E1,5.6864123E0,9.271672E0,4.0768227E1],"tree_param":{"num_deleted":"0","num_feature":"12","num_nodes":"11","size_leaf_vector":"1"}},{"base_weights":[-9.294456E-3,2.7813476E-1,-1.3784333E-1,-1.9791496E-3,4.5847422E-1,-2.995758E-1,2.538728E-1,6.2403154E-2,-0E0,-0E0,-5.2636117E-2,4.8689116E-2,-9.574145E-3],"categories":[],"categories_nodes":[],"categories_segments":[],"categories_sizes":[],"default_left":[0,0,0,0,0,0,0,0,0,0,0,0,0],"id":65,"left_children":[1,3,5,-1,7,9,11,-1,-1,-1,-1,-1,-1],"loss_changes":[3.2532094E0,1.8826869E0,4.58344E0,0E0,9.4113207E-1,3.5673947E0,2.259796E0,0E0,0E0,0E0,0E0,0E0,0E0],"parents":[2147483647,0,0,1,1,2,2,4,4,5,5,6,6],"right_children":[2,4,6,-1,8,10,12,-1,-1,-1,-1,-1,-1],"split_conditions":[1.8699881E-1,6.9397604E-1,3.2425693E-1,-1.9791496E-3,1.6607901E-1,1.0178268E0,1.9667386E-3,6.2403154E-2,-0E0,-0E0,-5.2636117E-2,4.8689116E-2,-9.574145E-3],"split_indices":[3,7,3,0,3,7,10,0,0,0,0,0,0],"split_type":[0,0,0,0,0,0,0,0,0,0,0,0,0],"sum_hessian":[8.165543E1,2.103184E1,6.0623596E1,7.5180173E0,1.3513822E1,4.5547035E1,1.5076562E1,7.4101706E0,6.103651E0,2.1297464E1,2.4249569E1,9.585109E0,5.491453E0],"tree_param":{"num_deleted":"0","num_feature":"12","num_nodes":"13","size_leaf_vector":"1"}},{"base_weights":[-5.939424E-2,-1.5741065E-1,2.2568786E-1,-0E0,-6.4783856E-2,6.526559E-2,-3.0874187E-2,-1.7931528E-2,3.3578984E-2],"categories":[],"categories_nodes":[],"categories_segments":[],"categories_sizes":[],"default_left":[0,0,0,0,0,0,0,0,0],"id":66,"left_children":[1,3,5,7,-1,-1,-1,-1,-1],"loss_changes":[2.4973252E0,4.6964397E0,6.2138367E0,3.6911912E0,0E0,0E0,0E0,0E0,0E0],"parents":[2147483647,0,0,1,1,2,2,3,3],"right_children":[2,4,6,8,-1,-1,-1,-1,-1],"split_conditions":[3.1106475E-1,2.6851055E-1,2.0539846E-1,7.770529E-1,-6.4783856E-2,6.526559E-2,-3.0874187E-2,-1.7931528E-2,3.3578984E-2],"split_indices":[3,3,0,4,0,0,0,0,0],"split_type":[0,0,0,0,0,0,0,0,0],"sum_hessian":[8.0459595E1,6.415047E1,1.6309132E1,5.3877804E1,1.0272666E1,9.49134E0,6.817791E0,3.8564533E1,1.5313267E1],"tree_param":{"num_deleted":"0","num_feature":"12","num_nodes":"9","size_leaf_vector":"1"}},{"base_weights":[1.3281164E-3,6.6003904E-2,-3.64487E-2,-5.782516E-2,7.16988E-2,9.4871E-3,-5.3840637E-2],"categories":[],"categories_nodes":[],"categories_segments":[],"categories_sizes":[],"default_left":[0,0,0,0,0,0,0],"id":67,"left_children":[1,3,-1,5,-1,-1,-1],"loss_changes":[1.9087541E0,7.437229E0,0E0,5.9693923E0,0E0,0E0,0E0],"parents":[2147483647,0,0,1,1,3,3],"right_children":[2,4,-1,6,-1,-1,-1],"split_conditions":[1.9704264E0,1.9018408E0,-3.64487E-2,1.2784133E0,7.16988E-2,9.4871E-3,-5.3840637E-2],"split_indices":[7,7,0,7,0,0,0],"split_type":[0,0,0,0,0,0,0],"sum_hessian":[8.320812E1,7.651229E1,6.6958327E0,6.682137E1,9.690918E0,5.2175632E1,1.4645739E1],"tree_param":{"num_deleted":"0","num_feature":"12","num_nodes":"7","size_leaf_vector":"1"}},{"base_weights":[-1.9629945E-3,-9.097647E-2,2.1531919E-1,4.584109E-2,-3.4343788E-1,3.4979784E-1,-0E0,-9.047515E-3,5.7550956E-2,-0E0,-4.3505937E-2,-0E0,4.788482E-2],"categories":[],"categories_nodes":[],"categories_segments":[],"categories_sizes":[],"default_left":[0,0,0,0,0,0,0,0,0,0,0,0,0],"id":68,"left_children":[1,3,5,7,9,11,-1,-1,-1,-1,-1,-1,-1],"loss_changes":[1.6536479E0,2.7389336E0,8.373207E-1,4.0812974E0,9.903729E-1,4.4028544E-1,0E0,0E0,0E0,0E0,0E0,0E0,0E0],"parents":[2147483647,0,0,1,1,2,2,3,3,4,4,5,5],"right_children":[2,4,6,8,10,12,-1,-1,-1,-1,-1,-1,-1],"split_conditions":[4.9421535E0,1.0491429E-1,3.7504978E0,1.613583E-1,2.9781392E0,1.4250233E-3,-0E0,-9.047515E-3,5.7550956E-2,-0E0,-4.3505937E-2,-0E0,4.788482E-2],"split_indices":[2,9,5,0,5,10,0,0,0,0,0,0,0],"split_type":[0,0,0,0,0,0,0,0,0,0,0,0,0],"sum_hessian":[8.186428E1,6.3400112E1,1.846417E1,4.1202286E1,2.2197824E1,1.0733884E1,7.7302876E0,3.4564636E1,6.6376505E0,5.0168247E0,1.7181E1,5.417676E0,5.3162074E0],"tree_param":{"num_deleted":"0","num_feature":"12","num_nodes":"13","size_leaf_vector":"1"}},{"base_weights":[-2.598536E-2,-1.5280773E-1,2.5186154E-1,-0E0,-3.610357E-1,3.8367444E-1,-0E0,3.6424935E-2,-2.3340033E-2,-6.5243796E-2,-1.0891221E-3,-0E0,5.43773E-2],"categories":[],"categories_nodes":[],"categories_segments":[],"categories_sizes":[],"default_left":[0,0,0,0,0,0,0,0,0,0,0,0,0],"id":69,"left_children":[1,3,5,7,9,11,-1,-1,-1,-1,-1,-1,-1],"loss_changes":[2.9780722E0,2.1928158E0,9.508121E-1,3.8143122E0,2.1470697E0,1.0319355E0,0E0,0E0,0E0,0E0,0E0,0E0,0E0],"parents":[2147483647,0,0,1,1,2,2,3,3,4,4,5,5],"right_children":[2,4,6,8,10,12,-1,-1,-1,-1,-1,-1,-1],"split_conditions":[4.8272104E0,1.2272739E-2,7.1720105E-1,4.0755396E0,8.180498E-1,4.6407136E-1,-0E0,3.6424935E-2,-2.3340033E-2,-6.5243796E-2,-1.0891221E-3,-0E0,5.43773E-2],"split_indices":[2,11,6,2,4,6,0,0,0,0,0,0,0],"split_type":[0,0,0,0,0,0,0,0,0,0,0,0,0],"sum_hessian":[7.686501E1,5.6791813E1,2.0073198E1,3.3899548E1,2.2892265E1,1.2263632E1,7.8095665E0,1.3194615E1,2.0704931E1,8.5794735E0,1.4312792E1,5.1791573E0,7.084475E0],"tree_param":{"num_deleted":"0","num_feature":"12","num_nodes":"13","size_leaf_vector":"1"}},{"base_weights":[-0E0,-2.1013758E-1,9.896436E-2,-6.9002956E-2,2.784113E-2,4.511814E-1,-1.2584566E-1,3.473428E-2,-2.1391323E-2,6.1388582E-2,-2.3326793E-5,-5.0039686E-2,1.9180832E-2],"categories":[],"categories_nodes":[],"categories_segments":[],"categories_sizes":[],"default_left":[0,0,0,0,0,0,0,0,0,0,0,0,0],"id":70,"left_children":[1,3,5,-1,7,9,11,-1,-1,-1,-1,-1,-1],"loss_changes":[1.9685276E0,4.330279E0,5.358037E0,0E0,2.3835876E0,2.5378861E0,5.402947E0,0E0,0E0,0E0,0E0,0E0,0E0],"parents":[2147483647,0,0,1,1,2,2,4,4,5,5,6,6],"right_children":[2,4,6,-1,8,10,12,-1,-1,-1,-1,-1,-1],"split_conditions":[8.2858956E-1,7.980335E-3,1.1741031E0,-6.9002956E-2,6.635066E-1,9.089766E-2,1.2881583E-1,3.473428E-2,-2.1391323E-2,6.1388582E-2,-2.3326793E-5,-5.0039686E-2,1.9180832E-2],"split_indices":[7,11,7,0,7,9,9,0,0,0,0,0,0],"split_type":[0,0,0,0,0,0,0,0,0,0,0,0,0],"sum_hessian":[8.125099E1,2.627764E1,5.4973354E1,6.95566E0,1.932198E1,2.1189135E1,3.378422E1,9.163787E0,1.0158192E1,1.5880846E1,5.3082876E0,1.5628282E1,1.8155941E1],"tree_param":{"num_deleted":"0","num_feature":"12","num_nodes":"13","size_leaf_vector":"1"}},{"base_weights":[8.949155E-2,-1.7439966E-1,2.0345393E-1,-6.1119378E-2,1.0913355E-1,6.348922E-2,6.387679E-2,6.3938946E-2,-3.4414306E-2,-3.3060152E-2,2.5661562E-2],"categories":[],"categories_nodes":[],"categories_segments":[],"categories_sizes":[],"default_left":[0,0,0,0,0,0,0,0,0,0,0],"id":71,"left_children":[1,3,5,-1,7,-1,9,-1,-1,-1,-1],"loss_changes":[2.8291225E0,4.098649E0,3.0644624E0,0E0,5.9215727E0,0E0,4.6894455E0,0E0,0E0,0E0,0E0],"parents":[2147483647,0,0,1,1,2,2,4,4,6,6],"right_children":[2,4,6,-1,8,-1,10,-1,-1,-1,-1],"split_conditions":[4.2988655E-1,8.450395E-3,7.6404708E-3,-6.1119378E-2,1.0985381E-2,6.348922E-2,7.608545E-1,6.3938946E-2,-3.4414306E-2,-3.3060152E-2,2.5661562E-2],"split_indices":[6,11,11,0,11,0,4,0,0,0,0],"split_type":[0,0,0,0,0,0,0,0,0,0,0],"sum_hessian":[8.220774E1,2.134796E1,6.0859783E1,7.5167947E0,1.3831165E1,8.787955E0,5.2071827E1,6.4449105E0,7.3862543E0,1.4214417E1,3.785741E1],"tree_param":{"num_deleted":"0","num_feature":"12","num_nodes":"11","size_leaf_vector":"1"}},{"base_weights":[-1.4565817E-2,3.369521E-2,-8.0105916E-2,7.372213E-2,-2.6433665E-1,-3.4101408E-2,2.4097333E-2,-5.523814E-2,4.3731267E-3],"categories":[],"categories_nodes":[],"categories_segments":[],"categories_sizes":[],"default_left":[0,0,0,0,0,0,0,0,0],"id":72,"left_children":[1,-1,3,5,7,-1,-1,-1,-1],"loss_changes":[1.8279389E0,0E0,2.4920611E0,3.3167024E0,4.1289396E0,0E0,0E0,0E0,0E0],"parents":[2147483647,0,0,2,2,3,3,4,4],"right_children":[2,-1,4,6,8,-1,-1,-1,-1],"split_conditions":[1.3510439E0,3.369521E-2,9.6590304E-1,9.877511E-4,1.749625E-3,-3.4101408E-2,2.4097333E-2,-5.523814E-2,4.3731267E-3],"split_indices":[8,0,7,10,10,0,0,0,0],"split_type":[0,0,0,0,0,0,0,0,0],"sum_hessian":[7.96333E1,6.862628E0,7.277067E1,3.8333977E1,3.4436695E1,7.8053045E0,3.0528671E1,1.7425016E1,1.7011677E1],"tree_param":{"num_deleted":"0","num_feature":"12","num_nodes":"9","size_leaf_vector":"1"}},{"base_weights":[-2.3648703E-2,1.6772121E-1,-1.3349019E-1,-2.049791E-1,4.7352535E-1,-5.143599E-1,6.4451024E-2,-4.887508E-2,8.668716E-3,7.079042E-2,-0E0,-0E0,-6.9334395E-2,1.7630678E-2,-2.5812251E-2],"categories":[],"categories_nodes":[],"categories_segments":[],"categories_sizes":[],"default_left":[0,0,0,0,0,0,0,0,0,0,0,0,0,0,0],"id":73,"left_children":[1,3,5,7,9,11,13,-1,-1,-1,-1,-1,-1,-1,-1],"loss_changes":[1.8320196E0,4.0967007E0,5.0732675E0,1.8748379E0,2.5871015E0,2.4479918E0,1.6475433E0,0E0,0E0,0E0,0E0,0E0,0E0,0E0,0E0],"parents":[2147483647,0,0,1,1,2,2,3,3,4,4,5,5,6,6],"right_children":[2,4,6,8,10,12,14,-1,-1,-1,-1,-1,-1,-1,-1],"split_conditions":[1.24668255E-1,8.2858956E-1,8.180498E-1,7.3400643E-3,7.3113E-1,6.700245E-1,1.9704264E0,-4.887508E-2,8.668716E-3,7.079042E-2,-0E0,-0E0,-6.9334395E-2,1.7630678E-2,-2.5812251E-2],"split_indices":[0,7,4,11,6,7,7,0,0,0,0,0,0,0,0],"split_type":[0,0,0,0,0,0,0,0,0,0,0,0,0,0,0],"sum_hessian":[7.845742E1,2.4330027E1,5.4127396E1,1.0234787E1,1.4095241E1,1.7504766E1,3.6622627E1,5.2129326E0,5.021854E0,8.706583E0,5.3886576E0,5.027049E0,1.2477717E1,3.1178432E1,5.4441953E0],"tree_param":{"num_deleted":"0","num_feature":"12","num_nodes":"15","size_leaf_vector":"1"}},{"base_weights":[-5.7910554E-2,-1.7295209E-1,1.4246206E-1,1.8012856E-1,-3.3214077E-1,2.9452124E-1,-7.700832E-3,3.0817876E-2,-0E0,-4.2461272E-2,-0E0,-2.8682041E-3,4.832671E-2],"categories":[],"categories_nodes":[],"categories_segments":[],"categories_sizes":[],"default_left":[0,0,0,0,0,0,0,0,0,0,0,0,0],"id":74,"left_children":[1,3,5,7,9,11,-1,-1,-1,-1,-1,-1,-1],"loss_changes":[2.0097802E0,3.6313672E0,1.2967042E0,6.9175565E-1,1.5290046E0,1.7941743E0,0E0,0E0,0E0,0E0,0E0,0E0,0E0],"parents":[2147483647,0,0,1,1,2,2,3,3,4,4,5,5],"right_children":[2,4,6,8,10,12,-1,-1,-1,-1,-1,-1,-1],"split_conditions":[3.501996E0,2.9125528E0,1.68229E-1,1.1731312E-2,1.8587228E0,7.800991E-1,-7.700832E-3,3.0817876E-2,-0E0,-4.2461272E-2,-0E0,-2.8682041E-3,4.832671E-2],"split_indices":[5,5,0,11,7,4,0,0,0,0,0,0,0],"split_type":[0,0,0,0,0,0,0,0,0,0,0,0,0],"sum_hessian":[7.552062E1,5.1580967E1,2.3939653E1,1.3872403E1,3.7708565E1,1.582321E1,8.116444E0,8.731053E0,5.1413493E0,2.9612566E1,8.095998E0,5.4436736E0,1.0379537E1],"tree_param":{"num_deleted":"0","num_feature":"12","num_nodes":"13","size_leaf_vector":"1"}},{"base_weights":[5.4792836E-2,-5.0751444E-2,2.55137E-1,8.791704E-2,-4.7350666E-1,4.082266E-1,-2.2431662E-2,-1.4355639E-2,3.281549E-2,-0E0,-6.956748E-2,5.0807774E-2,-0E0],"categories":[],"categories_nodes":[],"categories_segments":[],"categories_sizes":[],"default_left":[0,0,0,0,0,0,0,0,0,0,0,0,0],"id":75,"left_children":[1,3,5,7,9,11,-1,-1,-1,-1,-1,-1,-1],"loss_changes":[2.1524453E0,4.066305E0,3.1982875E0,3.0360138E0,2.0001938E0,9.330349E-1,0E0,0E0,0E0,0E0,0E0,0E0,0E0],"parents":[2147483647,0,0,1,1,2,2,3,3,4,4,5,5],"right_children":[2,4,6,8,10,12,-1,-1,-1,-1,-1,-1,-1],"split_conditions":[1.6839742E-3,1.1010559E-2,3.7626168E-1,1.0964756E-3,9.009101E-2,3.6028492E0,-2.2431662E-2,-1.4355639E-2,3.281549E-2,-0E0,-6.956748E-2,5.0807774E-2,-0E0],"split_indices":[10,11,3,10,9,5,0,0,0,0,0,0,0],"split_type":[0,0,0,0,0,0,0,0,0,0,0,0,0],"sum_hessian":[8.4066025E1,5.4235786E1,2.9830236E1,4.2040714E1,1.2195074E1,2.4754593E1,5.0756435E0,2.031577E1,2.1724943E1,5.096067E0,7.099007E0,1.7823034E1,6.9315586E0],"tree_param":{"num_deleted":"0","num_feature":"12","num_nodes":"13","size_leaf_vector":"1"}},{"base_weights":[-2.8350366E-2,-1.6251004E-1,3.1484243E-1,2.1425101E-3,-5.009429E-1,5.9261013E-2,-1.5586073E-2,-1.4800983E-2,2.786369E-2,-3.3025485E-3,-6.660095E-2],"categories":[],"categories_nodes":[],"categories_segments":[],"categories_sizes":[],"default_left":[0,0,0,0,0,0,0,0,0,0,0],"id":76,"left_children":[1,3,5,7,9,-1,-1,-1,-1,-1,-1],"loss_changes":[3.852452E0,4.066718E0,3.8392353E0,2.2465448E0,9.6228695E-1,0E0,0E0,0E0,0E0,0E0,0E0],"parents":[2147483647,0,0,1,1,2,2,3,3,4,4],"right_children":[2,4,6,8,10,-1,-1,-1,-1,-1,-1],"split_conditions":[1.8587228E0,1.01840705E-1,1.9704264E0,7.3293483E-1,1.5678826E-3,5.9261013E-2,-1.5586073E-2,-1.4800983E-2,2.786369E-2,-3.3025485E-3,-6.660095E-2],"split_indices":[7,9,7,4,10,0,0,0,0,0,0],"split_type":[0,0,0,0,0,0,0,0,0,0,0],"sum_hessian":[7.642365E1,5.8932262E1,1.749139E1,4.0999134E1,1.7933128E1,1.1521782E1,5.9696083E0,2.5731953E1,1.52671795E1,7.8210845E0,1.0112044E1],"tree_param":{"num_deleted":"0","num_feature":"12","num_nodes":"11","size_leaf_vector":"1"}},{"base_weights":[-5.780601E-3,2.2983988E-1,-1.4728464E-1,-1.8027157E-2,4.432969E-1,-2.8712264E-1,1.4032592E-1,6.826114E-2,-0E0,1.5682464E-2,-4.3771826E-2,4.6990983E-2,-2.7860273E-2],"categories":[],"categories_nodes":[],"categories_segments":[],"categories_sizes":[],"default_left":[0,0,0,0,0,0,0,0,0,0,0,0,0],"id":77,"left_children":[1,3,5,-1,7,9,11,-1,-1,-1,-1,-1,-1],"loss_changes":[2.9324987E0,3.405024E0,2.7222204E0,0E0,2.8266497E0,3.545545E0,3.6528063E0,0E0,0E0,0E0,0E0,0E0,0E0],"parents":[2147483647,0,0,1,1,2,2,4,4,5,5,6,6],"right_children":[2,4,6,-1,8,10,12,-1,-1,-1,-1,-1,-1],"split_conditions":[1.24668255E-1,6.9397604E-1,1.8569597E0,-1.8027157E-2,1.0453515E0,6.635066E-1,1.9704264E0,6.826114E-2,-0E0,1.5682464E-2,-4.3771826E-2,4.6990983E-2,-2.7860273E-2],"split_indices":[0,7,7,0,7,7,7,0,0,0,0,0,0],"split_type":[0,0,0,0,0,0,0,0,0,0,0,0,0],"sum_hessian":[8.035356E1,2.632731E1,5.402625E1,7.674661E0,1.8652649E1,3.869696E1,1.5329291E1,1.1041525E1,7.6111245E0,8.067452E0,3.0629505E1,9.574954E0,5.7543373E0],"tree_param":{"num_deleted":"0","num_feature":"12","num_nodes":"13","size_leaf_vector":"1"}},{"base_weights":[3.0029375E-2,2.3877594E-1,-6.344155E-2,-0E0,5.1531088E-2,-6.0897853E-2,8.4274605E-2,3.3649907E-2,-2.7168725E-2,-4.1046184E-2,2.226409E-2],"categories":[],"categories_nodes":[],"categories_segments":[],"categories_sizes":[],"default_left":[0,0,0,0,0,0,0,0,0,0,0],"id":78,"left_children":[1,3,5,7,-1,-1,9,-1,-1,-1,-1],"loss_changes":[1.8437078E0,2.101997E0,5.376309E0,2.2973669E0,0E0,0E0,3.5426636E0,0E0,0E0,0E0,0E0],"parents":[2147483647,0,0,1,1,2,2,3,3,6,6],"right_children":[2,4,6,8,-1,-1,10,-1,-1,-1,-1],"split_conditions":[1.24668255E-1,5.9889965E-2,7.586725E-1,2.8680475E0,5.1531088E-2,-6.0897853E-2,1.3407499E-3,3.3649907E-2,-2.7168725E-2,-4.1046184E-2,2.226409E-2],"split_indices":[0,9,4,5,0,0,10,0,0,0,0],"split_type":[0,0,0,0,0,0,0,0,0,0,0],"sum_hessian":[7.662431E1,2.4603542E1,5.2020775E1,1.5331733E1,9.27181E0,9.200098E0,4.2820675E1,5.846188E0,9.485544E0,5.630144E0,3.7190533E1],"tree_param":{"num_deleted":"0","num_feature":"12","num_nodes":"11","size_leaf_vector":"1"}},{"base_weights":[-3.755872E-2,-2.365114E-1,6.754129E-2,-0E0,-5.6392133E-2,3.2587677E-1,-1.4108254E-1,-3.5903733E-2,2.6254604E-2,5.2158024E-2,-0E0,-3.3303525E-2,-0E0],"categories":[],"categories_nodes":[],"categories_segments":[],"categories_sizes":[],"default_left":[0,0,0,0,0,0,0,0,0,0,0,0,0],"id":79,"left_children":[1,3,5,7,-1,9,11,-1,-1,-1,-1,-1,-1],"loss_changes":[1.9268339E0,2.5725045E0,3.2770305E0,2.6623719E0,0E0,2.0861554E0,9.0103376E-1,0E0,0E0,0E0,0E0,0E0,0E0],"parents":[2147483647,0,0,1,1,2,2,3,3,5,5,6,6],"right_children":[2,4,6,8,-1,10,12,-1,-1,-1,-1,-1,-1],"split_conditions":[7.396183E-1,1.8789662E-1,2.6851055E-1,6.9397604E-1,-5.6392133E-2,5.069546E-1,9.9552506E-1,-3.5903733E-2,2.6254604E-2,5.2158024E-2,-0E0,-3.3303525E-2,-0E0],"split_indices":[4,3,3,7,0,6,4,0,0,0,0,0,0],"split_type":[0,0,0,0,0,0,0,0,0,0,0,0,0],"sum_hessian":[7.52486E1,2.7138622E1,4.8109974E1,1.8395971E1,8.742651E0,2.2380156E1,2.5729818E1,6.7548604E0,1.1641111E1,1.3356492E1,9.0236635E0,8.638581E0,1.7091238E1],"tree_param":{"num_deleted":"0","num_feature":"12","num_nodes":"13","size_leaf_vector":"1"}},{"base_weights":[2.7518517E-3,2.7524763E-1,-9.448878E-2,-1.223597E-2,5.199487E-2,-5.413065E-2,3.043684E-2,-4.236109E-2,1.8233394E-2],"categories":[],"categories_nodes":[],"categories_segments":[],"categories_sizes":[],"default_left":[0,0,0,0,0,0,0,0,0],"id":80,"left_children":[1,3,5,-1,-1,-1,7,-1,-1],"loss_changes":[2.453544E0,3.1723926E0,3.97674E0,0E0,0E0,0E0,3.6178815E0,0E0,0E0],"parents":[2147483647,0,0,1,1,2,2,6,6],"right_children":[2,4,6,-1,-1,-1,8,-1,-1],"split_conditions":[1.8868811E-1,6.700245E-1,1.547176E0,-1.223597E-2,5.199487E-2,-5.413065E-2,9.365965E-3,-4.236109E-2,1.8233394E-2],"split_indices":[3,7,8,0,0,0,11,0,0],"split_type":[0,0,0,0,0,0,0,0,0],"sum_hessian":[7.586547E1,2.0250025E1,5.5615448E1,7.1101513E0,1.31398735E1,1.0259656E1,4.5355793E1,7.4773197E0,3.787847E1],"tree_param":{"num_deleted":"0","num_feature":"12","num_nodes":"9","size_leaf_vector":"1"}},{"base_weights":[7.107922E-3,3.313879E-1,-5.444937E-2,4.524156E-2,-0E0,-2.0882471E-1,1.34782875E-2,2.475803E-3,-5.4743428E-2,3.4301057E-2,-8.41655E-3],"categories":[],"categories_nodes":[],"categories_segments":[],"categories_sizes":[],"default_left":[0,0,0,0,0,0,0,0,0,0,0],"id":81,"left_children":[1,3,5,-1,-1,7,9,-1,-1,-1,-1],"loss_changes":[1.9919717E0,5.0142944E-1,9.44646E-1,0E0,0E0,2.6646972E0,1.9762294E0,0E0,0E0,0E0,0E0],"parents":[2147483647,0,0,1,1,2,2,5,5,6,6],"right_children":[2,4,6,-1,-1,8,10,-1,-1,-1,-1],"split_conditions":[1.4042454E0,1.0714994E-2,9.457766E-3,4.524156E-2,-0E0,1.8699881E-1,1.0714994E-2,2.475803E-3,-5.4743428E-2,3.4301057E-2,-8.41655E-3],"split_indices":[8,11,11,0,0,3,11,0,0,0,0],"split_type":[0,0,0,0,0,0,0,0,0,0,0],"sum_hessian":[7.639618E1,1.12834835E1,6.511269E1,6.186484E0,5.097E0,2.1225388E1,4.3887306E1,1.3555543E1,7.669845E0,9.500739E0,3.4386566E1],"tree_param":{"num_deleted":"0","num_feature":"12","num_nodes":"11","size_leaf_vector":"1"}},{"base_weights":[-1.4967716E-3,2.32819E-1,-1.1518514E-1,-0E0,4.7012758E-2,-4.5895538E-1,1.0768553E-1,-3.8504027E-2,2.906085E-2,-6.347656E-2,-2.0193364E-3,2.7790481E-2,-3.8362138E-2],"categories":[],"categories_nodes":[],"categories_segments":[],"categories_sizes":[],"default_left":[0,0,0,0,0,0,0,0,0,0,0,0,0],"id":82,"left_children":[1,3,5,7,-1,9,11,-1,-1,-1,-1,-1,-1],"loss_changes":[2.140135E0,1.7642776E0,5.1873713E0,2.4012115E0,0E0,1.3076286E0,3.6573372E0,0E0,0E0,0E0,0E0,0E0,0E0],"parents":[2147483647,0,0,1,1,2,2,3,3,5,5,6,6],"right_children":[2,4,6,8,-1,10,12,-1,-1,-1,-1,-1,-1],"split_conditions":[5.783186E-1,8.258301E-3,1.5904744E-1,5.0377613E-1,4.7012758E-2,3.4656126E0,2.145908E-1,-3.8504027E-2,2.906085E-2,-6.347656E-2,-2.0193364E-3,2.7790481E-2,-3.8362138E-2],"split_indices":[4,11,0,6,0,5,0,0,0,0,0,0,0],"split_type":[0,0,0,0,0,0,0,0,0,0,0,0,0],"sum_hessian":[7.472087E1,1.9825167E1,5.4895702E1,1.0754408E1,9.07076E0,2.1273117E1,3.3622585E1,5.1631036E0,5.5913043E0,1.1965749E1,9.307368E0,2.8095665E1,5.526919E0],"tree_param":{"num_deleted":"0","num_feature":"12","num_nodes":"13","size_leaf_vector":"1"}},{"base_weights":[3.8702271E-3,2.4777861E-1,-5.317484E-2,3.907024E-2,-0E0,-4.1874808E-1,4.2536587E-2,-0E0,-6.374387E-2,3.0255154E-2,-1.4016287E-2],"categories":[],"categories_nodes":[],"categories_segments":[],"categories_sizes":[],"default_left":[0,0,0,0,0,0,0,0,0,0,0],"id":83,"left_children":[1,3,5,-1,-1,7,9,-1,-1,-1,-1],"loss_changes":[1.4010745E0,9.3428576E-1,2.8176632E0,0E0,0E0,1.776638E0,3.0181758E0,0E0,0E0,0E0,0E0],"parents":[2147483647,0,0,1,1,2,2,5,5,6,6],"right_children":[2,4,6,-1,-1,8,10,-1,-1,-1,-1],"split_conditions":[2.9125528E0,1.1731312E-2,1.0964756E-3,3.907024E-2,-0E0,6.9847153E-3,1.01840705E-1,-0E0,-6.374387E-2,3.0255154E-2,-1.4016287E-2],"split_indices":[5,11,10,0,0,11,9,0,0,0,0],"split_type":[0,0,0,0,0,0,0,0,0,0,0],"sum_hessian":[7.697583E1,1.4744552E1,6.2231277E1,9.0616455E0,5.682906E0,1.1578667E1,5.065261E1,5.051757E0,6.52691E0,2.1808516E1,2.8844095E1],"tree_param":{"num_deleted":"0","num_feature":"12","num_nodes":"11","size_leaf_vector":"1"}},{"base_weights":[7.819687E-2,-1.3316253E-1,1.9827497E-1,-4.1906035E-1,8.941522E-2,2.8569683E-1,-2.4498679E-2,-6.7108504E-2,-0E0,5.1295668E-2,-2.0918716E-2,-0E0,4.4198763E-2],"categories":[],"categories_nodes":[],"categories_segments":[],"categories_sizes":[],"default_left":[0,0,0,0,0,0,0,0,0,0,0,0,0],"id":84,"left_children":[1,3,5,7,9,11,-1,-1,-1,-1,-1,-1,-1],"loss_changes":[2.2670717E0,2.3956463E0,2.6008897E0,1.9158208E0,3.212059E0,2.2909446E0,0E0,0E0,0E0,0E0,0E0,0E0,0E0],"parents":[2147483647,0,0,1,1,2,2,3,3,4,4,5,5],"right_children":[2,4,6,8,10,12,-1,-1,-1,-1,-1,-1,-1],"split_conditions":[9.457766E-3,8.2858956E-1,1.6443728E-2,7.980335E-3,6.9847153E-3,1.6576785E0,-2.4498679E-2,-6.7108504E-2,-0E0,5.1295668E-2,-2.0918716E-2,-0E0,4.4198763E-2],"split_indices":[11,7,11,11,11,8,0,0,0,0,0,0,0],"split_type":[0,0,0,0,0,0,0,0,0,0,0,0,0],"sum_hessian":[7.655931E1,2.4522495E1,5.2036816E1,1.0768951E1,1.3753543E1,4.683347E1,5.203345E0,5.402971E0,5.365981E0,5.5876255E0,8.165918E0,1.844914E1,2.8384329E1],"tree_param":{"num_deleted":"0","num_feature":"12","num_nodes":"13","size_leaf_vector":"1"}},{"base_weights":[5.074952E-2,1.10621855E-1,-2.413283E-2,1.6287738E-2,4.3715186E-2,1.6343635E-2,-2.3652382E-2],"categories":[],"categories_nodes":[],"categories_segments":[],"categories_sizes":[],"default_left":[0,0,0,0,0,0,0],"id":85,"left_children":[1,3,-1,5,-1,-1,-1],"loss_changes":[1.3487527E0,1.6716217E0,0E0,2.4263437E0,0E0,0E0,0E0],"parents":[2147483647,0,0,1,1,3,3],"right_children":[2,4,-1,6,-1,-1,-1],"split_conditions":[1.9704264E0,1.8587228E0,-2.413283E-2,1.01840705E-1,4.3715186E-2,1.6343635E-2,-2.3652382E-2],"split_indices":[7,7,0,9,0,0,0],"split_type":[0,0,0,0,0,0,0],"sum_hessian":[7.1968544E1,6.514472E1,6.8238225E0,5.6991783E1,8.152944E0,3.964159E1,1.735019E1],"tree_param":{"num_deleted":"0","num_feature":"12","num_nodes":"7","size_leaf_vector":"1"}},{"base_weights":[-2.555342E-3,3.8322076E-2,-3.2955278E-2,-4.8465297E-2,3.2662922E-1,-1.4080039E-2,1.6482769E-2,4.3505706E-2,-0E0],"categories":[],"categories_nodes":[],"categories_segments":[],"categories_sizes":[],"default_left":[0,0,0,0,0,0,0,0,0],"id":86,"left_children":[1,3,-1,5,7,-1,-1,-1,-1],"loss_changes":[1.4364343E0,2.2018142E0,0E0,1.2411535E0,6.391158E-1,0E0,0E0,0E0,0E0],"parents":[2147483647,0,0,1,1,3,3,4,4],"right_children":[2,4,-1,6,8,-1,-1,-1,-1],"split_conditions":[3.793793E0,3.504551E0,-3.2955278E-2,3.1067327E-1,6.54192E-1,-1.4080039E-2,1.6482769E-2,4.3505706E-2,-0E0],"split_indices":[5,5,0,3,6,0,0,0,0],"split_type":[0,0,0,0,0,0,0,0,0],"sum_hessian":[7.595109E1,6.871682E1,7.2342744E0,5.3348576E1,1.5368241E1,4.1689037E1,1.1659539E1,9.857431E0,5.5108094E0],"tree_param":{"num_deleted":"0","num_feature":"12","num_nodes":"9","size_leaf_vector":"1"}},{"base_weights":[2.3017641E-2,1.0407003E-1,-1.3986044E-1,-9.712277E-2,2.6614785E-1,-3.3912253E-1,1.1765028E-2,2.7758166E-2,-2.8132314E-2,-0E0,4.1618522E-2,-4.876936E-2,-0E0],"categories":[],"categories_nodes":[],"categories_segments":[],"categories_sizes":[],"default_left":[0,0,0,0,0,0,0,0,0,0,0,0,0],"id":87,"left_children":[1,3,5,7,9,11,-1,-1,-1,-1,-1,-1,-1],"loss_changes":[1.1340072E0,2.3347704E0,1.7368573E0,2.3802173E0,1.9138095E0,8.7504315E-1,0E0,0E0,0E0,0E0,0E0,0E0,0E0],"parents":[2147483647,0,0,1,1,2,2,3,3,4,4,5,5],"right_children":[2,4,6,8,10,12,-1,-1,-1,-1,-1,-1,-1],"split_conditions":[1.3658245E-2,9.457766E-3,2.0432947E-3,1.5134299E0,1.6576538E0,8.291496E-1,1.1765028E-2,2.7758166E-2,-2.8132314E-2,-0E0,4.1618522E-2,-4.876936E-2,-0E0],"split_indices":[11,11,10,8,8,1,0,0,0,0,0,0,0],"split_type":[0,0,0,0,0,0,0,0,0,0,0,0,0],"sum_hessian":[7.809724E1,5.745231E1,2.064493E1,2.377434E1,3.3677967E1,1.2934727E1,7.710203E0,5.2107906E0,1.8563549E1,1.1811461E1,2.1866505E1,7.350942E0,5.5837846E0],"tree_param":{"num_deleted":"0","num_feature":"12","num_nodes":"13","size_leaf_vector":"1"}},{"base_weights":[-0E0,-1.18808575E-1,1.9839406E-1,1.5821092E-1,-3.0473194E-1,3.834174E-2,-1.9689E-2,-3.3988978E-3,2.8625136E-2,-4.504658E-2,1.7512491E-2],"categories":[],"categories_nodes":[],"categories_segments":[],"categories_sizes":[],"default_left":[0,0,0,0,0,0,0,0,0,0,0],"id":88,"left_children":[1,3,5,7,9,-1,-1,-1,-1,-1,-1],"loss_changes":[1.8356084E0,3.1261287E0,2.5801988E0,8.5425884E-1,3.165339E0,0E0,0E0,0E0,0E0,0E0,0E0],"parents":[2147483647,0,0,1,1,2,2,3,3,4,4],"right_children":[2,4,6,8,10,-1,-1,-1,-1,-1,-1],"split_conditions":[1.749625E-3,3.0462084E0,2.145908E-1,5.4372188E-2,5.551036E0,3.834174E-2,-1.9689E-2,-3.3988978E-3,2.8625136E-2,-4.504658E-2,1.7512491E-2],"split_indices":[10,5,0,9,2,0,0,0,0,0,0],"split_type":[0,0,0,0,0,0,0,0,0,0,0],"sum_hessian":[7.07389E1,4.817115E1,2.256775E1,1.7485321E1,3.0685827E1,1.7197792E1,5.369959E0,5.3368845E0,1.2148437E1,2.5370838E1,5.3149905E0],"tree_param":{"num_deleted":"0","num_feature":"12","num_nodes":"11","size_leaf_vector":"1"}},{"base_weights":[9.375167E-3,2.3140071E-1,-6.1242748E-2,-5.082926E-3,4.8203446E-2,-4.4492953E-2,4.34605E-2,-2.8939245E-2,1.3693007E-2],"categories":[],"categories_nodes":[],"categories_segments":[],"categories_sizes":[],"default_left":[0,0,0,0,0,0,0,0,0],"id":89,"left_children":[1,3,5,-1,-1,-1,7,-1,-1],"loss_changes":[1.4859699E0,2.2248023E0,2.9398239E0,0E0,0E0,0E0,1.6092179E0,0E0,0E0],"parents":[2147483647,0,0,1,1,2,2,6,6],"right_children":[2,4,6,-1,-1,-1,8,-1,-1],"split_conditions":[1.8868811E-1,4.3834156E-1,7.586725E-1,-5.082926E-3,4.8203446E-2,-4.4492953E-2,3.949182E-1,-2.8939245E-2,1.3693007E-2],"split_indices":[3,6,4,0,0,0,6,0,0],"split_type":[0,0,0,0,0,0,0,0,0],"sum_hessian":[7.4402725E1,1.8624203E1,5.577852E1,8.758104E0,9.866099E0,1.0522453E1,4.5256065E1,5.2787514E0,3.9977314E1],"tree_param":{"num_deleted":"0","num_feature":"12","num_nodes":"9","size_leaf_vector":"1"}},{"base_weights":[-0E0,5.8421485E-2,-2.1845055E-1,-0E0,3.840107E-2,-4.8011567E-2,1.0737504E-2,1.3715111E-2,-1.3847311E-2],"categories":[],"categories_nodes":[],"categories_segments":[],"categories_sizes":[],"default_left":[0,0,0,0,0,0,0,0,0],"id":90,"left_children":[1,3,5,7,-1,-1,-1,-1,-1],"loss_changes":[1.0400772E0,1.431315E0,2.1065586E0,1.1690345E0,0E0,0E0,0E0,0E0,0E0],"parents":[2147483647,0,0,1,1,2,2,3,3],"right_children":[2,4,6,8,-1,-1,-1,-1,-1],"split_conditions":[3.6238525E0,3.504551E0,1.6884761E0,3.0383987E0,3.840107E-2,-4.8011567E-2,1.0737504E-2,1.3715111E-2,-1.3847311E-2],"split_indices":[5,5,7,5,0,0,0,0,0],"split_type":[0,0,0,0,0,0,0,0,0],"sum_hessian":[6.998113E1,5.766816E1,1.2312976E1,5.1511517E1,6.156643E0,7.217871E0,5.0951047E0,2.3642574E1,2.786894E1],"tree_param":{"num_deleted":"0","num_feature":"12","num_nodes":"9","size_leaf_vector":"1"}},{"base_weights":[6.5585366E-3,8.419636E-2,-4.255391E-2,-0E0,4.1234948E-2,1.438989E-2,-3.7873827E-2],"categories":[],"categories_nodes":[],"categories_segments":[],"categories_sizes":[],"default_left":[0,0,0,0,0,0,0],"id":91,"left_children":[1,3,-1,5,-1,-1,-1],"loss_changes":[2.5044243E0,1.619033E0,0E0,3.6309674E0,0E0,0E0,0E0],"parents":[2147483647,0,0,1,1,3,3],"right_children":[2,4,-1,6,-1,-1,-1],"split_conditions":[1.9704264E0,1.9018408E0,-4.255391E-2,1.3658245E-2,4.1234948E-2,1.438989E-2,-3.7873827E-2],"split_indices":[7,7,0,11,0,0,0],"split_type":[0,0,0,0,0,0,0],"sum_hessian":[7.4488884E1,6.8517845E1,5.971036E0,6.093079E1,7.5870543E0,4.831399E1,1.2616798E1],"tree_param":{"num_deleted":"0","num_feature":"12","num_nodes":"7","size_leaf_vector":"1"}},{"base_weights":[-0E0,1.6174723E-1,-1.622119E-1,-6.73523E-2,3.6736268E-1,-3.397695E-1,1.08565226E-1,-3.4673747E-2,1.5584885E-2,5.6157287E-2,-0E0,2.4641864E-3,-5.4766078E-2,4.038783E-2,-2.3548504E-2],"categories":[],"categories_nodes":[],"categories_segments":[],"categories_sizes":[],"default_left":[0,0,0,0,0,0,0,0,0,0,0,0,0,0,0],"id":92,"left_children":[1,3,5,7,9,11,13,-1,-1,-1,-1,-1,-1,-1,-1],"loss_changes":[2.1835768E0,2.313223E0,2.48801E0,1.7642106E0,1.8854604E0,2.8234086E0,2.5367367E0,0E0,0E0,0E0,0E0,0E0,0E0,0E0,0E0],"parents":[2147483647,0,0,1,1,2,2,3,3,4,4,5,5,6,6],"right_children":[2,4,6,8,10,12,14,-1,-1,-1,-1,-1,-1,-1,-1],"split_conditions":[9.089766E-2,6.2593915E-2,1.8587228E0,7.759968E-1,9.6029294E-1,1.0851011E-2,1.9704264E0,-3.4673747E-2,1.5584885E-2,5.6157287E-2,-0E0,2.4641864E-3,-5.4766078E-2,4.038783E-2,-2.3548504E-2],"split_indices":[9,9,7,7,7,11,7,0,0,0,0,0,0,0,0],"split_type":[0,0,0,0,0,0,0,0,0,0,0,0,0,0,0],"sum_hessian":[7.321513E1,3.5111294E1,3.810384E1,1.5897176E1,1.9214119E1,2.4474316E1,1.3629524E1,7.8207197E0,8.076456E0,1.1340749E1,7.8733706E0,8.74405E0,1.5730267E1,8.43042E0,5.199105E0],"tree_param":{"num_deleted":"0","num_feature":"12","num_nodes":"15","size_leaf_vector":"1"}},{"base_weights":[1.4709771E-3,1.944481E-1,-7.035445E-2,-0E0,3.809777E-2,-4.042862E-2,1.447026E-2,2.6273215E-2,-1.6943322E-2,1.1351974E-2,-2.7920952E-2],"categories":[],"categories_nodes":[],"categories_segments":[],"categories_sizes":[],"default_left":[0,0,0,0,0,0,0,0,0,0,0],"id":93,"left_children":[1,3,5,7,-1,-1,9,-1,-1,-1,-1],"loss_changes":[1.2218827E0,7.080628E-1,1.9491553E0,1.110045E0,0E0,0E0,1.3167653E0,0E0,0E0,0E0,0E0],"parents":[2147483647,0,0,1,1,2,2,3,3,6,6],"right_children":[2,4,6,8,-1,-1,10,-1,-1,-1,-1],"split_conditions":[1.20777346E-1,6.2593915E-2,2.2251701E-1,2.9451187E0,3.809777E-2,-4.042862E-2,1.0971249E0,2.6273215E-2,-1.6943322E-2,1.1351974E-2,-2.7920952E-2],"split_indices":[0,9,3,5,0,0,1,0,0,0,0],"split_type":[0,0,0,0,0,0,0,0,0,0,0],"sum_hessian":[6.926683E1,2.0249073E1,4.9017757E1,1.3793335E1,6.4557395E0,8.502816E0,4.051494E1,5.590007E0,8.203327E0,3.5136723E1,5.3782167E0],"tree_param":{"num_deleted":"0","num_feature":"12","num_nodes":"11","size_leaf_vector":"1"}},{"base_weights":[-0E0,-1.4254798E-1,7.154641E-2,2.0252315E-2,-3.5247922E-1,-2.0425534E-1,2.1049322E-1,2.4236056E-3,-5.1666707E-2,1.0782617E-2,-5.0579906E-2,4.004194E-2,-1.5051982E-2],"categories":[],"categories_nodes":[],"categories_segments":[],"categories_sizes":[],"default_left":[0,0,0,0,0,0,0,0,0,0,0,0,0],"id":94,"left_children":[1,3,5,-1,7,9,11,-1,-1,-1,-1,-1,-1],"loss_changes":[9.0775573E-1,2.8233817E0,2.1524787E0,0E0,2.0090806E0,2.2714052E0,3.183235E0,0E0,0E0,0E0,0E0,0E0,0E0],"parents":[2147483647,0,0,1,1,2,2,4,4,5,5,6,6],"right_children":[2,4,6,-1,8,10,12,-1,-1,-1,-1,-1,-1],"split_conditions":[1.6455351E0,1.3868164E0,9.457766E-3,2.0252315E-2,7.1760863E-1,4.175398E0,7.8445935E-1,2.4236056E-3,-5.1666707E-2,1.0782617E-2,-5.0579906E-2,4.004194E-2,-1.5051982E-2],"split_indices":[8,8,11,0,7,2,1,0,0,0,0,0,0],"split_type":[0,0,0,0,0,0,0,0,0,0,0,0,0],"sum_hessian":[7.237378E1,2.6977655E1,4.5396122E1,8.469321E0,1.8508335E1,1.2009936E1,3.3386185E1,5.0630198E0,1.3445314E1,5.850653E0,6.1592827E0,2.3334366E1,1.005182E1],"tree_param":{"num_deleted":"0","num_feature":"12","num_nodes":"13","size_leaf_vector":"1"}},{"base_weights":[2.4270995E-2,8.068736E-2,-2.8009519E-2,-0E0,4.6225853E-2,-1.40863005E-2,1.46542415E-2],"categories":[],"categories_nodes":[],"categories_segments":[],"categories_sizes":[],"default_left":[0,0,0,0,0,0,0],"id":95,"left_children":[1,3,-1,5,-1,-1,-1],"loss_changes":[1.2016143E0,2.153435E0,0E0,1.3980227E0,0E0,0E0,0E0],"parents":[2147483647,0,0,1,1,3,3],"right_children":[2,4,-1,6,-1,-1,-1],"split_conditions":[2.1662013E-1,3.1106475E-1,-2.8009519E-2,1.452845E-3,4.6225853E-2,-1.40863005E-2,1.46542415E-2],"split_indices":[0,3,0,10,0,0,0],"split_type":[0,0,0,0,0,0,0],"sum_hessian":[7.0010414E1,6.4934395E1,5.076018E0,5.772594E1,7.208458E0,2.953437E1,2.8191568E1],"tree_param":{"num_deleted":"0","num_feature":"12","num_nodes":"7","size_leaf_vector":"1"}},{"base_weights":[-1.0235332E-2,1.8350907E-1,-1.2512417E-1,3.6543828E-2,-0E0,-5.2518327E-2,-0E0,-2.9259821E-2,2.0075379E-2,1.8833553E-2,-1.8442137E-2],"categories":[],"categories_nodes":[],"categories_segments":[],"categories_sizes":[],"default_left":[0,0,0,0,0,0,0,0,0,0,0],"id":96,"left_children":[1,3,5,-1,7,-1,9,-1,-1,-1,-1],"loss_changes":[1.771409E0,1.271147E0,2.6446948E0,0E0,1.3238798E0,0E0,1.8017333E0,0E0,0E0,0E0,0E0],"parents":[2147483647,0,0,1,1,2,2,4,4,6,6],"right_children":[2,4,6,-1,8,-1,10,-1,-1,-1,-1],"split_conditions":[1.5698637E0,1.0714994E-2,1.6455351E0,3.6543828E-2,1.4682751E-2,-5.2518327E-2,9.089766E-2,-2.9259821E-2,2.0075379E-2,1.8833553E-2,-1.8442137E-2],"split_indices":[8,11,8,0,11,0,9,0,0,0,0],"split_type":[0,0,0,0,0,0,0,0,0,0,0],"sum_hessian":[7.204665E1,2.2467623E1,4.957903E1,1.1444894E1,1.1022728E1,7.6866064E0,4.189242E1,5.518712E0,5.5040164E0,2.0227457E1,2.1664967E1],"tree_param":{"num_deleted":"0","num_feature":"12","num_nodes":"11","size_leaf_vector":"1"}},{"base_weights":[-7.740716E-2,1.1204844E-1,-1.7482738E-1,4.000903E-2,-1.855871E-2,-4.387018E-1,-2.4037927E-2,-3.8094234E-2,3.8382046E-2,-6.1234653E-2,-0E0,6.0410774E-3,-2.514185E-2],"categories":[],"categories_nodes":[],"categories_segments":[],"categories_sizes":[],"default_left":[0,0,0,0,0,0,0,0,0,0,0,0,0],"id":97,"left_children":[1,3,5,-1,7,9,11,-1,-1,-1,-1,-1,-1],"loss_changes":[1.5697919E0,1.3774848E0,1.7070572E0,0E0,3.633628E0,1.157162E0,1.0973688E0,0E0,0E0,0E0,0E0,0E0,0E0],"parents":[2147483647,0,0,1,1,2,2,4,4,5,5,6,6],"right_children":[2,4,6,-1,8,10,12,-1,-1,-1,-1,-1,-1],"split_conditions":[1.5698637E0,1.7064568E-1,1.6892924E0,4.000903E-2,3.2425693E-1,3.3125045E0,2.6851055E-1,-3.8094234E-2,3.8382046E-2,-6.1234653E-2,-0E0,6.0410774E-3,-2.514185E-2],"split_indices":[8,3,8,0,3,5,3,0,0,0,0,0,0],"split_type":[0,0,0,0,0,0,0,0,0,0,0,0,0],"sum_hessian":[7.134403E1,2.048695E1,5.0857082E1,5.5615244E0,1.49254265E1,1.2610577E1,3.8246506E1,9.300746E0,5.6246805E0,7.1249747E0,5.485602E0,2.7359077E1,1.0887428E1],"tree_param":{"num_deleted":"0","num_feature":"12","num_nodes":"13","size_leaf_vector":"1"}},{"base_weights":[-1.904287E-2,5.1181618E-2,-1.3661033E-1,-7.488352E-2,3.3044118E-1,2.1538636E-2,-2.9884726E-1,5.1147207E-3,-3.3047907E-2,-0E0,4.526085E-2,-6.1738063E-2,1.205504E-3],"categories":[],"categories_nodes":[],"categories_segments":[],"categories_sizes":[],"default_left":[0,0,0,0,0,0,0,0,0,0,0,0,0],"id":98,"left_children":[1,3,5,7,9,-1,11,-1,-1,-1,-1,-1,-1],"loss_changes":[7.04594E-1,1.8794272E0,2.2983043E0,1.3614067E0,3.570882E-1,0E0,3.289611E0,0E0,0E0,0E0,0E0,0E0,0E0],"parents":[2147483647,0,0,1,1,2,2,3,3,4,4,6,6],"right_children":[2,4,6,8,10,-1,12,-1,-1,-1,-1,-1,-1],"split_conditions":[6.5550023E-1,4.9465942E-1,1.3667247E0,1.0886393E-2,8.236881E-2,2.1538636E-2,1.2881583E-1,5.1147207E-3,-3.3047907E-2,-0E0,4.526085E-2,-6.1738063E-2,1.205504E-3],"split_indices":[6,6,8,11,9,0,9,0,0,0,0,0,0],"split_type":[0,0,0,0,0,0,0,0,0,0,0,0,0],"sum_hessian":[6.5760345E1,3.761187E1,2.8148478E1,2.5967712E1,1.1644159E1,6.419213E0,2.1729263E1,1.7450249E1,8.517464E0,6.029369E0,5.6147904E0,9.887089E0,1.18421755E1],"tree_param":{"num_deleted":"0","num_feature":"12","num_nodes":"13","size_leaf_vector":"1"}},{"base_weights":[2.6277667E-2,-1.6584468E-1,1.2677188E-1,4.310302E-2,-4.699103E-2,2.1109095E-1,-2.5264576E-2,2.5386104E-2,-1.2285048E-2,-0E0,3.4375753E-2],"categories":[],"categories_nodes":[],"categories_segments":[],"categories_sizes":[],"default_left":[0,0,0,0,0,0,0,0,0,0,0],"id":99,"left_children":[1,3,5,7,-1,9,-1,-1,-1,-1,-1],"loss_changes":[1.527966E0,2.1007373E0,2.0155644E0,8.920974E-1,0E0,1.5746768E0,0E0,0E0,0E0,0E0,0E0],"parents":[2147483647,0,0,1,1,2,2,3,3,5,5],"right_children":[2,4,6,8,-1,10,-1,-1,-1,-1,-1],"split_conditions":[4.3475989E-1,4.4087353E0,1.9704264E0,2.1400689E-1,-4.699103E-2,6.471616E-1,-2.5264576E-2,2.5386104E-2,-1.2285048E-2,-0E0,3.4375753E-2],"split_indices":[6,2,7,3,0,1,0,0,0,0,0],"split_type":[0,0,0,0,0,0,0,0,0,0,0],"sum_hessian":[7.071878E1,1.9753073E1,5.096571E1,1.2301909E1,7.4511633E0,4.5670143E1,5.295564E0,6.907161E0,5.394748E0,1.8237776E1,2.743237E1],"tree_param":{"num_deleted":"0","num_feature":"12","num_nodes":"11","size_leaf_vector":"1"}}]},"name":"gbtree"},"learner_model_param":{"base_score":"5E-1","boost_from_average":"1","num_class":"0","num_feature":"12","num_target":"1"},"objective":{"name":"binary:logistic","reg_loss_param":{"scale_pos_weight":"2.60975599"}}},"version":[2,1,4]}